tree
version=v4
num_class=1
num_tree_per_iteration=1
label_index=0
max_feature_idx=43
objective=binary sigmoid:1
feature_names=tob_imbalance depth3_imbalance depth5_imbalance depth10_imbalance count_imbalance price_weighted_imbalance total_bid_depth total_ask_depth depth_ratio depth_diff spread spread_bps microprice microprice_deviation return_5 return_10 return_20 return_50 volatility_5 volatility_10 volatility_20 volatility_50 imbalance_change_5 spread_change_5 depth_change_5 vwap_deviation inferred_buy_vol_5 inferred_buy_vol_20 inferred_sell_vol_5 inferred_sell_vol_20 trade_imbalance_5 trade_imbalance_20 tob_imbalance_z depth_ratio_z total_bid_depth_z total_ask_depth_z spread_bps_z depth_diff_z bid_withdrawal_5 ask_withdrawal_5 withdrawal_imbalance_5 bid_withdrawal_20 ask_withdrawal_20 withdrawal_imbalance_20
feature_infos=[-0.9999996132095138:0.9999995337218206] [-0.9999936791466506:0.99999487032742274] [-0.99998780690146272:0.99999074898297513] [-0.99997287956681158:0.99997219054522746] [0:1431655765] [-0.99997288204838908:0.99997218615421612] [0.0012999999999999997:234.07733000000002] [0.0012999999999999997:253.26554999999999] [1.3560216594165987e-05:0.99998609527261373] [-251.77485999999999:234.02342000000002] [1:87] [0.10433458013156591:9.0940924984189877] [94307.10732806685:95845.978577587215] [-0.00035729214297811957:0.00025774162350275255] [-0.010378423789928704:0.0087426279140814245] [-0.010378423789928704:0.0087426279140814245] [-0.010420265888315683:0.008878626826300362] [-0.010347041067161555:0.008878626826300362] [0:0.0046413722187163154] [0:0.0032819457698651587] [0:0.0023235673186544304] [0:0.0014687526944547921] [-1.9999800048999974:1.9999883032885755] [-7.0480279376162676:8.9896096623368855] [-213.39937999999998:210.89018999999999] [-0.0004479751934848271:0.0002877698965483314] [0:59.841149999999999] [0:71.635589999999951] [0:91.257559999999998] [0:122.64343] [-1:1] [-1:1] [-14.071424945736091:14.071424945956815] [-14.07142498497479:14.071424950173517] [-14.071424945634728:14.071424952659575] [-14.071425201349564:14.071424946020441] [-55.598231338124094:42.738433081380279] [-14.071425035066687:14.071424947853497] [0:557.39296999999999] [0:396.92981000000009] [-1:1] [0:748.4220200000002] [0:602.55158000000006] [-1:1]
tree_sizes=3447 3544 3551 3566 3551 3543 3553 3551 3558 3579 3556 3559 3590 3544 3549 3565 3548 3575 3548 3567 3560 3562 3577 3580 3573 3553 3574 3586 3569 3572 3556 3591 3569 3570 3557 3536 3577 3574 3569 3566 3564 3570 3574 3562 3584 3553 3551 3543 3572 3564 3567 3550 3564 3544 3555 3558 3565 3499 3563 3544 3558 3580 3552 3574 3551 3549 3554 3500 3546 3561 3561 3565 3546 3563 3547 3562 3566 3555 3484 3541 3565 3526 3519 3568 3552 3556 3530 3507 3538 3559 3560 3578 3543 3517 3571 3551 3561 3553 3495 3530 3516 3534 3532 3541 3548 3567 3521 3496 3556 3498 3525 3556 3495 3543 3564 3538 3563 3551 3560 3521 3518 3522 3547 3530 3513 3564 3545 3538 3561 3515 2184 3567 3499 3553 3519 3506 3502 3549 2079 3553 3591 3566 3583 3513 2171 3501 3537 3565 3547 3535 3533

Tree=0
num_leaves=31
num_cat=0
split_feature=3 6 39 11 12 12 6 0 21 9 11 12 12 21 12 13 12 12 8 6 12 12 6 12 36 0 0 1 1 12
split_gain=30411 5463.97 2618.14 2394.5 2088.73 1677.75 1382.61 1178.22 969.974 759.847 679.618 1011.51 652.38 578.256 516.757 514.648 453.691 872.065 448.914 441.847 492.745 417.742 417.428 382.547 377.244 372.469 368.543 357.958 578.281 344.875
threshold=-0.60277018241550129 17.878730000000001 1.0000000180025095e-35 0.10469011725579985 95683.908723179236 95504.854673327063 3.7616100000000006 -0.23774297079133308 1.4860990088523772e-05 -31.942030000000003 0.10471971767851211 95088.000067985136 95738.999957979147 2.9634570450230859e-06 95730.943258413128 5.1480479410606787e-06 95272.060068038772 95322.883986768866 0.92666440811014461 0.5206050000000001 95668.445633083014 95349.999778770652 0.46748000000000017 95723.931107336655 -0.12916760494186835 -0.46619924255046635 -0.51176451488041319 -0.99947986150464374 -0.99987386735030059 95621.157644641629
decision_type=2 2 2 2 2 2 2 2 2 2 2 2 2 2 2 2 2 2 2 2 2 2 2 2 2 2 2 2 2 2
left_child=2 3 9 14 8 6 22 16 10 21 15 -12 -7 -9 29 -3 -5 -18 23 -11 -21 27 -4 -6 -16 -23 -14 28 -1 -2
right_child=1 4 5 7 18 12 -8 13 -10 19 11 -13 26 -15 24 -17 17 -19 -20 20 -22 25 -24 -25 -26 -27 -28 -29 -30 -31
leaf_value=0.49268771330832256 0.52722015332691241 0.56367288377365099 0.51238693372724831 0.53178143389199828 0.54746767102360328 0.50976172946111864 0.56397756442795266 0.57495402389767014 0.56342565704636438 0.49701464063526063 0.56613228346191324 0.58925163034619876 0.44246354542626476 0.55632878916160033 0.52544483717150836 0.58652470151843716 0.59736394765565382 0.54495218154587388 0.55455624349941313 0.5235781245215948 0.46546667269125314 0.47827629198730426 0.53281848194394743 0.50255813703641516 0.47333011849026541 0.56148911903339893 0.52908328686363404 0.49010309748269887 0.55426332363408193 0.54611535201770289
leaf_weight=853.31433880329132 6534.2615133225918 8694.2424498200417 3771.4358167946339 4316.944167226553 853.31433880329132 6813.9796249270439 3035.5798717439175 8306.119061768055 11230.043820083141 4196.9323301315308 6018.9302205741405 22129.532792925835 590.30967453122139 8365.5446522831917 768.12218365073204 3439.0239198505878 935.95305061340332 5216.2204861938953 2531.1587460041046 4629.8570422828197 396.01584929227829 5599.0048563480377 7419.8420907258987 1067.8035795688629 634.41460499167442 137.65380927920341 155.29578146338463 2755.8617601394653 688.96544003486633 3831.5578009486198
leaf_count=3676 28149 37454 16247 18597 3676 29354 13077 35782 48378 18080 25929 95332 2543 36038 3309 14815 4032 22471 10904 19945 1706 24120 31964 4600 2733 593 669 11872 2968 16506
internal_value=0.54802 0.563576 0.512062 0.549185 0.573581 0.523936 0.53405 0.557353 0.576421 0.49863 0.580044 0.584308 0.504901 0.565609 0.530349 0.570151 0.544207 0.552926 0.540726 0.508993 0.518997 0.489107 0.525932 0.522502 0.501864 0.480274 0.460493 0.500899 0.520197 0.534204
internal_weight=135917 94873.2 41044 38909.1 55964 21786.4 14226.9 27140.8 51511.8 19257.6 40281.7 28148.5 7559.59 16671.7 11768.4 12133.3 10469.1 6152.17 4452.28 9222.81 5025.87 10034.8 11191.3 1921.12 1402.54 5736.66 745.605 4298.14 1542.28 10365.8
internal_count=585519 408705 176814 167617 241088 93854 61288 116920 221908 82960 173530 121261 32566 71820 50697 52269 45100 26503 19180 39731 21651 43229 48211 8276 6042 24713 3212 18516 6644 44655
is_linear=0
shrinkage=1


Tree=1
num_leaves=31
num_cat=0
split_feature=5 6 39 12 11 12 6 21 6 12 0 12 6 13 3 12 3 3 11 6 10 4 12 11 21 1 12 4 12 11
split_gain=27334.1 4231.48 2614.1 2286.33 2032.93 1633.09 1493.59 952.866 777.955 758.32 709.81 633.542 606.537 555.003 518.923 476.549 473.045 456.421 449.868 425.062 414.393 527.713 401.159 383.353 360.96 348.425 353.548 347.533 333.622 316.037
threshold=-0.50198641431841862 15.531010000000002 1.0000000180025095e-35 95683.908723179236 0.10469011725579985 95504.854673327063 4.431445000000001 7.3894805296002865e-06 34.457250000000009 95446.933074271074 -0.66622780469113208 95730.943258413128 8.7669150000000027 -8.1429787201495649e-05 -0.99641313813390153 94392.00033225432 0.85272563114740152 -0.85426461313896984 0.10461783106598899 0.46748000000000017 6.5000000000000009 186737707.73913047 95730.943258413128 0.10461017020360887 1.4808208855651708e-06 0.45729139135750413 95621.157644641629 357913941.08333343 95780.124687719654 0.10472520107525747
decision_type=2 2 2 2 2 2 2 2 2 2 2 2 2 2 2 2 2 2 2 2 2 2 2 2 2 2 2 2 2 2
left_child=2 4 10 7 22 6 19 8 9 -3 13 17 -6 -1 -15 -10 28 -7 -12 -4 27 -22 25 -16 -8 26 -2 -20 -5 -9
right_child=1 3 5 16 12 11 24 29 15 -11 18 -13 -14 14 23 -17 -18 -19 20 -21 21 -23 -24 -25 -26 -27 -28 -29 -30 -31
leaf_value=-0.11403344767734275 -0.029790636523551607 0.035111347500225716 -0.033524463178391105 -0.019638082766605582 -0.0014968626610790342 -0.047009590457909187 0.032537987191978521 0.0091735814474894345 -0.11033345072805267 0.015808236289356861 -0.060783919026559358 -0.07454317709625001 0.015899235230469658 -0.060208370595095796 -0.064288092563590638 0.042591393892493168 0.0060888948224143155 -0.022373311613558319 0.009828003407605021 -0.013527386567592307 -0.11267447258183468 0.050460141353463363 -0.049179352521882075 -0.038147666826448552 0.0014360538883248452 0.0076472252737456855 -0.0050117419805017806 -0.060169126195310674 -0.091519341942403243 0.022238104687003653
leaf_weight=313.29581579566002 4023.6114072650671 10726.559357002378 3806.4024414271116 2256.0233757644892 8428.561203494668 3342.1379613876343 1800.8766362369061 6366.8576667606831 51.049186840653419 9681.8089527487755 510.55021683871746 1051.7380979955196 12354.276821181178 5199.1523804068565 1606.3451069146395 12074.738800615072 2534.1704129427671 4300.7525563836098 1441.1160635352135 8809.3605796694756 180.82563389837742 68.166604846715927 1040.3708717674017 11102.705838814378 1936.1116600334644 1285.7165244221687 2242.3615693300962 202.10374638438225 173.83104574680328 16976.025145664811
leaf_count=1332 17239 46658 16247 9662 36347 14256 7793 27555 221 41940 2170 4448 53408 22082 6815 52504 10936 18372 6171 37829 772 291 4428 47308 8369 5516 9655 864 741 73590
internal_value=1.50846e-05 0.0159707 -0.0315023 0.023495 0.000386358 -0.0206471 -0.0113371 0.026384 0.0319149 0.0259542 -0.044685 -0.0381563 0.00884397 -0.0480536 -0.0468984 0.0419463 -0.00902336 -0.0331476 -0.0191365 -0.0195615 -0.0078941 -0.0679907 -0.0200705 -0.0414525 0.0164261 -0.0160591 -0.0209242 0.0012127 -0.0247861 0.018675
internal_weight=135888 90216 45671.6 60841.1 29374.9 25047.4 16352.8 55877 32534.2 20408.4 20624.3 8694.63 20782.8 18221.5 17908.2 12125.8 4964.02 7642.89 2402.76 12615.8 1892.21 248.992 8592.06 12709.1 3736.99 7551.69 6265.97 1643.22 2429.85 23342.9
internal_count=585519 390400 195119 263807 126593 107314 70238 242468 141323 88598 87805 37076 89755 77537 76205 52725 21339 32628 10268 54076 8098 1063 36838 54123 16162 32410 26894 7035 10403 101145
is_linear=0
shrinkage=0.05


Tree=2
num_leaves=31
num_cat=0
split_feature=6 5 12 11 9 42 12 12 6 11 8 0 17 6 11 6 27 12 36 36 17 11 12 42 12 9 41 3 11 11
split_gain=24663.1 4649.24 2959.76 1426.84 1186.7 1011.66 1058.31 960.948 838.607 918.497 967.889 787.499 718.829 617.484 504.041 441.309 426.716 919.97 609.284 408.111 377.024 481.163 328.882 569.87 622.6 338.89 329.411 328.539 308.76 303.831
threshold=10.667770000000003 -0.80512517738830158 95511.628252059585 0.10463753557962631 24.333445000000001 0.019065000000085378 95519.851785321502 95683.908723179236 20.122285000000002 0.10517569600307691 0.75520458187652129 -0.29948295557747834 0.00011496595455540161 0.46748000000000017 0.10443973305489031 43.801310000000001 0.00018999999997159009 94966.999172542666 -0.14106077903249079 -0.40196225263917862 0.00028031800354888509 0.10443973305489031 95730.943258413128 0.088560000000113923 95626.143567729785 -5.1593899999999975 0.1570599999999012 -0.013644542104659497 0.10438631286950055 0.73341051678365354
decision_type=2 2 2 2 2 2 2 2 2 2 2 2 2 2 2 2 2 2 2 2 2 2 2 2 2 2 2 2 2 2
left_child=1 5 8 22 7 -1 13 27 16 12 15 19 -10 -7 -8 -11 17 -2 -19 -5 21 -6 23 25 -25 -3 -24 -4 -9 -13
right_child=2 3 4 11 20 6 14 28 9 10 -12 29 -14 -15 -16 -17 -18 18 -20 -21 -22 -23 26 24 -26 -27 -28 -29 -30 -31
leaf_value=-0.053722313580607188 0.032872022827831297 -0.092756560859810391 -0.019867665001998554 -0.02814090358884095 -0.022401570868095341 -0.035468976627347597 -0.096394334489123684 -0.1015395799918994 0.0395317369441891 -0.050319771481549369 0.022503498182295884 0.0092187271067235635 0.015594953955369001 -0.01581700665769447 -0.045167381678510754 0.047536039677684133 0.021059445029785427 0.011736569126798277 -0.040963926589977738 -0.0072867217116601218 -0.026049662667726584 0.021733603997034154 0.017982567612824327 -0.041309041987025827 -0.0037272793066590697 0.00081671267548717806 -0.065407473619911699 0.0058781765608300418 -0.025727739425838149 -0.053260834979456287
leaf_weight=7421.8049640953541 1440.9717256575823 452.01600548624992 1436.2392199039459 2877.7995947599411 658.03410616517067 7857.7325607836246 520.98359978199005 140.51283553242683 20282.489455863833 687.66869750618935 9473.3926567733288 8331.181035593152 3711.226901397109 8139.046128153801 6163.5748592913151 138.26631020009518 12647.380571201444 960.50778703391552 1277.8238144367933 12702.141568675637 485.31740352511406 9990.0921330153942 134.08144220709801 1932.2431074678898 2565.5274664759636 122.96979948878288 1005.9709895700216 9022.3892251849174 3025.7497654855251 199.11321327090263
leaf_count=31201 6254 1901 6148 12339 2835 33145 2164 591 89092 2991 41349 36008 16189 34704 25949 608 55089 4168 5523 54465 2101 43504 563 8214 10951 526 4213 38996 12887 851
internal_value=2.05688e-05 -0.0237777 0.0190983 -0.00995872 0.00493116 -0.0376974 -0.0324533 -0.00496382 0.0260274 0.0304682 0.0179773 -0.00445269 0.0358296 -0.0254707 -0.0491621 -0.0339283 0.0166996 0.00171126 -0.0183475 -0.0111392 0.0170408 0.0190055 -0.0313249 -0.0258685 -0.0198741 -0.0727391 -0.0555949 0.00234197 -0.0290968 0.00775914
internal_weight=135804 60426.2 75378.1 30323 24758.3 30103.1 22681.3 13624.9 50619.7 34293 10299.3 24110.2 23993.7 15996.8 6684.56 825.935 16326.7 3679.3 2238.33 15579.9 11133.4 10648.1 6212.81 5072.76 4497.77 574.986 1140.05 10458.6 3166.26 8530.29
internal_count=585519 257194 328325 130031 107062 127163 95962 58622 221263 150229 44948 103663 105281 67849 28113 3599 71034 15945 9691 66804 48440 46339 26368 21592 19165 2427 4776 45144 13478 36859
is_linear=0
shrinkage=0.05


Tree=3
num_leaves=31
num_cat=0
split_feature=6 5 12 11 6 39 12 21 12 0 35 2 10 17 6 6 21 36 36 11 7 0 12 6 11 12 11 29 12 11
split_gain=22253.2 4130.86 2712.65 1274.37 1107.07 1028.07 1007.49 813.125 748.47 709.309 678.383 453.451 426.193 404.615 393.471 382.808 381.847 375.837 366.537 361.509 334.737 334.53 333.153 309.676 297.887 290.536 411.688 452.507 284.686 283.495
threshold=10.667770000000003 -0.80512517738830158 95511.628252059585 0.10463753557962631 34.884805000000007 1.0000000180025095e-35 95723.931107336655 7.4066637478703336e-06 95519.851785321502 -0.29948295557747834 -0.60259247835023999 -0.62901094928739354 13.500000000000002 0.00028031800354888509 17.395675000000008 0.5206050000000001 3.113161600515717e-06 -0.071349264746809929 -0.25254138671565302 0.10503429369978894 11.867100000000001 -0.66622780469113208 95117.030191918035 19.880030000000001 0.10443973305489031 95730.943258413128 0.10456532195948458 0.00038000000000000273 95379.724038035652 0.10438631286950055
decision_type=2 2 2 2 2 2 2 2 2 2 2 2 2 2 2 2 2 2 2 2 2 2 2 2 2 2 2 2 2 2
left_child=1 5 7 25 6 12 13 10 15 18 22 28 20 14 -4 -7 -6 29 -5 -13 -1 -22 -2 -24 -10 26 27 -3 -12 -8
right_child=2 3 4 9 16 8 17 -9 24 -11 11 19 -14 -15 -16 -17 -18 -19 -20 -21 21 -23 23 -25 -26 -27 -28 -29 -30 -31
leaf_value=-0.016638043140544411 0.022314688803377045 -0.05270447783314916 -0.0065699808091540654 -0.022376055383150545 0.035260897809947588 -0.029521062566487608 -0.086656933364986574 0.017432485863755422 -0.08985246884763147 0.0073881498077905221 0.008082213725767803 0.030547238318308575 -0.09731876581861254 -0.042788211067356349 0.010301486578221058 -0.0097236418170751678 0.01188414381543159 -0.071048820114476149 -0.005590545474293853 0.011805260404921514 -0.046434425565044624 -0.0050227210827924534 0.027244111485944314 0.046138696374446196 -0.039415489997173016 -0.052227930816234981 -0.040320871665692502 -0.0019971763035182321 -0.045241732742616579 -0.015826654055115609
leaf_weight=1121.7922853082418 2768.9843416661024 544.43228942155838 5576.0769330114126 4616.9524470865726 2852.1498455405235 4279.9890489131212 155.50483259558678 21030.204259112477 315.81593735516071 8511.764555990696 1064.5539045631886 9665.6493329107761 369.25461015105247 479.42094196379185 9086.9703203290701 5687.9432998895645 4510.4953377842903 516.72909274697304 11007.248878821731 3507.8589668124914 14029.140487194061 505.54459547996521 2859.8849763274193 8998.2948511093855 4037.2214875221252 1152.4515652656555 2265.1994017213583 2292.5549828112125 327.10731317102909 1539.7133139967918
leaf_count=4688 12191 2276 23898 19689 12541 17984 643 92197 1287 36859 4601 42796 1521 2068 39524 24244 19706 2177 47115 15429 58447 2120 12553 40079 16872 4776 9538 9778 1417 6505
internal_value=2.53159e-05 -0.0224673 0.0182553 -0.0094369 0.00469492 -0.0355163 -0.00219726 0.0249289 -0.0257799 -0.00422445 0.0303291 0.0226896 -0.0442165 0.00240693 0.00388525 -0.0182249 0.0209409 -0.0337174 -0.0105511 0.0255571 -0.0429631 -0.0449944 0.0379355 0.0415825 -0.0430779 -0.02955 -0.0244257 -0.0117314 -0.00445024 -0.0223317
internal_weight=135677 60737.3 74939.6 30390.6 24717.1 30346.7 17354.4 50222.5 14321 24136 29192.3 14565.2 16025.7 15142.5 14663 9967.93 7362.65 2211.95 15624.2 13173.5 15656.5 14534.7 14627.2 11858.2 4353.04 6254.64 5102.19 2836.99 1391.66 1695.22
internal_count=585519 257194 328325 130031 107062 127163 74815 221263 60387 103663 129066 64243 66776 65490 63422 42228 32247 9325 66804 58225 65255 60567 64823 52632 18159 26368 21592 12054 6018 7148
is_linear=0
shrinkage=0.05


Tree=4
num_leaves=31
num_cat=0
split_feature=6 3 12 11 6 12 12 42 0 6 12 3 21 36 12 42 12 25 41 12 12 17 6 21 6 2 9 36 12 36
split_gain=20088.1 3707.84 2485.4 1308.57 1006.41 902.659 843.636 774.134 759.766 753.474 831.625 809.033 753.119 424.85 393.503 433.063 551.042 469.587 375.103 509.333 364.752 361.56 355.915 352.25 348.743 616.278 345.623 330.034 321.667 317.837
threshold=10.667770000000003 -0.85426461313896984 95511.628252059585 0.10463753557962631 34.884805000000007 95723.931107336655 95511.628252059585 2.5474300000001144 -0.43117034211797461 20.331800000000005 95025.903906023275 0.50915949890400836 7.4130697899154196e-06 0.81169021569306188 95730.943258413128 0.088560000000113923 95621.157644641629 -7.4045576457766979e-07 0.55978499999980824 95392.000005437614 94876.997429077557 0.00028031800354888509 17.395675000000008 3.113161600515717e-06 9.3790850000000017 -0.78917165159000169 152.21652000000003 -0.071349264746809929 95768.844623191195 -0.32905609297241489
decision_type=2 2 2 2 2 2 2 2 2 2 2 2 2 2 2 2 2 2 2 2 2 2 2 2 2 2 2 2 2 2
left_child=1 6 9 14 5 21 7 -1 24 13 11 -11 26 -2 15 17 -17 -3 19 -15 -13 22 -4 -6 -5 -26 -12 -7 29 -8
right_child=2 3 4 8 23 27 28 -9 -10 10 12 20 -14 18 -16 16 -18 -19 -20 -21 -22 -23 -24 -25 25 -27 -28 -29 -30 -31
leaf_value=-0.042983667328199485 0.018294510282476379 -0.078463328998735454 -0.006230714304054856 -0.0099685269822096471 0.033872942678927237 -0.021116315161920297 -0.025144777396660753 -0.021907005326153948 0.0052170163497070278 -0.048549597155297976 0.039687453332222775 0.027017851481571327 0.021379795363055058 -0.0048456231209385876 -0.053166823356031047 -0.037851697059543055 -0.0050231048603923932 0.047871595988708666 0.0083179823687592903 -0.09665626282693604 0.0044937350956965631 -0.040188983125327558 0.0098159972353285777 0.011330322135177616 -0.091856353367044036 -0.013715282460345968 -0.090530673668540979 -0.066490281777213445 -0.095434333598627852 -0.051696008917671732
leaf_weight=6800.4060712307692 14330.707630306482 565.31376238167286 5585.4699683636427 15257.373405560851 2821.3665664494038 1702.8549553304911 1384.4645641893148 12129.749081194401 10530.081117883325 482.78721667826176 15883.162248685956 4594.4838840812445 9329.1830737292767 437.80859114229679 1382.2250175625086 2198.1213427335024 3055.4600240439177 84.434651747345924 1537.4557571858168 230.65433576703072 2953.37617225945 484.76876494288445 9060.2860350012779 4494.8326985239983 368.01679071784019 802.93521471321583 51.006417721509933 524.3462495803833 356.10717582702637 6090.3233485072851
leaf_count=28153 63138 2325 23898 64908 12541 7148 5721 50814 45564 2088 71561 20272 41289 1891 5669 9172 12961 356 6752 994 13048 2068 39524 19706 1551 3419 230 2177 1450 25131
internal_value=2.89069e-05 -0.0212457 0.0174488 -0.0103484 0.00447061 -0.00208508 -0.0351898 -0.029479 -0.00526703 0.0238749 0.0282082 0.014191 0.0326637 0.0151501 -0.0291499 -0.0235248 -0.0187601 -0.0620336 -0.00527486 -0.0365422 0.0182053 0.00228928 0.0036959 0.0200245 -0.0119873 -0.0382841 0.0392697 -0.0318034 -0.0489937 -0.0467793
internal_weight=135510 61005 74504.6 34244 24673.9 17357.7 26761.1 18930.2 26958.4 49830.6 33294 8030.65 25263.4 16536.6 7285.55 5903.33 5253.58 649.748 2205.92 668.463 7547.86 15130.5 14645.8 7316.2 16428.3 1170.95 15934.2 2227.2 7830.9 7474.79
internal_count=585519 257194 328325 145925 107062 74815 111269 78967 115442 221263 148488 35408 113080 72775 30483 24814 22133 2681 9637 2885 33320 65490 63422 32247 69878 4970 71791 9325 32302 30852
is_linear=0
shrinkage=0.05


Tree=5
num_leaves=31
num_cat=0
split_feature=2 12 5 9 21 12 2 39 12 9 3 13 12 11 4 12 17 12 12 10 11 31 7 10 11 11 17 11 10 5
split_gain=18121.4 2641.06 1855.08 1303.32 1218.69 835.38 829.703 681.557 662.478 615.126 602.757 518.842 503.12 423.666 418.435 408.238 402.078 380.561 404.297 344.698 332.487 344.007 332.367 328.027 311.728 308.382 397.822 302.004 301.997 301.736
threshold=-0.56929081894666145 95511.628252059585 -0.86160078738522283 24.333445000000001 7.4066637478703336e-06 95676.005849318622 0.54769347930343015 1.0000000180025095e-35 95727.952681004346 18.428010000000004 -0.013644542104659497 1.0499900091099326e-05 95519.851785321502 0.10498908113845508 0.65881374722838149 94392.00033225432 0.00031396517345427816 95312.881829883554 95262.119024732892 29.500000000000004 0.10438631286950055 -0.06758021215643531 17.564010000000003 14.500000000000002 0.73341051678365354 0.10443973305489031 0.00028031800354888509 0.10514804845512706 17.500000000000004 -0.9566098545635443
decision_type=2 2 2 2 2 2 2 2 2 2 2 2 2 2 2 2 2 2 2 2 2 2 2 2 2 2 2 2 2 2
left_child=2 4 7 8 9 14 13 17 10 11 -3 22 29 16 27 -11 -6 18 -1 28 -10 -22 -2 -19 -13 -5 -27 -4 -16 -9
right_child=1 3 5 25 6 -7 -8 12 20 15 -12 24 -14 -15 19 -17 -18 23 -20 -21 21 -23 -24 -25 -26 26 -28 -29 -30 -31
leaf_value=-0.03550157888126336 0.017776467843473236 -0.017928752128923583 0.053089707786238671 -0.017164964897810712 0.012778339776946326 -0.04281557542287244 0.018217888098098305 -0.026195055995395924 -0.089783477749274296 -0.095510303867108709 0.003261222960250425 0.039607482840007903 -0.040976510160771952 -0.012700058398755862 -0.011903615316945351 0.034681203391101999 -0.057769843146488732 -0.0457122652353604 0.0059292717742398708 0.077662965458222488 -0.043130161848603521 -0.001087118168718373 0.034261973235570078 -0.10517542683114273 -0.083954431452046105 0.019314179750188704 -0.028824484612193703 -0.021911108456341019 -0.11015008678564493 -0.0071240450108168906
leaf_weight=5462.2039650380611 14403.448705911636 4839.0642994791269 430.88083279132843 696.55919741094112 4354.9763308167458 2223.3379248976707 16413.813156530261 4780.2260201573372 226.18307586014271 60.357466503977776 10948.847038969398 70.072618380188942 3287.5423838049173 4055.1001191288233 19140.754086241126 14103.675450533628 211.66857740283012 8296.7577902525663 659.72319428622723 106.94302907586098 1183.0443572103977 826.79505276679993 3882.710166439414 238.70676290988922 186.93566565215588 9814.166312739253 448.64024572074413 194.74965201318264 78.453799977898598 3665.2867404967546
leaf_count=22493 63732 20512 1899 2991 19061 9190 72855 19913 920 260 47307 309 13490 17601 81231 64186 925 33987 2721 466 4901 3421 17303 963 799 43453 1923 829 325 15485
internal_value=4.84732e-05 0.0137422 -0.024405 0.00142629 0.0199239 -0.013744 0.0116209 -0.0333628 -0.0068413 0.0262792 -0.00323335 0.0202855 -0.0243804 -0.000937673 -0.0105039 0.0341254 0.00950607 -0.0405525 -0.031036 -0.011807 -0.0323125 -0.0258382 0.0212773 -0.047377 -0.0502439 0.0150237 0.017209 0.0297353 -0.0123055 -0.0179192
internal_weight=135292 86726.1 48565.6 28983.3 57742.8 22175.1 25035.6 26390.4 18023.9 32707.2 15787.9 18543.2 11733.1 8621.75 19951.8 14164 4566.64 14657.4 6121.93 19326.2 2236.02 2009.84 18286.2 8535.46 257.008 10959.4 10262.8 625.63 19219.2 8445.51
internal_count=585451 382459 202992 125428 257031 93940 110442 109052 77061 146589 67819 82143 48888 37587 84750 64446 19986 60164 25214 82022 9242 8322 81035 34950 1108 48367 45376 2728 81556 35398
is_linear=0
shrinkage=0.05


Tree=6
num_leaves=31
num_cat=0
split_feature=6 3 12 6 12 21 12 42 13 35 5 12 9 12 12 12 41 12 6 12 42 12 6 42 10 12 6 4 12 12
split_gain=16671.6 2924.84 2076.16 1043.62 1012.8 769.343 662.501 645.773 572.127 505.078 437.656 410.95 458.823 333.472 332.644 390.12 521.444 319.602 623.023 457.705 313.245 311.948 292.321 289.23 280.483 270.735 285.055 263.526 243.721 242.256
threshold=10.667770000000003 -0.85426461313896984 95683.908723179236 20.331800000000005 95585.999954623883 1.3358650811341587e-05 95511.628252059585 2.5474300000001144 -1.502676853336036e-06 -0.70102711297928155 0.83210026348378163 95449.009194340062 -9.5952149999999996 95450.266305697805 95730.943258413128 95621.157644641629 1.0000000180025095e-35 95244.301371257709 9.6669250000000027 95325.990296734046 0.93152500000008176 95016.147076010864 0.28055500000000017 0.010940000000097703 6.5000000000000009 95768.844623191195 0.026860000000000005 357913941.08333343 95475.654744462983 95268.71949400047
decision_type=2 2 2 2 2 2 2 2 2 2 2 2 2 2 2 2 2 2 2 2 2 2 2 2 2 2 2 2 2 2
left_child=1 6 3 11 8 9 7 -1 17 -5 -4 29 20 -14 15 27 -17 18 -3 -19 -13 -11 -9 -16 28 26 -8 -6 -10 -2
right_child=2 4 10 5 14 -7 25 22 24 21 -12 12 13 -15 23 16 -18 19 -20 -21 -22 -23 -24 -25 -26 -27 -28 -29 -30 -31
leaf_value=-0.038682872936012844 0.0087955652204942236 -0.014960307580508673 -0.023531702869685648 0.033096074570848885 -0.044895971606703625 0.011962633979164985 -0.05984680279615056 -0.028232404599986251 0.011766101950288731 0.0040196801647593584 0.0034425484189222508 -0.092131594492517635 -0.09484305704691294 0.0064629910009639515 0.02405145365298178 -0.060288636223106186 -0.0043500672595975344 0.018496309895329875 -0.078881828289627212 -0.0091670128074106058 -0.017144415163441087 0.023598139402688935 -0.012675700174865082 -0.055127318384873669 -0.059651226589742729 -0.086120396278370911 -0.036446393686201888 0.055610707757152968 -0.0078989068353956925 0.022321341516359391
leaf_weight=6896.8655820339918 6393.4538991451263 6364.8248665034771 3455.3175774663687 16749.466352447867 1627.6113160997629 11444.707452401519 1672.896329253912 5413.3653542548418 6233.0382613837719 2390.0143416821957 2661.8161223381758 178.73281712830067 81.861937701702118 9060.9483853727579 126.28422085940838 480.48116093873978 3131.7711604386568 1739.7754372209311 405.44332657754421 10632.010230109096 631.02583792805672 13704.973772749305 6833.8948483020067 1314.0959301441908 161.7895150333643 358.39390124380589 5881.6465964913368 67.815133959054947 2108.2105952054262 6869.294211357832
leaf_count=28196 28295 26926 14501 76270 6725 50800 6799 22279 27259 10651 11622 755 364 39386 519 1961 13203 7451 1696 45045 2702 62143 28566 5323 678 1440 23963 288 9054 30591
internal_value=5.00211e-05 -0.0191772 0.0160986 0.0186262 -0.00950163 0.0231273 -0.0314758 -0.0264448 -0.00526222 0.0270175 -0.0117934 0.0100388 0.00235882 0.00555435 -0.0268683 -0.0210829 -0.0117935 -0.0100563 -0.0187901 -0.00527635 -0.0337114 0.0206912 -0.0195524 -0.0481807 0.00552966 -0.0436464 -0.0416296 -0.0408698 0.00679523 0.0158016
internal_weight=135072 61450.2 73621.6 67504.5 34393.2 44289.2 27057.1 19144.1 27645.1 32844.5 6117.13 23215.3 9952.57 9142.81 6748.06 5307.68 3612.25 19142.1 6770.27 12371.8 809.759 16095 12247.3 1440.38 8503.04 7912.94 7554.54 1695.43 8341.25 13262.7
internal_count=585451 257371 328080 301957 146128 199864 111243 79041 118109 149064 26123 102093 43207 39750 28019 22177 15164 81118 28622 52496 3457 72794 50845 5842 36991 32202 30762 7013 36313 58886
is_linear=0
shrinkage=0.05


Tree=7
num_leaves=31
num_cat=0
split_feature=6 2 12 12 39 0 21 6 12 8 7 12 12 12 25 4 7 36 41 32 6 12 43 12 5 8 12 6 12 25
split_gain=15064.2 2622.81 1905.43 1029.74 915.303 781.035 725.564 622.393 679.37 719.113 537.973 533.665 519.112 483.595 439.551 432.17 449.884 412.177 406.257 366.224 341.206 327.235 321.317 308.305 293.984 292.791 281.538 279.138 271.239 274.23
threshold=10.667770000000003 -0.7733346851996995 95511.628252059585 95496.655267605311 1.0000000180025095e-35 0.97408388665602497 1.4826802122979859e-05 20.331800000000005 95071.000052822172 0.75520458187652129 28.824715000000001 95738.999957979147 95683.908723179236 95515.663779554641 -2.6165871642685331e-05 429496729.30000001 26.249500000000005 0.77510871139483306 0.55978499999980824 -0.23204501542782738 0.15633000000000002 95687.977126304249 0.80355450389584726 94788.941282483516 -0.013743869213165271 0.99017396837159366 95539.182923442699 9.6669250000000027 95780.124687719654 3.7351873594891071e-06
decision_type=2 2 2 2 2 2 2 2 2 2 2 2 2 2 2 2 2 2 2 2 2 2 2 2 2 2 2 2 2 2
left_child=1 4 6 15 10 12 7 17 9 -9 23 20 13 19 -10 16 22 -2 -19 -4 -6 -7 -3 -1 -15 -8 -22 -12 -14 -30
right_child=2 3 5 -5 11 21 25 8 14 -11 27 -13 28 24 -16 -17 -18 18 -20 -21 26 -23 -24 -25 -26 -27 -28 -29 29 -31
leaf_value=0.0003345274790306186 0.018944177914746604 0.0031781890975967559 -0.12731656367532926 -0.018944369819643425 -0.031635563315371838 0.025102888771515272 0.0051012490020862708 -0.056717028142892173 -0.076002358380977353 0.017930693632133839 -0.040822830940421183 -0.068171034725296828 -0.012861149852204171 -0.016609380384946734 0.033826689487003361 -0.055165924328091746 0.026328337290714737 -0.043919911303077423 0.0091092130937044206 -0.022209129285897522 -0.010435103834161448 7.9082812827983279e-05 -0.021436562366013875 -0.028528429948467389 0.0077035985176579849 0.023285822514617197 -0.026477680909119228 -0.10288080419681872 0.025823986819026201 -0.081219997995409673
leaf_weight=1073.3877322524786 10990.458347633481 11664.753907680511 108.58365544676781 8854.9460595548153 3449.9977330863476 4959.582025244832 8246.5965759009123 345.61456726491451 91.407929912209511 4826.9330391287804 10253.162506625056 533.21405681967735 3923.2134898006916 1391.8829216510057 19515.774832099676 318.55785226821899 1913.2384667992592 529.37302479147911 1135.8765286058187 350.00119009613991 11610.888344362378 1774.2049966901541 1495.7224747985601 6686.400055795908 11635.298365712166 3026.2351559400558 3578.4157521873713 184.52226731181145 75.905729487538338 280.59347055852413
leaf_count=4409 49231 50346 473 37033 14138 22306 36682 1482 402 21782 41652 2138 16580 5882 90573 1340 8240 2265 5050 1538 48759 7746 6439 27423 51089 13542 14706 748 310 1147
internal_value=5.10693e-05 -0.0181662 0.0153842 -0.00535933 -0.0264757 0.00400994 0.0211051 0.024454 0.0290616 0.012941 -0.034508 -0.0188514 -0.00148611 0.00332843 0.033314 0.00245568 0.00367411 0.0154317 -0.00774706 -0.0471297 -0.0174399 0.0185105 0.000380137 -0.0245353 0.0051054 0.00998357 -0.014215 -0.0419214 -0.0166581 -0.0584133
internal_weight=134825 61617.2 73207.5 24247.2 37370 24499.3 48708.3 37435.4 24779.7 5172.55 18197.5 19172.5 17765.5 13485.8 19607.2 15392.3 15073.7 12655.7 1665.25 458.585 18639.3 6733.79 13160.5 7759.79 13027.2 11272.8 15189.3 10437.7 4279.71 356.499
internal_count=585451 257371 328080 103398 153973 107071 221009 170785 114239 23264 74232 79741 77019 58982 90975 66365 65025 56546 7315 2011 77603 30052 56785 31832 56971 50224 63465 42400 18037 1457
is_linear=0
shrinkage=0.05


Tree=8
num_leaves=31
num_cat=0
split_feature=6 3 11 11 6 21 35 11 42 11 13 11 11 4 3 25 5 36 11 11 6 11 21 4 36 17 7 21 36 6
split_gain=13615.4 2381.77 1733.49 898.622 727.086 699.05 606.628 580.035 543.352 537.466 494.261 399.663 429.467 386.125 358.137 406.812 330.968 323.906 317.663 285.981 452.262 368.132 283.785 275.766 266.062 259.55 315.375 261.033 250.315 245.675
threshold=10.667770000000003 -0.85426461313896984 0.10469778983252585 0.10463753557962631 34.884805000000007 6.6704750319824469e-06 -0.59519491089232091 0.10446591799710452 0.019065000000085378 0.10469011725579985 -1.502676853336036e-06 0.10469450144765301 0.10469011725579985 0.68042553191489374 -0.49170294982246121 -5.5698794023662929e-06 -0.9566098545635443 -0.071349264746809929 0.73341051678365354 0.10499459278136554 9.6669250000000027 0.10490537535431926 2.0665504410284963e-06 858993458.80000007 -0.27231492277617669 0.00021186892461955156 1.31105 3.1348421806625942e-05 -0.12431038033697912 1.0784250000000004
decision_type=2 2 2 2 2 2 2 2 2 2 2 2 2 2 2 2 2 2 2 2 2 2 2 2 2 2 2 2 2 2
left_child=1 8 4 -3 7 6 -4 17 29 24 19 12 -9 -13 15 -8 -11 -2 28 21 -21 -5 -6 -16 -10 -7 -27 -28 -12 -1
right_child=2 3 5 10 22 25 14 11 9 16 18 13 -14 -15 23 -17 -18 -19 -20 20 -22 -23 -24 -25 -26 26 27 -29 -30 -31
leaf_value=-0.035951582799882614 -0.015778338202485361 -0.023956973988572858 0.032601801109272854 -0.0075189188812296026 0.032719243146295089 0.01533794050168915 -0.025962869075570213 0.0010706375199937865 -0.019324195245125433 -0.024982816272882249 -0.00088639650189423669 -0.092247372385929949 0.04565843934106914 0.018536814378145215 0.020785108080820493 0.041308075573667051 -0.0096149787083093085 -0.062207456689922704 -0.060965021895593677 -0.013297270364771116 -0.064922216748897352 0.017924456722083874 0.010302314433107834 -0.085577450736846583 -0.04479155668998544 0.01504739892401534 0.0080511920176443152 -0.037817793984399134 0.016699936895975709 -0.060594261243352647
leaf_weight=5756.7859371006489 1670.6389480978251 7377.9782278090715 13945.24539168179 9847.5848601460457 2136.3403182625771 19178.346167683601 870.91088965535164 13811.627745255828 1403.9189438521862 9513.6626310795546 4337.0458736568689 216.52682662010193 561.94612808525562 123.33840279281139 12558.079404756427 302.75952473282814 5548.0816879570484 484.75728344917297 173.86622698605061 6861.1037031412125 452.18125788867474 1661.3397809267044 4166.0491322577 61.122946068644524 3815.4909914880991 1417.5368584096432 522.67788462340832 762.11881917715073 3791.916537925601 1228.238495528698
leaf_count=23242 6907 30393 65103 41634 9768 86426 3763 60136 5682 38870 18930 932 2478 537 57757 1361 23081 1974 720 28874 1863 7146 18626 257 15407 6360 2330 3365 16568 4961
internal_value=5.21419e-05 -0.0172133 0.0147035 -0.00848495 0.00341197 0.0199764 0.0252476 -0.00200154 -0.0282579 -0.0241148 -0.00427632 0.00154683 0.00281449 -0.052035 0.0178116 -0.00860338 -0.0193224 -0.0262252 0.00588541 -0.00875912 -0.0164908 -0.00384555 0.0179022 0.0202689 -0.0379428 0.0132938 -0.00121176 -0.0191544 0.00731659 -0.0402862
internal_weight=134559 61769.2 72790 34503 23171.2 49618.8 27738.1 16868.8 27266.2 20281.2 27125 14713.4 14373.6 339.865 13792.9 1173.67 15061.7 2155.4 8302.83 18822.2 7313.28 11508.9 6302.39 12619.2 5219.41 21880.7 2702.33 1284.8 8128.96 6985.02
internal_count=585451 257371 328080 146128 101358 226722 128241 72964 111243 83040 115735 64083 62614 1469 63138 5124 61951 8881 36218 79517 30737 48780 28394 58014 21089 98481 12055 5695 35498 28203
is_linear=0
shrinkage=0.05


Tree=9
num_leaves=31
num_cat=0
split_feature=2 12 8 21 0 12 0 12 7 27 7 3 12 8 39 12 32 12 34 7 12 2 12 25 12 17 17 10 17 7
split_gain=12209.6 1921.2 1201.89 981.503 924.809 800.434 654.718 542.417 677.564 492.71 633.698 493.449 424.437 464.871 388.762 380.764 383.088 386.774 321.789 465.822 315.082 304.994 301.707 290.157 287.841 280.973 280.61 276.009 253.84 238.586
threshold=-0.56929081894666145 95511.628252059585 0.019002040149287674 7.4066637478703336e-06 0.97408388665602497 95672.702449000863 0.44057491388588726 95117.030191918035 10.171565000000003 0.00018999999997159009 108.17247500000001 -0.65674265374418395 95730.943258413128 0.49349872626924057 0.00048000000008430194 95349.999778770652 -1.0000000180025095e-35 95262.119024732892 0.41134970027879508 16.368505000000003 95515.663779554641 -0.97869571828379887 95687.977126304249 -2.3524806528434784e-05 95249.964120287987 0.00084867415558509418 0.00031396517345427816 10.500000000000002 0.00017793128759802104 59.529775000000008
decision_type=2 2 2 2 2 2 2 2 2 2 2 2 2 2 2 2 2 2 2 2 2 2 2 2 2 2 2 2 2 2
left_child=2 3 15 7 12 9 24 8 27 11 25 -4 13 -3 -10 16 17 -1 19 -9 -15 -19 28 -20 -5 -11 -26 -2 -6 -17
right_child=1 4 5 6 22 -7 -8 18 14 10 -12 -13 -14 20 -16 29 -18 21 23 -21 -22 -23 -24 -25 26 -27 -28 -29 -30 -31
leaf_value=-0.029402572486426911 0.017156603627610588 -0.01466114649543511 -0.028073608672761926 -0.013241561272592468 0.028058637910870671 -0.037656170003872863 0.014815566541121551 0.016022921856751634 -0.063227842000221579 -0.0077839874484329982 0.055588538121833092 -0.0012067936903733178 -0.023519992220072852 -0.038167709999003215 0.0086548375548567407 -0.031832546116279295 0.061806810783663159 0.0068037498330699667 -0.066916832353157693 0.03866196488176632 0.0043111795505969708 -0.067626276701673135 -0.00041219071104510734 0.032806487663187521 0.0093003582827768903 -0.076510550007823613 -0.052265339702355633 -0.071716559691054949 -0.0055937822163819829 -0.048861296256286976
leaf_weight=5598.2352314889431 5663.2182556688786 4987.2571483999491 6651.0233044326305 3544.8898843377829 4280.0201449692249 3236.4153296649456 17079.166490226984 10721.760132744908 461.05738840997219 19311.995416909456 395.73849722743034 2300.5755948722363 2455.4838283210993 450.23131340742111 317.43510028719902 6941.1296960264444 134.40831434726715 1345.9479083120823 73.286698818206787 2883.8891207873821 14229.403085529804 153.21172805130482 1770.0448910593987 11476.121497571468 3816.044373780489 149.78880968689919 194.39959590137005 88.61319474875927 644.46412546932697 2926.5883746743202
leaf_count=22722 25726 20888 27341 15371 19579 13140 77358 49295 1988 81036 1802 9829 10076 1941 1393 28051 546 5477 329 13220 62334 625 7755 54258 16878 620 835 380 2855 11803
internal_value=5.26838e-05 0.0115077 -0.0197913 0.0168803 0.00100709 -0.0140792 0.00939405 0.0227005 0.00985944 -0.0114302 -0.00703957 -0.0211694 -0.00392012 -0.00147265 -0.0339135 -0.0304957 -0.021778 -0.0233625 0.0260338 0.0208222 0.00300774 -0.000803549 0.0172899 0.0321727 -0.00286089 -0.00831359 0.00631359 0.0157853 0.0236535 -0.0368839
internal_weight=134282 85136.8 49145.1 56319.9 28816.9 32045.5 24634.5 31685.4 6530.32 28809.1 19857.5 8951.6 22122.4 19666.9 778.492 17099.5 7231.8 7097.39 25155.1 13605.6 14679.6 1499.16 6694.53 11549.4 7555.33 19461.8 4010.44 5751.83 4924.48 9867.72
internal_count=585451 382459 202992 257031 125428 133768 110442 146589 29487 120628 83458 37170 95239 85163 3381 69224 29370 28824 117102 62515 64275 6102 30189 54587 33084 81656 17713 26106 22434 39854
is_linear=0
shrinkage=0.05


Tree=10
num_leaves=31
num_cat=0
split_feature=6 5 12 6 12 12 12 21 3 7 12 10 4 6 12 12 42 3 25 42 25 34 12 12 35 13 12 12 12 25
split_gain=11400.1 2026.78 1554.28 883.806 588.463 581.6 971.048 577.713 557.116 526.227 463.962 447.886 442.725 422.929 400.972 380.359 346.946 346.01 335.541 332.759 328.569 269.975 266.939 519.714 238.906 233.07 215.301 212.494 194.042 297.673
threshold=10.667770000000003 -0.80512517738830158 95683.908723179236 34.457250000000009 95519.851785321502 95446.933074271074 95400.856038190905 6.9832141194936639e-06 -0.99641313813390153 21.062850000000005 95452.082404497996 14.500000000000002 95443716.800000012 4.431445000000001 94392.00033225432 95738.999957979147 0.77004000000003392 0.89736983242156265 -1.1755576794740993e-05 2.5474300000001144 -5.1032455635371713e-05 0.015190320675456564 95528.810196694918 95535.174957870811 0.36874991117679407 -5.2345361584191218e-06 95730.943258413128 95088.000067985136 95780.124687719654 3.7351873594891071e-06
decision_type=2 2 2 2 2 2 2 2 2 2 2 2 2 2 2 2 2 2 2 2 2 2 2 2 2 2 2 2 2 2
left_child=1 8 3 5 13 6 12 14 25 10 -7 15 -2 18 -5 19 -11 28 -3 -10 -15 -22 -6 -24 -20 -1 -25 -16 -4 -30
right_child=2 4 17 7 22 9 -8 -9 11 16 -12 -13 -14 20 27 -17 -18 -19 24 -21 21 -23 23 26 -26 -27 -28 -29 29 -31
leaf_value=-0.030159796204200336 0.014648029353629655 0.0069071885958264818 -0.015601006041736438 -0.106330946151958 -0.04939838486615989 -0.037521887856650282 0.036245360197701568 0.01600962623440522 -0.027932893967947681 -0.079677711601789908 0.0088045796919535776 -0.074942308152433829 -0.0077828651796651577 -0.068073751034395502 0.01729413964892634 -0.056897557380203717 -0.013171004351509261 0.0061444612728103025 -0.02650623986848645 -0.014652644026456149 -0.00039908189579145346 0.015113486009596193 0.040820905055278592 -0.014062810693539075 -0.0047270456435546037 -0.048430824597515444 -0.036786399524297457 0.035995985234647074 0.033553442539674454 -0.079280640987048304
leaf_weight=5447.5680807381868 16687.179760605097 1793.321191623807 3741.5560899376869 51.899462923407555 588.93840028345585 557.36808849871159 5093.9819754958153 11283.077141225338 6802.6951285898685 243.85697929561138 17680.826958075166 374.87983226776123 2533.4318509548903 159.73690435290337 1829.6898390203714 672.32340143620968 1001.4146975129843 2079.2894906103611 3263.8505297005177 15396.838027849793 9826.3328988999128 3924.697358250618 403.21640552580357 7461.8104822784662 2051.1167873442173 2571.3732651472092 1212.0850868970156 8981.7083112597466 74.490905910730362 269.63650012016296
leaf_count=21973 76742 7558 15675 221 2471 2577 23826 51518 27496 1030 78879 1509 11357 659 8501 2695 4330 9133 13784 63156 42472 17072 1689 30906 8638 10320 4872 43250 304 1087
internal_value=3.51992e-05 -0.0156954 0.0135498 0.0157943 -0.00656619 0.0116779 0.0168357 0.0239347 -0.0246548 0.00524093 0.00738835 -0.0207342 0.0116912 -0.00187037 0.0321653 -0.0198451 -0.0262041 -0.0104579 -0.0117922 -0.0187225 0.00319931 0.00402809 -0.0167767 -0.0146591 -0.0181025 -0.0360198 -0.0172392 0.0328316 -0.0189084 -0.054839
internal_weight=134060 61950.8 72109.4 65944.4 30685.1 43798.1 24314.6 22146.4 31265.7 19483.5 18238.2 23246.7 19220.6 21019.1 10863.3 22871.9 1245.27 6164.97 7108.29 22199.5 13910.8 13751 9666.05 9077.11 5314.97 8018.94 8673.9 10811.4 4085.68 344.127
internal_count=585700 257270 328430 302231 130121 198741 111925 103490 127149 86816 81456 94856 88099 90183 51972 93347 5360 26199 29980 90652 60203 59544 39938 37467 22422 32293 35778 51751 17066 1391
is_linear=0
shrinkage=0.05


Tree=11
num_leaves=31
num_cat=0
split_feature=3 11 39 0 4 12 2 7 17 7 12 11 8 12 36 10 35 7 11 12 42 12 11 1 11 4 0 10 8 11
split_gain=10326.4 1664.14 1148.59 859.101 845.602 678.457 548.577 722.611 510.186 476.65 408.101 387.839 412.058 376.025 359.783 346.382 325.248 297.119 284.829 267.769 297.711 265.903 264.558 263.925 262.071 238.34 237.6 233.56 266.977 310.048
threshold=-0.49170294982246121 0.10469778983252585 1.0000000180025095e-35 0.97408388665602497 85899345.020000026 95504.854673327063 -0.9218166688993118 27.126975000000005 0.00010529086614141649 31.548265000000004 95513.728267269602 0.10446591799710452 0.49349872626924057 95150.332123035696 -0.070267438421765568 26.500000000000004 -0.73219028311571566 42.269540000000006 1.163473289752649 94453.264967510375 0.019065000000085378 95730.943258413128 0.10509831948077376 -0.72201853958157891 0.10447901539261016 99882959.627906993 -0.48112465733290549 16.500000000000004 0.0092144487517604057 0.10461017020360887
decision_type=2 2 2 2 2 2 2 2 2 2 2 2 2 2 2 2 2 2 2 2 2 2 2 2 2 2 2 2 2 2
left_child=2 3 9 10 8 6 -4 -8 16 27 -2 14 -13 15 -12 18 22 -15 -6 -11 -21 25 -3 -18 -5 -7 -23 28 -1 -30
right_child=1 4 5 24 13 21 7 -9 -10 19 11 12 -14 17 -16 -17 23 -19 -20 20 -22 26 -24 -25 -26 -27 -28 -29 29 -31
leaf_value=-0.031270478468862974 -0.11335917474993745 0.030352101041366066 -0.014649314913785983 -0.0048324404642694331 -0.0096075447478201209 -0.02688117489882328 -0.0083859565678270926 0.021316711848045043 0.0078067796333826135 0.02172831840742355 -0.013495861487100531 -0.013959985496716744 0.0030101188579892474 0.0077588287045404951 -0.062627118437932269 0.074094139053290972 -0.021259765120813293 0.059590005366956661 -0.093233364840983976 -0.042779346565686667 -0.02665385379521731 -0.057238989719683442 0.016784781487737061 0.017530679266353631 0.022419580294863788 -0.0095709711560841119 -0.0017108204558163903 -0.0881354942111965 -0.040635339319309384 -0.0092135856995092438
leaf_weight=2827.7955674082041 85.403869852423668 11501.245790779591 8362.1265845000744 1084.5382602065802 3655.13458147645 4498.4110816121101 5180.5812797695398 3385.7029718309641 9211.7756200581789 212.16098767518997 2295.8872989714146 4809.5894369781017 13957.138627618551 8350.354172617197 444.86190456151962 120.63892829418182 448.38349550962448 285.90602378547192 104.66032898426056 5889.304982021451 5575.3949452638626 883.5412937104702 5229.3636404871941 19517.469876497984 4720.7212335467339 3566.2996295392513 246.60190114378929 120.95727296173573 897.02715389430523 6294.7866821438074
leaf_count=11367 357 55016 34444 4735 15778 18296 21872 14751 41818 872 9417 20052 61383 37061 1793 544 1961 1376 437 23782 22622 3548 24208 90888 21745 14619 990 488 3610 25870
internal_value=3.61978e-05 0.0104193 -0.0185514 0.000251895 0.0151872 -0.0114783 -0.00553927 0.00335313 0.0183281 -0.0270202 -0.00433872 -0.00390505 -0.00133881 0.00366659 -0.0214744 -0.00926134 0.020969 0.00947596 -0.0119392 -0.0339079 -0.0349381 -0.0224117 0.0261119 0.0166592 0.0173275 -0.0192273 -0.0451282 -0.0190883 -0.0182533 -0.013134
internal_weight=133764 85823.1 47940.7 27398.1 58424.9 26123.3 16928.4 8566.28 45908.2 21817.4 21592.9 21507.5 18766.7 12516.7 2740.75 3880.43 36696.5 8636.26 3759.79 11676.9 11464.7 9194.85 16730.6 19965.9 5805.26 8064.71 1130.14 10140.6 10019.6 7191.81
internal_count=585700 388569 197131 119482 269087 108520 71067 36623 213891 88611 93002 92645 81435 55196 11210 16759 172073 38437 16215 47276 46404 37453 79224 92849 26480 32915 4538 41335 40847 29480
is_linear=0
shrinkage=0.05


Tree=12
num_leaves=31
num_cat=0
split_feature=5 11 39 0 4 21 11 2 9 9 35 35 11 11 11 5 36 10 11 11 11 1 1 42 25 25 11 11 0 4
split_gain=9327.17 1511.2 1036.19 782.323 776.935 555.213 551.572 526.181 551.32 450.027 374.457 366.774 337.562 369.286 924.173 458.014 358.384 291.865 371.601 347.082 279.946 298.375 268.542 249.56 259.444 397.769 243.326 431.972 295.651 258.57
threshold=-0.49150882440287907 0.10469778983252585 1.0000000180025095e-35 0.97940784609477738 85899345.020000026 1.1047468456384272e-05 0.1047043672220264 -0.9218166688993118 -22.632329999999993 -24.119754999999998 -0.70102711297928155 0.22593916429180247 0.10446591799710452 0.10456532195948458 0.10453908716754701 -0.013743869213165271 1.0000000180025095e-35 26.500000000000004 0.10499459278136554 0.10477347973968441 0.10461017020360887 -0.96899666121840888 -0.72201853958157891 1.0000000180025095e-35 -7.9439395662353337e-06 -9.4346136747152072e-06 0.10446591799710452 0.10448338192095749 -0.37795887187658028 113025454.39473686
decision_type=2 2 2 2 2 2 2 2 2 2 2 2 2 2 2 2 2 2 2 2 2 2 2 2 2 2 2 2 2 2
left_child=2 3 9 12 5 10 26 -8 -9 23 -3 -11 16 14 -14 -15 -2 18 19 -6 -13 -22 -12 24 25 -1 28 -28 -4 -29
right_child=1 4 6 -5 17 -7 7 8 -10 11 22 20 13 15 -16 -17 -18 -19 -20 -21 21 -23 -24 -25 -26 -27 27 29 -30 -31
leaf_value=-0.038334220091384645 -0.014996299346033646 0.027533571721683244 -0.051865817221881987 0.017594677388608104 -0.004175773820060358 0.0097565214950645716 -0.014414578879085253 0.018762548832704035 -0.0070816711260558293 -0.026952943409266836 -0.026403160368499153 -0.038865706353826947 -0.0049326034835624156 -0.022363336301069306 0.035996169009389387 -0.00082751023990432118 -0.083234539466998422 0.07412757923131974 -0.0077767036702917711 0.018339733473295355 -0.015528573456824929 0.013471194694909584 0.01732441830626618 -0.024509074725563778 -0.060091499626692683 0.0041576618853305337 0.038130172625816749 -0.026945879342691121 0.013574379382553202 -0.0069000241606951276
leaf_weight=5015.7540530264378 2609.4511775821447 13797.276740863919 1067.1424083560705 5257.1802425980568 2745.0150690227747 15254.967761680484 8665.6097956746817 3384.7673391997814 5285.9472254067659 4097.0107565820217 358.72545349597931 553.7388674467802 4209.1700809746981 3309.6497599184513 2051.1936591267586 9719.5173086673021 207.6890035867691 144.33795446157455 5058.0439568907022 4545.0071195811033 1728.1242211014032 1822.0429671406746 16172.749751716852 6912.0829432010651 1113.4838190972805 618.4332636743784 331.6956257969141 4791.208475291729 205.71252574026585 2423.0588662922382
leaf_count=20174 10679 66735 4298 24159 12101 69494 35588 14756 22341 16744 1562 2222 18113 13729 9013 42933 834 656 21893 20524 6977 7545 76095 27972 4513 2484 1353 19458 832 9923
internal_value=3.66997e-05 0.00994592 -0.0175958 0.000258268 0.0145104 0.0175379 -0.0108803 -0.00570117 0.0030066 -0.0256302 0.0214516 -0.0163699 -0.00386433 -0.00150283 0.00847718 -0.00629852 -0.0200316 0.00346281 0.00263581 0.00986102 -0.00580305 -0.00064373 0.0163751 -0.0311892 -0.0380309 -0.0336692 -0.0210609 -0.0176482 -0.0412855 -0.020214
internal_weight=133456 85440 48015.8 27363.9 58076.1 45583.7 26155.1 17336.3 8670.71 21860.7 30328.8 8200.92 22106.7 19289.5 6260.36 13029.2 2817.14 12492.4 12348.1 7290.02 4103.91 3550.17 16531.5 13659.8 6747.67 5634.19 8818.82 7545.96 1272.85 7214.27
internal_count=585700 388520 197180 119460 269060 213886 108549 72685 37097 88631 144392 33488 95301 83788 27126 56662 11513 55174 54518 32625 16744 14522 77657 55143 27171 22658 35864 30734 5130 29381
is_linear=0
shrinkage=0.05


Tree=13
num_leaves=31
num_cat=0
split_feature=6 5 12 11 17 6 11 3 21 11 8 11 27 12 10 6 12 9 7 0 2 31 4 21 12 31 12 17 27 4
split_gain=8688.81 1722.3 1132.21 626.433 615.016 498.206 477.401 443.223 442.619 425.846 409.096 406.53 403.764 489.223 401.655 369.06 363.521 300.647 261.398 253.807 245.926 205.975 210.61 197.786 184.462 278.404 218.209 248.707 223.741 173.703
threshold=12.685565000000002 -0.80512517738830158 95683.908723179236 0.10467367980608065 0.0002461100237116654 34.457250000000009 0.10443973305489031 -0.99641313813390153 6.9832141194936639e-06 0.10468025416652482 0.90008216413981701 0.10469011725579985 0.00073999999996267796 95488.184787042599 14.500000000000002 4.431445000000001 94392.00033225432 -62.312969999999986 4.156155 0.75456806044065294 -0.99945822988024458 0.011215606107314305 134217727.65625001 9.7676445022226665e-06 95747.661488904341 -0.62940329354429825 95709.986835585718 2.1043438922063732e-05 0.22268999999998049 214748364.25000003
decision_type=2 2 2 2 2 2 2 2 2 2 2 2 2 2 2 2 2 2 2 2 2 2 2 2 2 2 2 2 2 2
left_child=1 6 4 19 5 12 -1 23 16 -5 -6 -11 17 -14 20 -13 -7 -2 24 -3 -9 22 -20 -8 26 -26 28 -28 -4 -25
right_child=2 3 18 9 10 8 7 14 -10 11 -12 15 13 -15 -16 -17 -18 -19 21 -21 -22 -23 -24 29 25 -27 27 -29 -30 -31
leaf_value=-0.061841125578997382 -0.03490178156031952 -0.016830452495330463 0.014120801979205769 0.049225615974889551 -0.040870320202776533 -0.10132127169823864 -0.037045826966619039 -0.0017677088099248485 0.014800770856079559 -0.038101645530986689 0.003996836650288175 -0.010224741175490775 0.0202518780970329 0.0069600809980347074 -0.068105248493298645 0.0031682651648578968 0.030171010979065327 0.0048935100703068439 -0.034041580420726809 0.033730887058865434 -0.017712582242883829 0.0051758315334533497 0.039169763394003299 -0.023964274702953377 -0.054861075178073752 0.0020994504063833156 0.041358775906705753 -0.0016303018181512818 -0.032358480601783361 0.023116470431899606
leaf_weight=701.7462290674448 510.15293605625629 9984.2505965381861 514.27672298252583 415.45821753144264 733.13097774982452 52.71441861987114 4605.4129464030266 2756.3005682080984 9939.0455954372883 748.54463170468807 1653.7594798505306 7239.5335285663605 18383.11223834753 11106.977869600058 372.52018524706364 17767.268074646592 10483.210589691997 6790.8195784091949 1650.5567593574524 254.37584039568901 19760.364353552461 558.23623603582382 104.30596472322941 3042.9982357621193 333.19798310101032 601.49566213786602 718.57321518659592 632.16676081717014 521.09722582995892 209.20721988379955
leaf_count=2840 2140 41063 2269 1749 3200 221 18467 11135 46221 3110 7478 30374 87306 49576 1509 77983 51751 31087 6830 1076 80365 2311 428 12215 1402 2567 3135 2765 2287 840
internal_value=3.71017e-05 -0.0124914 0.0130591 -0.00508802 0.0150826 0.0161191 -0.0210624 -0.0201313 0.022371 -0.000985641 -0.00978311 -0.00179598 0.0126397 0.0152459 -0.0166134 -0.00070887 0.0295117 0.0021117 -0.00836575 -0.0155735 -0.015761 -0.0212699 -0.0296852 -0.0303781 0.000621473 -0.0182041 0.00799841 0.0212369 -0.00926797 -0.0209335
internal_weight=133145 67858 65286.8 36409.4 59652.9 57266 31448.5 30746.8 20475 26170.8 2386.89 25755.3 36791.1 29490.1 22889.2 25006.8 10535.9 7300.97 5633.91 10238.6 22516.7 2313.1 1754.86 7857.62 3320.81 934.694 2386.11 1350.74 1035.37 3252.21
internal_count=585700 282726 302974 155355 278980 268302 127371 124531 98193 113216 10678 111467 170109 136882 93009 108357 51972 33227 23994 42139 91500 9569 7258 31522 14425 3969 10456 5900 4556 13055
is_linear=0
shrinkage=0.05


Tree=14
num_leaves=31
num_cat=0
split_feature=6 5 12 17 12 6 12 27 27 12 36 5 6 17 12 13 10 36 34 33 2 12 6 7 36 7 12 13 1 35
split_gain=7863.07 1552.05 1029.51 559.732 524.912 460.364 446.526 421.655 368.612 449.698 416.392 359.987 342.802 315.9 365.136 311.89 565.963 249.245 246.437 246.142 245.213 244.686 239.565 234.846 222.785 199.802 339.02 202.374 197.666 205.703
threshold=12.685565000000002 -0.80512517738830158 95683.908723179236 0.0002461100237116654 95504.854673327063 34.457250000000009 95519.851785321502 0.19392499999998739 0.00073999999996267796 95488.184787042599 -1.0000000180025095e-35 0.79952976041046131 2.5599500000000002 2.1043438922063732e-05 94392.00033225432 -1.7197083310322854e-06 6.5000000000000009 -0.40196225263917862 0.12540853169823796 0.538185588908629 0.33366117532718026 95768.844623191195 0.026860000000000005 4.156155 -0.36476562280597219 65.89933000000002 94392.00033225432 1.553671798379208e-06 0.45729139135750413 -1.9580702056611756
decision_type=2 2 2 2 2 2 2 2 2 2 2 2 2 2 2 2 2 2 2 2 2 2 2 2 2 2 2 2 2 2
left_child=1 6 3 5 15 8 7 25 10 -10 -2 -5 -9 14 -7 17 18 -3 -17 -15 -19 22 -8 -4 -24 27 -27 -1 29 -6
right_child=2 4 23 11 28 13 21 12 9 -11 -12 -13 -14 19 -16 16 -18 20 -20 -21 -22 -23 24 -25 -26 26 -28 -29 -30 -31
leaf_value=-0.019515608009167091 0.0099722753710774666 -0.018996541979265012 0.00059613691783096459 -0.038307159779163852 0.052300367135486192 -0.085258018200735808 -0.045351781406485575 -0.011735755481947718 0.019398880732320996 0.0066271246140052909 -0.015915606533212872 0.003680846174823069 0.018491045248510484 -0.0011936836699779417 0.028576305232308544 0.0028232913549495978 -0.076339432707055066 -0.0012735493544517454 0.020230088765444399 0.018928409158552074 -0.074847541794493946 -0.067580064201777063 -0.0034690193578866789 -0.020136526178307551 -0.027615464140322385 0.045283235832442273 -0.03749791573386578 0.061683557216649414 0.012847032658321718 -0.015239002595022332
leaf_weight=9530.7406911402941 5049.7286100834608 2670.4025049060583 3318.4958885610104 737.95300939679146 113.69680218398571 70.830894887447357 1560.6466820836067 8940.0100575983524 18235.715269818902 11082.407603695989 2243.1365086883307 1654.932501450181 1047.734588265419 1854.900517180562 9957.1399851888418 6695.4867391884327 202.46347336471081 11222.152915716171 2920.6238976866007 8399.8536443114281 114.30747956037521 401.39376471936703 1141.4925331324339 2320.6937830150127 5871.1045317202806 129.299774736166 2781.8288143575191 77.233730852603912 694.28203229606152 11796.960182949901
leaf_count=38441 23225 11241 14425 3185 472 303 6253 36424 87306 49576 10002 7493 4399 8691 49164 29908 838 47604 13245 40035 495 1639 4588 9569 23584 526 11201 316 2951 48601
internal_value=3.74383e-05 -0.0118569 0.0124789 0.0144207 -0.00483008 0.0154171 -0.0199881 -0.0162272 0.012069 0.0145713 0.0020089 -0.009267 -0.00856425 0.0214601 0.0277709 -0.000464376 0.00636812 -0.00525421 0.00811079 0.0152882 -0.0020165 -0.0294189 -0.0276309 -0.00793529 -0.0236858 -0.0223402 -0.033818 -0.0188617 -0.0130815 -0.0145934
internal_weight=132838 67911.9 64925.8 59286.6 36430.4 56893.7 31481.5 22506.8 36611 29318.1 7292.87 2392.89 9987.74 20282.7 10028 23825.4 9818.57 14006.9 9616.11 10254.8 11336.5 8974.64 8573.24 5639.19 7012.6 12519.1 2911.13 9607.97 12604.9 11910.7
internal_count=585700 282726 302974 278980 155355 268302 127371 91307 170109 136882 33227 10678 40823 98193 49467 103331 43991 59340 43153 48726 48099 36064 34425 23994 28172 50484 11727 38757 52024 49073
is_linear=0
shrinkage=0.05


Tree=15
num_leaves=31
num_cat=0
split_feature=6 5 12 11 17 11 4 6 41 11 13 12 12 13 11 9 11 12 10 6 34 11 8 32 11 12 17 10 35 11
split_gain=7034.43 1367.37 893.009 599.004 488.407 507.059 837.457 467.139 505.343 420.94 390.874 379.46 377.947 372.18 413.412 342.976 340.184 330.802 291.676 288.967 285.961 276.061 271.833 258.568 249.671 312.689 245.665 245.445 237.356 236.147
threshold=12.685565000000002 -0.86160078738522283 95511.628252059585 0.10467367980608065 0.00010529086614141649 0.1051336774738094 0.98336791147994473 20.331800000000005 1.0000000180025095e-35 0.10468025416652482 5.1946646412652115e-06 95515.663779554641 95349.999778770652 -2.3044180050579081e-06 0.73341051678365354 152.21652000000003 0.10539740090302087 95780.124687719654 14.500000000000002 14.340635000000001 -1.0818877306990637 0.10489107062604293 0.0014216111169997557 -0.21394680841515218 0.10490207391688726 95258.000000929183 0.00028031800354888509 29.500000000000004 -0.72399061289167999 0.10438631286950055
decision_type=2 2 2 2 2 2 2 2 2 2 2 2 2 2 2 2 2 2 2 2 2 2 2 2 2 2 2 2 2 2
left_child=1 12 4 29 5 7 16 8 -2 -5 11 23 21 27 -15 -9 -7 26 22 -8 -6 -1 28 -4 -23 -26 -13 -11 -14 -3
right_child=2 3 10 9 20 6 19 15 -10 13 -12 17 18 14 -16 -17 -18 -19 -20 -21 -22 24 -24 -25 25 -27 -28 -29 -30 -31
leaf_value=0.032476133741164766 -0.029629815179329794 -0.064617435240938992 -0.11304586900472145 0.047102839951226175 -0.03247802320072108 0.0027892115123891838 0.023523263851881981 0.027484635055425428 0.016138305683473055 -0.0077400034838514169 0.016385220362600608 0.0035248666632910182 0.074175273364591496 0.0055512052379945755 -0.058946164261957701 -0.082729042191084345 0.024062356109122308 -0.047324127770399523 -0.078214493716538769 -0.035045628669198539 0.0074691842031259338 -0.059222548824982839 -0.019807407830021932 -0.024035405996692745 -0.017230340092023576 0.004512959923571566 -0.030874236371268939 0.072283923907085365 -0.035623622274811889 -0.014026072051290476
leaf_weight=322.56053465604782 658.2464621514082 235.39538168907166 106.3072023242712 436.30887335538864 475.05433516204357 3182.8927507847548 252.57135093212128 17079.554082766175 7181.6266119033098 16428.157746747136 4737.8901733607054 15951.827943131328 49.645769581198692 12028.495101228356 253.57997584342957 70.764921337366104 4590.4281792938709 341.22701653838158 254.05667179822922 1262.6691380292177 7828.2825558930635 302.66173122823238 10610.834792628884 351.2182728946209 8889.753910779953 2030.8445269614458 536.35937805473804 96.271276697516441 4497.4769453406334 11392.232725188136
leaf_count=1311 2899 947 441 1846 2150 15081 1114 85617 33907 68902 22158 70583 199 53617 1045 344 21818 1394 1042 5625 36209 1223 42806 1532 35913 8248 2253 456 18053 46644
internal_value=2.87934e-05 -0.0112176 0.0118361 -0.00545184 0.0160638 0.0186993 0.00872366 0.0224069 0.0122946 -0.00163468 0.00366211 0.000174678 -0.0199589 -0.0023732 0.00421869 0.0270291 0.0153526 0.00139651 -0.0250834 -0.0252787 0.00518274 -0.0131177 -0.0241921 -0.0447483 -0.0144288 -0.0131864 0.00240538 -0.00727305 -0.0344221 -0.0150512
internal_weight=132435 67828.3 64606.9 40870.4 42582.1 34278.8 9288.56 24990.2 7839.87 29242.8 22024.8 17286.9 26957.8 28806.5 12282.1 17150.3 7773.32 16829.4 15412 1515.24 8303.34 11545.8 15158 457.525 11223.3 10920.6 16488.2 16524.4 4547.12 11627.6
internal_count=585377 282252 303125 173457 204764 166405 43638 122767 36806 125866 98361 76203 108795 124020 54662 85961 36899 74230 62100 6739 38359 46695 61058 1973 45384 44161 72836 69358 18252 47591
is_linear=0
shrinkage=0.05


Tree=16
num_leaves=31
num_cat=0
split_feature=6 0 12 39 11 21 11 9 35 1 11 6 43 11 7 13 41 25 36 1 12 12 10 7 8 36 21 12 36 25
split_gain=6366.48 1245.49 847.353 629.731 568.064 497.793 463.498 435.596 424.376 349.914 308.119 291.288 279.358 326.538 331.346 274.499 273.003 272.665 268.887 234.243 221.414 206.499 192.11 184.615 200.506 217.24 205.456 184.479 282.851 228.89
threshold=12.685565000000002 -0.66622780469113208 95683.908723179236 1.0000000180025095e-35 0.10471533137453672 1.4860990088523772e-05 0.10446591799710452 -14.37407 -0.70102711297928155 -0.87854040140107903 0.10448338192095749 21.816905000000006 0.80355450389584726 0.73341051678365354 17.564010000000003 5.1946646412652115e-06 1.0840099999999648 -3.555424231159013e-05 -0.084367544634758623 0.99997661077748856 95446.933074271074 95455.987088384558 29.500000000000004 4.156155 0.56160052820506634 -0.343407866124323 1.4773866137757582e-06 95747.661488904341 -0.66564118976579711 2.0751752226965286e-05
decision_type=2 2 2 2 2 2 2 2 2 2 2 2 2 2 2 2 2 2 2 2 2 2 2 2 2 2 2 2 2 2
left_child=1 3 5 7 -3 8 -5 9 11 -1 -8 18 13 14 -6 -7 -11 -10 -2 -13 -12 -15 -9 27 25 -25 -26 29 -29 -4
right_child=2 4 23 6 12 15 10 22 17 16 20 19 -14 21 -16 -17 -18 -19 -20 -21 -22 -23 -24 24 26 -27 -28 28 -30 -31
leaf_value=-0.023635599629659013 -0.00086245844462118815 -0.011500778384064289 0.012178082386717469 -0.046686477107879876 0.0029266326125299042 -0.00095622085924742725 0.042415248348181521 -0.0090762051422711692 -0.064937788668254268 -0.061326936360948228 -0.0051611713539885798 0.025560597132682661 -0.015511073517523453 -0.051988161438094871 0.020438088375279589 0.013930405966643994 -0.016909723711060431 0.01159300435102324 0.021935456077985142 -0.011353662094865085 -0.015205292514298094 0.028260400798490921 0.06917761308011415 0.073473407745885025 -0.042323278170947616 -0.0070935928641421425 -0.0088646838273559927 0.046434442009354295 -0.029806944363800127 -0.046930762120420327
leaf_weight=13917.075857371092 2543.5714905560017 9415.7241833806038 2209.6686545610428 843.82961346209049 9802.4013746082783 8338.5103107988834 288.17324402928352 3780.7360214591026 116.81284414231777 1153.744432926178 12395.285732135177 14644.826092451811 1635.1522953957319 369.19423063099384 3729.3498175442219 4925.3100941479206 494.7101793885231 24963.377407178283 2630.3933417201042 442.50039851665497 9847.7938832193613 102.23392301797867 79.978898972272873 106.6781003177166 916.1790619045496 386.19839762151241 920.05616001784801 143.18554879724979 804.46732802689075 176.76715934276581
leaf_count=55935 12022 38887 9713 3442 43479 37822 1172 15433 479 4658 51263 72961 7129 1518 16324 22892 2011 118219 12416 2213 40180 423 398 438 3764 1581 3796 610 3404 795
internal_value=2.94532e-05 -0.0106521 0.0113072 -0.0158348 -0.00179789 0.013092 -0.0103055 -0.0224878 0.0155844 -0.0262167 -0.00894254 0.0209665 0.00404386 0.00632775 0.00775327 0.00457138 -0.048002 0.0112361 0.010727 0.0244775 -0.00960833 -0.0345725 -0.00745205 -0.00716098 -0.0179618 0.0103455 -0.0255628 0.000382979 -0.0182783 0.00779592
internal_weight=132124 67855.4 64268.5 42801.3 25054.1 58605.3 23375.1 19426.2 45341.5 15565.5 22531.3 20261.3 15638.3 14003.2 13531.8 13263.8 1648.45 25080.2 5173.96 15087.3 22243.1 471.428 3860.71 5663.2 2329.11 492.876 1836.24 3334.09 947.653 2386.44
internal_count=585377 282252 303125 174492 107760 279024 96057 78435 218310 62604 92615 99612 68873 61744 59803 60714 6669 118698 24438 75174 91443 1941 15831 24101 9579 2019 7560 14522 4014 10508
is_linear=0
shrinkage=0.05


Tree=17
num_leaves=31
num_cat=0
split_feature=6 5 12 11 21 35 12 4 9 11 13 12 0 12 12 41 11 11 21 34 32 11 12 0 21 33 6 25 25 11
split_gain=5761.02 1141.38 789.985 494.454 446.164 414.903 415.112 459.962 402.993 390.752 348.308 343.665 337.329 329.967 287.183 269.316 247.554 241.585 229.91 227.903 226.643 224.6 279.607 222.161 217.026 211.802 202.659 195.659 243.099 193.4
threshold=12.685565000000002 -0.86160078738522283 95511.628252059585 0.10467367980608065 7.4066637478703336e-06 0.86492832967189071 95117.030191918035 0.98336791147994473 152.21652000000003 0.10468025416652482 5.1946646412652115e-06 95515.663779554641 -0.43117034211797461 95349.999778770652 95780.124687719654 1.0000000180025095e-35 0.10489107062604293 0.10443973305489031 2.2255775226773946e-06 0.12540853169823796 -0.21394680841515218 0.10490207391688726 95258.000000929183 0.75456806044065294 2.0718594864739916e-05 -0.17405730024733082 33.580840000000002 -8.0623704310030985e-06 -8.7444194567591752e-06 0.10438631286950055
decision_type=2 2 2 2 2 2 2 2 2 2 2 2 2 2 2 2 2 2 2 2 2 2 2 2 2 2 2 2 2 2
left_child=1 13 4 23 5 6 7 -2 -8 -5 11 20 -11 16 24 27 -1 -17 -12 -14 -4 -18 -23 29 -13 26 -7 28 -15 -3
right_child=2 3 10 9 -6 25 8 -9 -10 12 18 14 19 15 -16 17 21 -19 -20 -21 -22 22 -24 -25 -26 -27 -28 -29 -30 -31
leaf_value=0.031521141004743791 0.013615884385736923 -0.060013443743234689 -0.10616663343273132 0.045772372040435806 0.0089033056197685093 -0.003787899207399803 0.025562272851560291 -0.037873153837871043 -0.11849142811110894 -0.0067298344442287177 0.0330916817835092 0.0040068523078213786 -0.00021654161250295488 -0.034017318791003961 -0.044382391839441405 -0.058274944414796949 -0.055354618814623273 -0.017790119436018045 0.0083330736017947892 0.014737026956065545 -0.023350932735493983 -0.015595058771976736 0.004959340507070302 0.033213417238469232 -0.013953380130554513 -0.054450776417425184 0.031413032895405445 -0.061968018944380046 0.014475191320850643 -0.01364376467628671
leaf_weight=321.67201699316502 3949.3242806345224 229.46523627638817 107.96619555354118 432.74957968294621 18164.483872398734 1846.0874076783657 16855.366989269853 487.1202722042799 48.581011295318604 16599.449897781014 1296.7807437479496 14522.53025059402 8590.7945055961609 2950.8134718388319 341.64949445426464 381.02913692593575 303.85865941643715 11238.735706686974 3388.8421859741211 3621.9252591431141 352.2911733686924 8903.3020833730698 2031.7228653281927 248.31871825456619 1902.1651525050402 165.68797698616982 525.04863351583481 552.97834740579128 283.04995922744274 11180.593114852905
leaf_count=1311 19133 928 441 1846 85384 8749 85629 2144 231 69537 6329 64612 38081 11903 1394 1590 1223 45251 15829 16402 1532 35913 8248 1055 8224 784 2710 2221 1135 45608
internal_value=2.96248e-05 -0.0101168 0.0107975 -0.0048518 0.0148094 0.0193022 0.0215746 0.00796055 0.0251473 -0.00138065 0.0030998 -0.000187636 -0.0020892 -0.0181024 0.00098228 -0.0228937 -0.0117165 -0.0191186 0.0151868 0.00421791 -0.0428074 -0.0129547 -0.0117756 -0.0135586 0.00192648 0.000183709 0.00400565 -0.0344755 -0.0297711 -0.0145773
internal_weight=131824 67870.5 63953.9 40903.3 42041.7 23877.2 21340.4 4436.44 16903.9 29244.9 21912.2 17226.6 28812.2 26967.2 16766.3 15406.6 11560.6 11619.8 4685.62 12212.7 460.257 11238.9 10935 11658.4 16424.7 2536.82 2371.14 3786.84 3233.86 11410.1
internal_count=585377 282252 303125 173457 204764 119380 107137 21277 85860 125866 98361 76203 124020 108795 74230 62100 46695 46841 22158 54483 1973 45384 44161 47591 72836 12243 11459 15259 13038 46536
is_linear=0
shrinkage=0.05


Tree=18
num_leaves=31
num_cat=0
split_feature=6 2 11 11 21 6 11 26 7 9 11 11 11 42 11 35 9 4 13 6 34 2 35 7 1 0 1 7 25 8
split_gain=5213.7 1040.12 689.643 521.803 451.682 492.588 417.301 430.679 321.035 388.5 306.482 739.942 359.015 303.235 297.271 523.043 293.745 331.009 294.444 243.954 217.366 210.997 234.161 197.189 192.876 176.033 174.868 268.332 194.143 169.571
threshold=12.685565000000002 -0.7733346851996995 0.10452269710653085 0.10471971767851211 6.6704750319824469e-06 34.457250000000009 0.10443973305489031 1.0000000180025095e-35 16.368505000000003 -7.4730999999999987 0.1047690889308777 0.10476689366447778 0.10503429369978894 1.7136550000000996 0.10537074697615013 0.207791973888211 -14.37407 357913941.08333343 -8.1429787201495649e-05 27.759110000000003 0.12540853169823796 -0.30341270475704379 -0.70102711297928155 11.708025000000001 0.45729139135750413 0.20678847999739369 0.99997661077748856 0.10108500000000002 2.2849170137954887e-05 0.072515932220309012
decision_type=2 2 2 2 2 2 2 2 2 2 2 2 2 2 2 2 2 2 2 2 2 2 2 2 2 2 2 2 2 2
left_child=1 6 19 24 5 10 -1 16 9 13 11 -4 -12 -5 -10 -16 18 -18 -8 23 -11 -7 -23 -2 29 -21 27 -6 -28 -3
right_child=2 3 4 8 26 21 7 -9 14 20 12 -13 -14 -15 15 -17 17 -19 -20 25 -22 22 -24 -25 -26 -27 28 -29 -30 -31
leaf_value=-0.051845253620684845 -0.021825108437841977 -0.074209844623093976 0.0070065281542887343 -0.063301236936251171 0.021411417022091782 0.066212762049154758 -0.067982019766971963 -0.006145719968587887 0.018097955186754392 -0.0023529683866508884 0.023261118934313083 -0.10641536507208378 0.0053257338201406108 -0.012651090887240909 -0.052570562795460074 0.02141796886604164 -0.0089709166497970311 0.058304350866189208 -0.019516838888595303 -0.11611582347115423 0.013641172123762098 0.030738013941609424 0.014973296415252638 0.0090261764479161281 0.014803225886274592 0.0057696979403700447 -0.0016084774447731578 0.0056177411323580697 -0.06704476973395436 -0.012128005678905311
leaf_weight=756.24046175181866 2478.8470320403576 111.10554231703281 9985.1160734593868 380.68634420633316 3074.6176835149527 304.12675961852074 318.04132306575775 11245.619593337178 4510.5947000384331 8532.3405576348305 8125.3591488301754 145.79195535182953 4250.6897961944342 1321.5734440684319 441.14550741016865 520.58725057542324 4191.485992655158 191.06438630819321 21450.651782572269 29.817684859037399 2828.2453016489744 5436.7703265547752 4159.7106381207705 654.41235218942165 673.89728771150112 2977.2063358426094 380.74049773812294 21477.654720872641 161.40550093352795 10405.522813096642
leaf_count=3148 10348 447 46264 1580 14706 1595 1318 46053 19811 37357 41079 703 20148 5587 1850 2185 17127 781 86476 126 12811 28602 21192 2710 2876 13145 1817 99919 771 42845
internal_value=2.97591e-05 -0.00960962 0.0103109 -0.00259738 0.0120117 0.0159114 -0.0150728 -0.0143289 0.00254976 -0.00170899 0.0118224 0.00537277 0.0171015 -0.0239843 0.0127165 -0.0125172 -0.0178477 -0.00603554 -0.0202255 -0.00561631 0.00162846 0.0252061 0.0239054 -0.0153798 -0.0111231 0.0045556 0.00697542 0.00759583 -0.0211079 -0.0127851
internal_weight=131521 67878.8 63642.3 29725.7 57502 32407.6 38153.1 37396.9 18535.2 13062.8 22507 10130.9 12376 1702.26 5472.33 961.733 26151.2 4382.55 21768.7 6140.28 11360.6 9900.61 9596.48 3133.26 11190.5 3007.02 25094.4 24552.3 542.146 10516.6
internal_count=585377 282252 303125 127349 276796 159583 154903 151755 81181 57335 108194 46967 61227 7167 23846 4035 105702 17908 87794 26329 50168 51389 49794 13058 46168 13271 117213 114625 2588 43292
is_linear=0
shrinkage=0.05


Tree=19
num_leaves=31
num_cat=0
split_feature=6 0 11 39 17 11 11 4 6 41 11 9 11 6 4 11 13 36 11 0 11 36 17 11 25 21 21 17 2 6
split_gain=4718.25 942.182 640.74 508.822 447.535 436.837 419.12 664.394 394.512 464.628 387.499 354.219 351.293 333.043 314.384 299.644 293.504 283.8 281.08 269.914 244.434 254.513 241.71 283.522 294.872 241.708 239.487 221.883 219.524 219.507
threshold=12.685565000000002 -0.66622780469113208 0.10469778983252585 1.0000000180025095e-35 0.00010529086614141649 0.10469011725579985 0.1051336774738094 0.97984873864270861 20.331800000000005 1.0000000180025095e-35 0.10446591799710452 -14.37407 0.10469450144765301 9.6669250000000027 0.65881374722838149 0.10539740090302087 5.1946646412652115e-06 -0.07040035344029226 0.10448338192095749 -0.86107796587443186 0.10446591799710452 1.0000000180025095e-35 2.0965459407662482e-05 0.73341051678365354 -1.0797483324929311e-05 3.1348421806625942e-05 2.0718594864739916e-05 0.0012821846018677976 0.9613751884615952 7.8275350000000019
decision_type=2 2 2 2 2 2 2 2 2 2 2 2 2 2 2 2 2 2 2 2 2 2 2 2 2 2 2 2 2 2
left_child=1 3 12 11 6 -3 8 15 9 -4 -5 13 16 19 -14 -8 20 -10 -12 -1 21 -2 23 24 -7 -6 -22 -20 -27 -24
right_child=2 5 4 10 25 22 7 -9 17 -11 18 -13 14 -15 -16 -17 -18 -19 27 -21 26 -23 29 -25 -26 28 -28 -29 -30 -31
leaf_value=-0.019854242964993149 -0.010263851788635654 -0.010613305322470358 -0.030147427085292045 -0.042220791464010816 0.006715583850845629 0.022217349846907708 0.00099895186596347745 -0.021056410862305443 0.019465298751041599 0.013826076219675715 0.041668124223042814 -0.0060752892791135745 -0.08467364037815682 -0.075400710577941593 0.0041511810608861098 0.020855142907156607 0.016484637971007972 0.03370100746991328 -0.007762135453378405 -0.04294016198481173 0.0054532226498061019 -0.079958645884093349 -0.021404086715952276 -0.032706532405628805 0.0037589490967660892 -0.035027593397272766 -0.014735673437385317 -0.088129575709895408 0.0060366165496449804 0.003847275232118804
leaf_weight=13851.903544962406 2107.9080825597048 8525.8515666276217 656.3872150182724 830.20161701738834 7298.3715531229973 2773.4489888101816 3093.4282412827015 1718.8286180496216 11590.043327182531 7063.3557236194611 287.5467681735754 3866.780236557126 216.01527811586857 297.28929479420185 184.59045132994652 4927.0749473124743 3597.9917987436056 5019.1530888825655 22228.335112273693 1393.9851565659046 12758.347750753164 139.6118753105402 1678.6189527511597 446.78477765619755 9844.2152983397245 723.98331391811371 1659.8438454121351 86.129045858979225 590.80887414515018 1765.4219822883606
leaf_count=55763 8675 34904 2899 3442 34266 12072 14894 7699 60119 34112 1172 15831 894 1206 839 23972 17251 26276 91096 5635 57520 563 7190 1843 43909 3197 7210 347 2739 7842
internal_value=3.00153e-05 -0.0091291 0.00984431 -0.0136322 0.0133433 -0.00142258 0.0159177 0.00715162 0.0194267 0.0100861 -0.00867242 -0.0196194 0.00261694 -0.0229885 -0.0437418 0.0131975 0.00353389 0.0237677 -0.00743974 -0.0219657 0.000737546 -0.0145988 0.00332373 0.00643031 0.00781677 0.00315997 0.00312861 -0.00807295 -0.0165723 -0.008459
internal_weight=131222 67876.5 63345.7 42842.2 42681.4 25034.3 34068.3 9739.33 24328.9 7719.74 23432.2 19410 20664.3 15543.2 400.606 8020.5 20263.7 16609.2 22602 15245.9 16665.7 2247.52 16508.5 13064.4 12617.7 8613.16 14418.2 22314.5 1314.79 3444.04
internal_count=585377 282252 303125 174492 210173 107760 169971 46565 123406 37011 96057 78435 92952 62604 1733 38866 91219 86395 92615 61398 73968 9238 72856 57824 55981 40202 64730 91443 5936 15032
is_linear=0
shrinkage=0.05


Tree=20
num_leaves=31
num_cat=0
split_feature=5 6 27 12 4 12 21 12 6 4 12 3 12 34 25 10 4 12 25 4 12 3 12 12 41 12 25 1 6 12
split_gain=4348 871.977 697.7 564.11 462.07 381.426 365.675 360.367 456.179 456.123 348.663 347.232 324.503 292.123 258.915 251.16 250.174 225.578 232.589 204.735 196.387 226.406 193.427 412.075 303.855 189.462 184.959 184.953 183.66 182.492
threshold=-0.49150882440287907 15.531010000000002 0.00012999999998712102 95683.908723179236 0.9871381306865179 94453.264967510375 6.763927580609028e-06 95016.147076010864 40.989835000000006 0.98336791147994473 95535.174957870811 -0.96157676745769149 95504.854673327063 -0.7517494833995747 4.2155787003514047e-05 17.500000000000004 116080196.37837839 95768.844623191195 -7.3867288649273076e-06 186737708.08695653 94808.265492940249 0.99988008661227978 95606.968544983814 95656.034305498222 0.20931499999988626 95524.979226502503 2.3510694253312152e-07 0.99998287055950885 4.6687800000000008 95528.810196694918
decision_type=2 2 2 2 2 2 2 2 2 2 2 2 2 2 2 2 2 2 2 2 2 2 2 2 2 2 2 2 2 2
left_child=2 10 5 6 -4 -1 7 9 -9 -3 13 -6 28 25 22 17 -14 18 -7 29 21 -8 24 -24 -12 -2 -21 -22 -13 -15
right_child=1 3 4 -5 11 15 20 8 -10 -11 14 12 16 19 -16 -17 -18 -19 -20 26 27 -23 23 -25 -26 -27 -28 -29 -30 -31
leaf_value=0.026258582580558451 -0.0080536509191336501 0.0068777562055641383 0.031230512059229044 -0.0053648588141627868 -0.017044924875041455 -0.016334727739186924 0.021785487539019627 0.014402211665214866 0.030507216530067729 -0.054367969968208391 -0.062268551641485564 -0.003009699187451574 -0.019002822246385487 0.0078136633651676064 0.06713250122623951 -0.062318288847112685 -3.0766366308487961e-05 -0.066181728150882593 -0.03131494714401814 0.0033402146483484559 0.0062081647531490912 -0.078749491641993227 0.023117334518513583 -0.012546953583753601 -0.013676676657713965 0.043955989586306428 -0.040143740430030612 -0.038386105285240335 0.011185838320298756 0.051068373236581921
leaf_weight=449.37140715122223 5442.9495466500521 2828.7068400532007 769.77456051111221 4965.2924480438232 7739.7249057590961 15157.440493494272 2779.7657649070024 18544.152141928673 5764.8676575869322 340.49933370947838 355.10748173296452 9551.2810386121273 5164.6816740036011 13555.713785991073 109.83334837853909 349.79174493253231 2619.3986389935017 255.7639576792717 3126.7994614243507 586.72468338906765 18778.285657733679 57.035761103034019 1129.0336116105318 2864.7083865404129 3422.8590427935123 180.80038650333881 418.96482446789742 235.2987557798624 2992.2029744684696 248.26534324884415
leaf_count=1841 23894 13943 3609 21276 31133 61436 13121 92286 31047 1467 1468 39353 20883 61376 475 1457 10648 1074 12754 2526 88753 270 4757 11774 14216 764 1824 1123 13117 1077
internal_value=2.65017e-05 0.00698862 -0.0119115 0.0106983 -0.00698361 -0.0192592 0.0123153 0.0161544 0.0182218 0.000294433 -0.000124605 -0.00803196 -0.00459996 0.0033211 -0.00905838 -0.0203424 -0.0126193 -0.0195499 -0.0188969 0.00700527 0.00748723 0.0197597 -0.0101366 -0.00246306 -0.0182469 -0.00637993 -0.0147722 0.00565584 0.000376259 0.00859233
internal_weight=130785 82608.9 48176.2 54293.9 28837.1 19339.2 49328.6 27478.2 24309 3169.21 28315 28067.3 20327.6 20433.4 7881.54 18889.8 7784.08 18540 18284.2 14809.7 21850.4 2836.8 7771.71 3993.74 3777.97 5623.75 1005.69 19013.6 12543.5 13804
internal_count=584742 387437 197305 263286 118743 78562 242010 138743 123333 15410 124151 115134 84001 91461 32690 76721 31531 75264 74190 66803 103267 13391 32215 16531 15684 24658 4350 89876 52470 62453
is_linear=0
shrinkage=0.05


Tree=21
num_leaves=31
num_cat=0
split_feature=5 6 27 12 7 12 4 0 12 11 9 17 4 12 12 34 11 17 21 12 12 1 21 9 12 21 1 25 25 36
split_gain=3930.57 793.221 629.645 531.298 454.995 401.5 588.153 394.737 442.31 375.471 389.424 370.007 355.003 344.474 302.937 290.572 346.685 288.452 283.063 260.072 260.611 244.025 240.827 231.263 297.918 270.327 222 206.661 204.302 191.429
threshold=-0.49150882440287907 15.531010000000002 0.00012999999998712102 95511.628252059585 119.40049 95150.332123035696 35495596.528925627 -0.33785244301280398 95738.999957979147 0.10467367980608065 14.874865000000003 0.00014674667882541573 0.93355408388520977 94453.264967510375 94808.265492940249 0.12540853169823796 0.10562673624242315 0.0012821846018677976 8.9560570459157108e-06 95515.663779554641 95780.124687719654 0.99998287055950885 2.0665504410284963e-06 -64.214780000000005 95648.027969538482 1.4773866137757582e-06 0.88263914593511628 -7.3867288649273076e-06 -1.7494104209020511e-05 0.92872735582687416
decision_type=2 2 2 2 2 2 2 2 2 2 2 2 2 2 2 2 2 2 2 2 2 2 2 2 2 2 2 2 2 2
left_child=2 9 13 5 7 6 14 8 17 -2 15 21 19 -1 -3 16 -11 -4 -8 26 -21 -7 -14 25 27 -15 -5 -25 -6 -17
right_child=1 3 4 12 28 11 18 -9 -10 10 -12 -13 22 23 -16 29 -18 -19 -20 20 -22 -23 -24 24 -26 -27 -28 -29 -30 -31
leaf_value=0.025032327939080109 -0.0095594667840684655 0.020216350835380918 -0.0073316151830375917 -0.069682898707353044 -0.041253476636619352 0.01992252128065293 -0.070243767621703049 0.015623422381112457 -0.044311402716773189 -0.0024232403054744779 -0.11973308051548914 -0.0002929381304574193 0.033329096265969811 -0.051564525011351281 0.0021182904288171247 0.017360895697771935 0.02473690015660681 -0.082647478645107825 -0.0070002531342341053 0.0015778709978723294 -0.051581480600277174 -0.047344767743886698 0.0082332974776436127 -0.010793704565943522 -0.038046202613564582 -0.022329681864915935 0.0067815855997359169 -0.026120906996871768 0.062595344014397078 -0.0055976285821370281
leaf_weight=447.8593832552433 7673.568061619997 3689.5858573764563 25713.809721559286 245.99946413934231 55.251763850450516 21739.520838424563 350.24750979244709 1752.1996188312769 852.34729495644569 13300.017479717731 63.914431765675545 2644.7329465597868 1336.9425511807203 1055.2459795922041 6195.5122654139996 4856.1676027178764 1288.6758770793676 127.674445271492 357.86821091175079 13585.640824243426 234.43229874968529 135.52986295521259 3357.4703893512487 10457.576892107725 1429.595988124609 3160.6396590173244 154.31711496412754 2785.8880626708269 326.80123543739319 1116.306085690856
leaf_count=1841 31762 17844 105196 1026 229 112910 1499 7622 3562 58928 296 12356 6347 4288 30014 22427 5694 514 1578 61678 956 680 15678 42413 5833 12847 720 11340 1620 5044
internal_value=2.66437e-05 0.00666414 -0.0113185 0.0102161 -0.00663611 0.0138553 0.00572016 -0.0073643 -0.00887347 -0.000117141 0.00339567 0.0173697 0.00346016 -0.0182988 0.00887398 0.00377924 -2.35839e-05 -0.00770424 -0.0382943 -0.000475209 0.000675391 0.0195053 0.0153821 -0.0193266 -0.0163601 -0.0296495 -0.0402 -0.0140185 0.047557 0.0130689
internal_weight=130491 82326.4 48164.9 54027.8 28828.1 35113 10593.2 28446 26693.8 28298.6 20625.1 24519.8 18914.8 19336.8 9885.1 20561.2 14588.7 25841.5 708.116 14220.4 13820.1 21875.1 4694.41 18888.9 14673.1 4215.89 400.317 13243.5 382.053 5972.47
internal_count=584742 387437 197305 263286 118743 176881 50935 116894 109272 124151 92389 125946 86405 78562 47858 92093 64622 105710 3077 64380 62634 113590 22025 76721 59586 17135 1746 53753 1849 27471
is_linear=0
shrinkage=0.05


Tree=22
num_leaves=31
num_cat=0
split_feature=2 12 3 6 12 8 17 6 6 12 11 12 11 11 27 36 29 7 7 4 4 17 36 25 17 11 11 17 12 36
split_gain=3599.12 738.418 528.92 481.64 413.111 446.011 391.809 376.137 356.399 341.705 339.225 398.184 337.929 315.447 306.282 289.135 260.986 249.961 237.825 231.014 223.269 212.025 204.643 188.945 186.723 241.197 175.639 172.108 157.052 197.811
threshold=-0.56929081894666145 95535.174957870811 -0.99641313813390153 20.331800000000005 95025.903906023275 0.75520458187652129 0.00015689638072746706 33.166250000000012 27.432525000000002 94808.265492940249 0.10468025416652482 95526.338163040127 0.10452269710653085 0.10438631286950055 0.00018999999997159009 -0.069733644983727652 5.5709850000000012 25.047405000000001 69.966795000000005 138547331.41935486 102261125.35714288 0.0001673535137731719 -0.099999475091724535 2.3510694253312152e-07 2.0923347318735356e-05 0.10443973305489031 0.10464191536848343 0.00018302807001813195 95444.897876152172 -0.42989692272709434
decision_type=2 2 2 2 2 2 2 2 2 2 2 2 2 2 2 2 2 2 2 2 2 2 2 2 2 2 2 2 2 2
left_child=2 3 28 10 5 22 15 12 13 -7 -2 14 -4 -3 -12 -6 20 24 -18 26 -14 -8 -5 -21 25 -10 -15 -13 29 -1
right_child=1 8 7 4 6 9 21 -9 17 -11 11 27 16 19 -16 -17 18 -19 -20 23 -22 -23 -24 -25 -26 -27 -28 -29 -30 -31
leaf_value=-0.043025129756567998 0.049315202063973107 -0.063734167928204785 -0.023308454319815861 -0.01582524400480902 0.015825450543948696 0.018392085896531844 -0.036705921874656516 0.065334300181231222 -0.027596448777722028 -0.0039486214064424754 -0.0060796431998912555 -0.079642931999636082 -0.012467271600882951 -0.0039877975915419269 0.0073493624211450311 0.029031219066837272 0.00018233212673486281 -0.097680152005776011 0.044352600561611784 -0.0039671759192548917 -0.0039937162913857649 0.0047169964274257495 -0.084877233973331773 0.025899515383232981 0.00091456529157951704 0.018756560675563388 -0.018073578053052146 0.0595648834546261 -0.029982946726059518 -0.011707800637807847
leaf_weight=582.68237769603729 419.39449021220207 228.85850402712822 3583.4516150653362 252.15552471578121 14550.170222744346 3273.7782590836287 357.24856249988079 172.4647022485733 302.23787301778793 3586.0606321394444 5359.9482858031988 191.46792775392532 18859.659955978394 9922.8211090564728 20421.840661793947 5798.5013973414898 5249.2129287868738 56.458114609122276 323.44399859011173 1078.026847884059 13229.027277261019 2279.0588404089212 187.0334894657135 1040.1914242058992 4701.4148210138083 3899.473857358098 2848.886300355196 24.99848835170269 3669.3045251816511 3750.7333962470293
leaf_count=2342 1846 930 14644 1087 75922 15988 1687 933 1297 17302 23928 817 77403 42293 94628 30882 21605 242 1460 4402 54362 10612 783 4414 21812 18704 12321 104 14929 15063
internal_value=2.67475e-05 0.00652901 -0.0106015 0.0096442 0.0139483 0.00358436 0.0172392 -0.00832751 -0.000806702 0.0067126 0.00470996 0.00399002 -0.00863581 -0.00548973 0.00455731 0.0195889 -0.00723953 0.00709505 0.00274768 -0.00459375 -0.0089741 -0.000895546 -0.0452558 0.0106976 0.00776112 0.0154205 -0.00713031 -0.0635234 -0.0223693 -0.0159209
internal_weight=130200 80780 49420 56701.7 30284 7299.03 22985 41417.3 24078.4 6859.84 26417.6 25998.3 41244.8 15118.8 25781.8 20348.7 37661.3 8959.58 5572.66 14889.9 32088.7 2636.31 439.189 2118.22 8903.13 4201.71 12771.7 216.466 8002.72 4333.42
internal_count=584742 382001 202741 275586 154263 35160 119103 170407 106415 33290 121323 119477 169474 64360 118556 106804 154830 42055 23065 63430 131765 12299 1870 8816 41813 20001 54614 921 32334 17405
is_linear=0
shrinkage=0.05


Tree=23
num_leaves=31
num_cat=0
split_feature=6 6 12 11 11 11 6 11 42 21 21 21 25 12 11 36 2 36 11 8 25 25 21 2 35 11 11 36 13 2
split_gain=3256.19 755.725 545.747 370.7 877.393 360.34 349.284 336.138 333.817 332.853 332.545 291.27 302.071 259.836 218.864 263.973 213.84 201.914 197.094 196.908 188.009 317.661 218.195 182.54 171.888 237.088 162.99 223.405 181.811 159.737
threshold=12.685565000000002 3.6275200000000001 95683.908723179236 0.10477128428927798 0.10481960546188424 0.10476469849007242 34.457250000000009 0.10443973305489031 2.4143250000000784 9.3162542050036573e-06 6.9832141194936639e-06 3.0667870386983878e-05 -2.5305577926507824e-05 94392.00033225432 0.10483608877808052 -0.099999475091724535 -0.98411524065300937 -0.12319429033636652 0.10493840116140894 0.00070168870484456174 -7.3867288649273076e-06 -1.066659790272987e-05 7.4267536076430386e-07 -0.30341270475704379 -0.93919968623069516 0.10477347973968441 0.10469011725579985 -0.68597076711433724 3.9082517765177505e-06 0.1173682631204188
decision_type=2 2 2 2 2 2 2 2 2 2 2 2 2 2 2 2 2 2 2 2 2 2 2 2 2 2 2 2 2 2
left_child=1 7 6 5 24 26 11 -1 20 29 13 12 -2 -8 15 -6 -14 -13 -16 -10 21 -9 -22 -15 25 -5 28 -28 -3 -7
right_child=2 3 -4 4 14 9 10 8 19 -11 -12 17 16 23 18 -17 -18 -19 -20 -21 22 -23 -24 -25 -26 -27 27 -29 -30 -31
leaf_value=-0.048565767923498947 -0.042443584563467529 -0.010365601766272549 -0.0065718575236485971 -0.14129956693721191 -0.059788115771795429 -0.093569536713937029 -0.087153725250590453 -0.02191306593988894 -0.019742248265748722 0.010072306481165852 0.0089720445746597714 -0.022829949889282979 -0.10158486737562739 0.062234663780806582 0.010201794565808355 0.015359468936552904 0.008620024338804844 0.0065857506470369323 -0.0040652225598908388 -0.0066824229012181534 -0.048427308512209367 -0.0016807468775130356 -0.017510172917509347 0.021259178612808179 0.034238319403530421 0.0086256439008287125 -0.029526639981143091 0.006087649558327946 0.031116014692817023 -0.00028492199757330911
leaf_weight=634.90180605649948 293.67345400154591 10567.091868802905 5610.6394636482 29.138594567775726 336.7537863701582 276.366231366992 54.247226849198341 6292.0279777497053 3356.4746210277081 158.037512794137 10603.809226483107 1345.2824354916811 43.969029426574707 280.16181175410748 3225.9171048402786 178.74558888375759 33644.361203953624 1029.5698811560869 9697.0505643785 20624.312809363008 1053.8249201476574 2805.7028739452362 1246.5476560741663 9185.4109140485525 2351.1177465617657 268.35256479680538 496.09992821514606 3909.860503256321 270.77010516822338 55.153940469026566
leaf_count=2753 1284 43111 23934 131 1485 1186 220 25553 13517 690 51385 5990 197 1614 14409 806 163026 4706 42043 83681 4301 11329 5066 50032 10417 1244 2139 17076 1157 260
internal_value=2.68612e-05 -0.00754609 0.00830036 -0.00193143 0.00340539 -0.00738853 0.00977782 -0.0125068 -0.0118595 -0.0496097 0.0150631 0.00685224 0.00803542 0.021847 -0.0017783 -0.0337236 0.00847574 -0.0100755 -0.000503357 -0.00851063 -0.0189046 -0.0156741 -0.0316773 0.0224731 0.0297073 -0.00608494 -0.00603195 0.00207586 -0.0093285 -0.0780699
internal_weight=129925 67834.2 62091.1 31820.5 16087.1 15733.4 56480.5 36013.8 35378.9 489.558 20123.6 36356.9 33982 9519.82 13438.5 515.499 33688.3 2374.85 12923 23980.8 11398.1 9097.73 2300.37 9465.57 2648.61 297.491 15243.8 4405.96 10837.9 331.52
internal_count=584742 282354 302388 136154 70535 65619 278454 146200 143447 2136 103251 175203 164507 51866 58743 2291 163223 10696 56452 97198 46249 36882 9367 51646 11792 1375 63483 19215 44268 1446
is_linear=0
shrinkage=0.05


Tree=24
num_leaves=31
num_cat=0
split_feature=2 11 21 3 2 11 9 11 35 29 9 2 1 3 25 1 25 25 11 17 9 11 11 11 25 34 9 4 4 25
split_gain=2968.15 624.49 493.412 444.945 353.677 304.156 293.711 281.91 250.314 225.361 234.073 222.327 325.442 224.569 221.72 217.214 203.626 247.007 202.693 229.906 192.64 201.891 190.182 283.14 201.033 186.266 180.482 177.654 167.109 161.072
threshold=-0.56929081894666145 0.10467367980608065 2.6693429124410037e-06 -0.99641313813390153 0.56075633511678924 0.10452269710653085 24.333445000000001 0.10438631286950055 -0.76237924421760217 5.5709850000000012 -62.312969999999986 -0.99983665977501279 -0.99989015109840718 -0.8948026041124979 -2.7435495286950532e-05 0.99997661077748856 2.0148326863572898e-05 2.3896970176544444e-05 0.10443973305489031 0.00028031800354888509 -67.064579999999992 0.10477128428927798 0.10464191536848343 0.10463753557962631 1.2805955077931565e-06 -0.93124060492794125 152.21652000000003 0.9871381306865179 0.97565912906092633 -2.5305577926507824e-05
decision_type=2 2 2 2 2 2 2 2 2 2 2 2 2 2 2 2 2 2 2 2 2 2 2 2 2 2 2 2 2 2
left_child=3 6 8 -1 -4 -5 7 -2 26 11 14 12 -7 -13 -11 25 18 -18 28 -20 -10 -22 23 -9 -24 -6 29 -17 -8 -3
right_child=1 2 4 5 15 9 16 22 20 10 -12 13 -14 -15 -16 27 17 -19 19 -21 21 -23 24 -25 -26 -27 -28 -29 -30 -31
leaf_value=-0.020433582028663869 -0.060562959774611361 -0.089290223374866223 -0.0025472509637266202 -0.021484880353454753 -0.012261727141022999 -0.0023138195075432951 -0.027220738677374724 -0.0031985298785049128 -0.11661547280129952 -0.10008726458994471 0.00039081272119518694 -0.013763653775249305 0.061052685695682618 -0.0051104285936258639 0.053396684595016397 -0.0097123432613628238 -0.058719197418788116 0.0048807499575454945 0.013481071779245388 -0.033263687099255507 0.002342253449213677 0.014244310715598835 -0.031915759871346532 0.031424186404674932 -0.0055606238709069488 0.01046098905226003 -0.12540672635990666 -0.086009336065386854 0.056582161290897839 0.021733294418031894
leaf_weight=7973.5712236166 225.78200933337212 32.68147449195385 11199.803037896752 3570.6977957487106 946.43465818464756 730.54565002024174 555.27672912180424 11033.507541850209 29.679391428828239 25.232458487153053 5231.0647583752871 12494.843430891633 280.22005818784237 18755.367851257324 328.53718470036983 514.96536795794964 253.15015596151352 384.01135851442814 6484.9180509895086 274.01103031635284 5103.1035571247339 11814.259540110826 1144.9226070940495 623.77542074024677 1967.5405538380146 19047.068902745843 20.906956657767296 89.522890880703926 66.496203884482384 8456.6337609291077
leaf_count=32334 926 164 50528 14644 4430 2945 2329 46807 132 106 21532 50408 1126 78135 1511 2537 1180 1814 31107 1181 24191 58853 4714 2687 8637 94130 103 426 295 44830
internal_value=2.67768e-05 0.00596098 0.00875703 -0.00961735 0.00460364 -0.00753483 -0.000995097 -0.00512564 0.0139446 -0.00621847 0.00305412 -0.00782385 0.015253 -0.00857046 0.0424102 0.00849206 0.00672946 -0.0203855 0.00907116 0.0115848 0.0104305 0.0106544 -0.00427744 -0.0013452 -0.0152577 0.00938506 0.0209418 -0.0210323 -0.0182426 0.0213042
internal_weight=129659 80268.5 57255.1 49390.1 31797.8 41416.5 23013.4 14995.5 25457.3 37845.8 5584.83 32261 1010.77 31250.2 353.77 20598 8017.86 637.162 7380.7 6758.93 16947 16917.4 14769.7 11657.3 3112.46 19993.5 8510.22 604.488 621.773 8489.32
internal_count=584742 382001 280324 202741 152051 170407 101677 63771 128273 155763 23149 132614 4071 128543 1617 101523 37906 2994 34912 32288 83176 83044 62845 49494 13351 98560 45097 2963 2624 44994
is_linear=0
shrinkage=0.05


Tree=25
num_leaves=31
num_cat=0
split_feature=6 3 11 11 7 17 0 11 27 2 9 11 11 41 17 35 7 1 11 11 11 34 1 11 0 2 7 7 33 4
split_gain=2605.31 554.753 465.175 385.86 488.846 366.65 335.647 322.425 426.94 325.611 421.581 315.12 389.81 283.487 273.643 271.242 273.794 265.147 242.488 241.438 240.343 235.144 221.787 211.739 192.993 183.355 399.228 160.099 156.433 168.377
threshold=12.685565000000002 -0.99641313813390153 0.10472520107525747 0.1051336774738094 10.171565000000003 0.00014674667882541573 0.99984444458631361 0.10469011725579985 0.19392499999998739 -0.99945822988024458 -24.119754999999998 0.10539740090302087 0.10535853509785185 0.12592000000000803 0.00028031800354888509 -0.3224170753326136 2.8607549999999997 0.99997661077748856 0.10468573343111656 0.10446591799710452 0.10438631286950055 -0.059991695064728116 0.9989561263672605 0.10472191096830244 0.73250293978731007 -0.9218166688993118 27.595790000000004 6.8520650000000005 0.94964220410494515 0.13383084577114432
decision_type=2 2 2 2 2 2 2 2 2 2 2 2 2 2 2 2 2 2 2 2 2 2 2 2 2 2 2 2 2 2
left_child=1 27 6 5 11 15 14 18 9 21 -11 12 -5 -8 19 16 -4 -13 20 22 -3 -9 -2 -21 -22 -10 -27 -1 29 -6
right_child=2 7 3 4 28 -7 13 8 25 10 -12 17 -14 -15 -16 -17 -18 -19 -20 23 24 -23 -24 -25 -26 26 -28 -29 -30 -31
leaf_value=0.077643270479122922 -0.011254071452930654 -0.055632887909370404 0.014483618124452417 0.0031235760566859731 0.047398889763854833 -0.0034444413287244308 0.052085293048114684 0.01003025461078195 -0.0052334361088735301 -0.020922408110335022 -0.0041954791167427953 0.015349793770092744 -0.038840084420984577 0.010642469407043083 -0.030360137108881292 0.0092160148808189835 0.028315934312047843 -0.03504742623430887 -0.042430891980256846 0.0035683865795210368 -0.0095282205885849174 0.089169170872493805 -0.095257495597061884 -0.047824800927581602 0.032585374501562035 0.0012844288531317718 0.023171013257894835 -0.019574343982536373 0.010896321498707524 -0.033731204357883411
leaf_weight=42.460842370986938 2218.1641883254051 278.81381478905678 7853.1718075871468 3651.1657052338123 67.36171381175518 2506.8005680590868 523.00005908310413 1015.552776902914 7217.2874736338854 6072.0167712718248 9925.3789051622152 7554.4102791845798 652.14642037451267 1957.1255809664726 719.88152669370174 7806.4867623895407 6574.9211518466473 270.17255918681622 581.8271923661232 17591.492281675339 16325.822882607579 103.35991224646568 81.384836792945862 202.61339831352234 276.50593750178814 15681.071096733212 2402.838350430131 7884.4190964400768 294.83627760410309 1217.787307113409
leaf_count=170 9147 1188 42638 17686 298 11738 2758 4081 29247 24716 41866 37249 3140 9657 3018 39890 34772 1297 2372 81635 66349 416 358 1045 1187 68404 10463 32033 1352 5344
internal_value=0.00014423 -0.00662179 0.00757489 0.0109529 0.00422309 0.0146813 0.00199878 -0.00497618 -0.0026219 -0.00872074 -0.0105448 0.00763148 -0.00323541 0.0193855 -7.28565e-05 0.0167251 0.0207875 0.0136086 -0.0106944 0.00101212 -0.00960003 0.0173525 -0.0142333 0.00298265 -0.00882634 0.0015038 0.00419292 -0.019052 -0.0219352 -0.0294715
internal_weight=129550 67807.4 61742.9 38449.3 13707.9 24741.4 23293.7 59880.5 42417.5 17116.3 15997.4 12127.9 4303.31 2480.13 20813.5 22234.6 14428.1 7824.58 17463 20093.7 16881.1 1118.91 2299.55 17794.1 16602.3 25301.2 18083.9 7926.88 1579.99 1285.15
internal_count=585514 282492 303022 195404 66366 129038 107618 250289 179193 71079 66582 59372 20826 12415 95203 117300 77410 38546 71096 92185 68724 4497 9505 82680 67536 108114 78867 32203 6994 5642
is_linear=0
shrinkage=0.05


Tree=26
num_leaves=31
num_cat=0
split_feature=5 34 39 11 12 11 12 13 0 13 12 36 12 21 21 12 3 9 2 11 12 9 12 36 25 4 11 2 4 21
split_gain=2317.63 544.563 497.7 427.802 641.702 489.162 353.505 336.579 433.787 323.789 307.69 326.474 281.322 271.05 254.332 276.973 254.573 244.204 326.686 239.605 234.999 238.473 252.692 218.725 216.862 208.538 206.515 243.29 245.725 204.303
threshold=-0.49150882440287907 -0.087716009500365344 1.0000000180025095e-35 0.1047690889308777 95400.856038190905 0.10476469849007242 95537.290321143562 2.6333240749817411e-05 0.9059616502890695 -8.1429787201495649e-05 95444.897876152172 -0.12431038033697912 95460.000227008248 3.282400516248906e-06 1.4904736465210139e-06 94392.00033225432 0.95103928224459156 -19.738194999999997 0.57520632502303692 0.10486247286971787 94453.264967510375 -64.214780000000005 95680.40361216529 -0.17160961190662025 -5.2501879880091668e-06 143165576.03333336 0.10462111463621816 0.25313848157607743 0.93969696969696981 4.4709261781105341e-06
decision_type=2 2 2 2 2 2 2 2 2 2 2 2 2 2 2 2 2 2 2 2 2 2 2 2 2 2 2 2 2 2
left_child=2 3 9 5 17 -2 7 14 -9 -1 11 -4 25 -7 15 -3 -16 19 -19 -5 -11 23 -23 -22 -13 29 -8 -28 -29 -12
right_child=1 6 10 4 -6 13 26 8 -10 20 12 24 -14 -15 16 -17 -18 18 -20 -21 21 22 -24 -25 -26 -27 27 28 -30 -31
leaf_value=-0.063254555681271127 -0.0044167370359652668 -0.096512117650499177 -0.006944615123636204 -0.085589095840704607 0.026241222748850226 -0.10953457192545135 0.0062078584241799691 -0.086007350500958257 0.00023612564979925453 0.023226435308873378 -0.074987010746241353 0.0056629178914440435 -0.0075777868984769105 -0.015421127965952254 0.003716273282687184 0.017649666563506927 0.015127273271217609 -0.0065138295685365603 0.0093391945933031153 0.049082199366523749 -0.010035786003744192 -0.0099719539115492705 -0.032775873995906875 -0.035249970842972642 0.033840624394670865 0.018014713059705607 -0.033909357632220409 -0.0092274606529837259 0.019603562291858112 -0.018399516517765221
leaf_weight=330.77930410206318 15338.476971790195 53.221223056316376 6284.2445586025715 35.881142988801003 3127.4252542406321 172.6369244158268 9041.5743947178125 193.67777575552464 588.44077879190445 428.80547145009041 365.08225047588348 6357.5447970032692 12091.822787895799 137.63905513286591 11793.494369924068 13977.651599541306 8348.9607258737087 7939.7273783534765 5501.3086949884892 400.44152376055717 1381.2934684753418 16002.077549159527 1314.8148011416197 2282.6886496245861 765.04180139303207 135.00379545986652 701.36490686237812 2919.3708737194538 989.39558692276478 283.8467974960804
leaf_count=1432 67074 219 25949 176 15154 814 40741 824 2901 1761 1510 26455 49328 621 57228 73566 42494 35736 27324 2038 5648 64925 5449 9351 3590 566 2911 13666 4895 1168
internal_value=0.000138651 0.0052851 -0.00856964 0.000291048 0.00578128 -0.00567462 0.00863991 0.0113047 -0.0211224 -0.0141664 -0.0039399 0.00136149 -0.00946031 -0.0678202 0.012047 0.0172156 0.00844638 0.00116988 -2.49202e-05 0.0379789 -0.0134074 -0.0141565 -0.0117038 -0.0257463 0.00869064 -0.0384863 0.00181636 -0.0067953 -0.00192809 -0.0502495
internal_weight=129284 81260.7 48023 32653.5 17004.8 15648.8 48607.2 34955.4 782.119 21740.5 26282.6 13406.8 12875.8 310.276 34173.3 14030.9 20142.5 13877.4 13441 436.323 21409.7 20980.9 17316.9 3663.98 7122.59 783.933 13651.7 4610.13 3908.77 648.929
internal_count=585514 388382 197132 148937 80428 68509 239445 177232 3725 88566 108566 55994 52572 1435 173507 73785 99722 65274 63060 2214 87134 85373 70374 14999 30045 3244 62213 21472 18561 2678
is_linear=0
shrinkage=0.05


Tree=27
num_leaves=31
num_cat=0
split_feature=6 6 11 11 7 11 27 0 11 11 21 42 9 9 1 11 11 35 1 11 13 21 11 11 1 21 0 6 7 21
split_gain=2152.65 472.821 392.768 350.069 428.943 298.692 383.068 295.425 292.356 347.404 273.423 269.111 261.433 251.517 408.83 250.806 553.045 250.084 243.217 214.539 214.308 207.254 232.538 233.657 224.858 194.613 174.302 167.761 217.869 167.352
