tree
version=v4
num_class=1
num_tree_per_iteration=1
label_index=0
max_feature_idx=25
objective=binary sigmoid:1
feature_names=tob_imbalance depth3_imbalance depth5_imbalance depth10_imbalance count_imbalance price_weighted_imbalance total_bid_depth total_ask_depth depth_ratio depth_diff spread spread_bps microprice microprice_deviation return_5 return_10 return_20 return_50 volatility_5 volatility_10 volatility_20 volatility_50 imbalance_change_5 spread_change_5 depth_change_5 vwap_deviation
feature_infos=[-0.99999944192613599:0.99999965126051871] [-0.9999936791466506:0.99999487032742274] [-0.9999858585179533:0.99999074898297513] [-0.99996158976987837:0.99997219054522746] [0:1431655765] [-0.99996159275957308:0.99997218615421612] [0.0012999999999999997:234.07733000000002] [0.0012999999999999997:252.46795999999998] [1.9205115060798956e-05:0.99998609527261373] [-250.58115999999998:234.02342000000002] [1:68] [0.10433458013156591:7.1532263154572808] [94307.10732806685:95845.978577587215] [-0.00035729214297811957:0.00025774162350275255] [-0.010378423789928704:0.0086645881198599284] [-0.010378423789928704:0.0087426279140814245] [-0.010378423789928704:0.0088445775327326004] [-0.010347041067161555:0.008878626826300362] [0:0.0046413722187163154] [0:0.0032819457698651587] [0:0.0023206861093581577] [0:0.0014686146952925074] [-1.9999877132724786:1.9999832536156248] [-8.9895812713004144:7.0479936196586959] [-284.92980999999997:230.42061000000001] [-0.0004479751934848271:0.0002877698965483314]
tree_sizes=1724 1802 1796 1906 1800 1910 1917 1906 1899 1791 1907 1899 1894 1926 1787 1908 1914 1898 1908 1918 1907 1917 1908 1908 1915 1797 1901 1910 1911 1906 1781 1794 1802 1796 1901 1907 1912 1799 1777 1907 1920 1910 1802 1789 1690 1893 1781 1699 1123 1912 1695 1706 1706 1897 1334 1355 1364 1333 1246 1804 1580 1566 1688 1350 1797 1566 1342 1350 1562 1242

Tree=0
num_leaves=15
num_cat=0
split_feature=5 20 22 17 3 21 22 12 7 4 10 0 17 17
split_gain=11194.2 13658.8 5348.43 3925.93 1061.26 953.265 1247.06 399.914 302.071 163.835 85.8376 59.8484 53.8174 22.1629
threshold=-0.96737359010257795 1.0000000180025095e-35 -1.0000000180025095e-35 -1.0000000180025095e-35 -0.78687843021896253 1.0000000180025095e-35 -1.0000000180025095e-35 94689.047395012094 2.8016600000000005 390451572.18181819 14.500000000000002 -0.67804391504980388 1.0463370356816883e-05 0.0001370895891179558
decision_type=2 2 2 2 2 2 2 2 2 2 2 2 2 2
left_child=1 2 13 -4 5 6 -2 -7 11 -10 12 -6 -3 -1
right_child=4 10 3 -5 8 7 -8 -9 9 -11 -12 -13 -14 -15
leaf_value=4.1165626308785681 4.1078391284632412 4.1150650924569536 3.8337867574608095 3.5418195722185244 3.9071924465014312 3.9543304009832214 3.9260056686784317 4.0973511005503074 4.0965877719340202 4.0064837171634151 3.863609058954343 4.1170945755108015 4.0679190331944408 3.9907790819697793
leaf_weight=82.882472515106201 145.76561424136162 452.18159055709839 223.1072885543108 238.68053793907166 3.2949717119336119 52.834297649562359 266.5648507848382 636.97868562489748 4795.019878461957 50.867150358855724 3.4916864410042754 2578.3235610350966 69.653406985104084 3.5408651232719413
leaf_count=5056 8892 27584 13610 14560 201 3223 16261 38857 292506 3103 213 157283 4249 216
internal_value=4.07706 3.9249 3.75034 3.68279 4.09621 4.05043 3.99029 4.08637 4.103 4.09564 4.10708 4.11682 4.10876 4.11126
internal_weight=9603.19 1073.54 548.211 461.788 8529.65 1102.14 412.33 689.813 7427.51 4845.89 525.327 2581.62 521.835 86.4233
internal_count=585814 65488 33442 28170 520326 67233 25153 42080 453093 295609 32046 157484 31833 5272
is_linear=0
shrinkage=1


Tree=1
num_leaves=15
num_cat=0
split_feature=5 20 24 8 5 24 24 7 12 10 17 24 2 17
split_gain=8483.45 7593.62 2521.54 2094.02 979.664 859.899 1489.17 244.942 128.922 87.7924 51.6333 29.8278 24.1624 19.3893
threshold=-0.96737359010257795 1.0000000180025095e-35 -1.0000000180025095e-35 0.00072081210038904152 -0.67643718957081178 -1.0000000180025095e-35 1.0000000180025095e-35 2.4865850000000003 95490.479800634042 15.500000000000002 1.0463370356816883e-05 -47.510264999999997 0.97802771617609119 0.0001370895891179558
decision_type=2 2 2 2 2 2 2 2 2 2 2 2 2 2
left_child=1 2 13 -4 5 11 -7 12 -9 10 -3 -2 -6 -1
right_child=4 9 3 -5 7 6 -8 8 -10 -11 -12 -13 -14 -15
leaf_value=0.037100481762182808 -0.026615212406491031 0.037290688977588568 -0.37156279118229441 -0.18741081280153321 0.033952378769726545 -0.096273040182515618 0.028262531579533824 0.026459515746120349 0.0089706269665938802 -0.22015469571423452 -0.0088158755435288391 0.032694207446841872 0.04423743030507471 -0.076259932767032024
leaf_weight=84.027745708823204 21.84734402410686 436.84148284047842 239.23997808992863 436.82798392139375 1029.4060257151723 588.34034688211977 405.29643915779889 2737.0280230715871 1715.3356908224523 3.4032812584191552 70.286763098090887 573.57508382759988 1308.9557222798467 3.8305682819336644
leaf_count=5039 1337 27628 10136 18059 65241 34250 24538 170061 106584 169 4249 35344 82971 208
internal_value=5.82125e-05 -0.120121 -0.219886 -0.252629 0.0183378 -0.0170006 -0.0454732 0.026608 0.0197232 0.029164 0.0308901 0.0305055 0.0397135 0.0320201
internal_weight=9654.24 1274.46 763.926 676.068 8379.78 1589.06 993.637 6790.73 4452.36 510.532 507.128 595.422 2338.36 87.8583
internal_count=585814 65488 33442 28195 520326 95469 58788 424857 276645 32046 31877 36681 148212 5247
is_linear=0
shrinkage=0.05


Tree=2
num_leaves=15
num_cat=0
split_feature=5 20 24 11 5 24 24 7 12 10 17 24 2 17
split_gain=6802.38 4998.45 1480.92 949.488 905.322 749.663 1201.77 240.791 122.917 74.459 49.4686 27.93 24.512 17.6149
threshold=-0.96737359010257795 1.0000000180025095e-35 -1.0000000180025095e-35 0.10505746643703831 -0.67643718957081178 -1.0000000180025095e-35 1.0000000180025095e-35 2.4865850000000003 95490.479800634042 16.500000000000004 1.0463370356816883e-05 -47.510264999999997 0.97802771617609119 0.00015703928632326838
decision_type=2 2 2 2 2 2 2 2 2 2 2 2 2 2
left_child=1 2 13 -4 5 11 -7 12 -9 10 -3 -2 -6 -1
right_child=4 9 3 -5 7 6 -8 8 -10 -11 -12 -13 -14 -15
leaf_value=0.036088438874818295 -0.024634507063253194 0.036773800826492634 -0.14477192855173168 -0.25242733954945051 0.03336155213565651 -0.083152678013732953 0.027612927728433292 0.025805718569905847 0.008598354985672612 -0.18618663650641815 -0.0083029049771923911 0.032084134019906077 0.043914238669830741 -0.07862507744658323
leaf_weight=81.820984080433846 22.416481154039502 421.64508041739464 522.92693704552948 337.79101043380797 996.10823706071824 645.49973259493709 394.37274332996458 2667.8367601819336 1700.5138463843614 3.9006396140903226 70.888018488883972 555.71657340135425 1254.052637161687 3.3712332565337411
leaf_count=5076 1337 27640 17087 11108 65241 34250 24538 170061 106584 157 4249 35344 82971 171
internal_value=0.000218407 -0.0999444 -0.16737 -0.187052 0.0177601 -0.0157639 -0.0411413 0.0259565 0.0191087 0.0285276 0.0302756 0.0298724 0.0392467 0.0314035
internal_weight=9678.86 1442.34 945.91 860.718 8236.52 1618.01 1039.87 6618.51 4368.35 496.434 492.533 578.133 2250.16 85.1922
internal_count=585814 65488 33442 28195 520326 95469 58788 424857 276645 32046 31889 36681 148212 5247
is_linear=0
shrinkage=0.05


Tree=3
num_leaves=16
num_cat=0
split_feature=6 20 11 3 3 21 24 17 3 12 11 17 1 13 11
split_gain=5629.78 3289.83 1017.07 1010.47 983.831 954.268 786.73 507.129 283.248 196.105 163.114 57.6753 80.2309 44.053 42.6453
threshold=0.35297000000000006 1.0000000180025095e-35 0.10532746308564543 -0.78687843021896253 -0.9995714372064568 1.0000000180025095e-35 -1.0000000180025095e-35 -6.2801578435411884e-05 0.74533013246060797 94689.047395012094 0.10569372073900289 1.0463370356816883e-05 -0.99388175930858835 5.0239584261693078e-06 0.41929819964987364
decision_type=2 2 2 2 2 2 2 2 2 2 2 2 2 2 2
left_child=1 2 4 5 -1 6 -2 -4 10 -7 -5 14 -13 -10 -3
right_child=3 11 7 8 -6 9 -8 -9 13 -11 -12 12 -14 -15 -16
leaf_value=-0.22997764311687452 0.026424959024516616 0.038267603784002388 -0.11036416822822503 0.018448611439997511 -0.080351781039060932 -0.066859957376168663 -0.10954493613799135 -0.26134745548792576 0.027899388975438252 0.018844106863025678 -0.022507305236603065 0.0034457301901226938 -0.1604154028297079 0.041703007230357331 -0.027126997641934464
leaf_weight=136.40321252681315 143.84941814932972 324.87129588518292 76.066557911224663 4085.9690494779497 565.50316574051976 73.235589532181621 407.42080111335963 210.38073768652976 885.53876462671906 741.05981875676662 258.2958257496357 60.205067776143551 8.419555854983626 1686.0890254015103 26.840857479721308
leaf_count=3756 9260 22014 2369 262515 18540 3627 17790 5484 58913 44152 16194 3574 501 115388 1737
internal_value=0.000319532 -0.0920814 -0.141908 0.0160386 -0.109465 -0.0232632 -0.0740573 -0.221324 0.0237998 0.0111227 0.0160119 0.025072 -0.0167898 0.036953 0.0332565
internal_weight=9690.15 1408.69 988.354 8281.46 701.906 1365.57 551.27 286.447 6915.89 814.295 4344.26 420.337 68.6246 2571.63 351.712
internal_count=585814 57975 30149 527839 22296 74829 27050 7853 453010 47779 278709 27826 4075 174301 23751
is_linear=0
shrinkage=0.05


Tree=4
num_leaves=15
num_cat=0
split_feature=3 20 22 17 8 17 11 7 10 12 10 17 2 17
split_gain=4784.61 2822.78 1192.34 623.745 558.355 518.589 773.031 229.322 135.813 123.477 79.4433 67.276 25.2053 13.5117
threshold=-0.93570925887101042 1.0000000180025095e-35 -1.0000000180025095e-35 -1.0482564874791931e-05 0.16583558527127432 -1.0000000180025095e-35 0.10557989759044163 2.4865850000000003 17.500000000000004 95490.479800634042 10.500000000000002 1.0463370356816883e-05 0.97802771617609119 0.0001370895891179558
decision_type=2 2 2 2 2 2 2 2 2 2 2 2 2 2
left_child=1 2 13 -4 5 10 -7 12 11 -9 -2 -3 -6 -1
right_child=4 8 3 -5 7 6 -8 9 -10 -11 -12 -13 -14 -15
leaf_value=0.040442531913773283 0.027460318218650488 0.033127269729406765 -0.07517696947458602 -0.14732133884843357 0.032164349969356486 -0.021472061048754685 -0.19387569238548269 0.024923881744046559 -0.23330877364920882 0.0073457516310404501 -0.065011450682770755 -0.013947343461767337 0.043256382272940132 -0.033053470210063614
leaf_weight=125.58578885905445 598.60094118025154 496.54586841072887 473.60540696047246 818.86060861311853 934.57818322721869 707.42349157761782 71.520247237756848 2541.6390539733693 4.9931004587560883 1647.7715555485338 24.040651082992554 89.367394927889109 1154.1830606618896 6.4332495145499697
leaf_count=7708 36633 33743 14211 19986 65240 39968 3308 168877 199 106092 1292 5280 82971 306
internal_value=0.000397451 -0.0681663 -0.106277 -0.120897 0.0183919 -0.0101387 -0.0373309 0.0247621 0.0236993 0.0180116 0.023872 0.0259374 0.0382976 0.0368009
internal_weight=9695.15 2015.39 1424.49 1292.47 7679.76 1401.59 778.944 6278.17 590.906 4189.41 622.642 585.913 2088.76 132.019
internal_count=585814 81433 42211 34197 504381 81201 43276 423180 39222 274969 37925 39023 148211 8014
is_linear=0
shrinkage=0.05


Tree=5
num_leaves=16
num_cat=0
split_feature=3 20 24 24 3 12 6 12 11 17 1 13 0 17 23
split_gain=4122.84 2344.78 1598.75 1217.6 314.719 189.2 405.343 202.35 95.8805 169.909 45.3736 43.6299 65.9856 26.7303 23.0938
threshold=-0.82211037829222477 1.0000000180025095e-35 -1.0000000180025095e-35 1.0000000180025095e-35 0.74533013246060797 94629.999999650085 3.0207800000000007 95532.121221138033 0.10559885108744409 0.00017930408968780401 -0.99994478418329968 5.0239584261693078e-06 0.95341341091857179 1.0463370356816883e-05 -0.94502468962772557
decision_type=2 2 2 2 2 2 2 2 2 2 2 2 2 2 2
left_child=1 2 10 -4 5 6 -2 -7 13 -10 -1 12 -6 -3 -13
right_child=4 8 3 -5 11 7 -8 -9 9 -11 -12 14 -14 -15 -16
leaf_value=-0.11929572605331712 -0.24544507765942952 0.036271017270317972 -0.10683149955929533 0.040407580028076533 0.030646800709376993 0.022922244560796709 -0.0061411184570695828 -0.00079514760622547516 0.0004902782140459868 -0.24280156681829446 0.03722195236049948 -0.094783332097129927 -0.030377718173347543 0.0084716451202581488 0.041673566817326195
leaf_weight=4.6008804915472856 21.149917498230934 532.43681779690087 1660.9940606374294 153.27244464121759 794.38364934735 2963.6640478530899 106.11269876267761 1290.4779000356793 171.70034093316644 7.3875528182834378 272.36064942833036 2.9936870504170647 46.753680726513267 103.90661855693907 1558.4282411811873
leaf_count=276 1117 36916 43955 7531 55681 197531 6754 82707 10472 383 17349 221 3311 6202 115344
internal_value=0.000557462 -0.0492648 -0.0773069 -0.0943882 0.0219055 0.0139283 -0.0461121 0.0157266 0.0226454 -0.00964775 0.0345617 0.0364497 0.0272457 0.0317416 0.0414027
internal_weight=9690.62 2906.66 2091.23 1814.27 6783.96 4381.4 127.263 4254.14 815.431 179.088 276.962 2402.56 841.137 636.343 1561.42
internal_count=585750 123084 69111 51486 462666 288109 7871 280238 53973 10855 17625 174557 58992 43118 115565
is_linear=0
shrinkage=0.05


Tree=6
num_leaves=16
num_cat=0
split_feature=3 20 22 22 3 12 6 12 11 17 13 0 1 17 15
split_gain=3616.67 1917.27 1271.36 934.553 305.179 166.572 270.587 189.656 90.2785 119.401 43.7211 61.2277 30.1476 26.534 21.4772
threshold=-0.82211037829222477 1.0000000180025095e-35 -1.0000000180025095e-35 1.0000000180025095e-35 0.74533013246060797 94629.999999650085 3.0207800000000007 95532.121221138033 0.10559885108744409 0.00017930408968780401 5.0239584261693078e-06 0.95341341091857179 -0.99995391658532617 -5.2365616748595294e-05 0.00011582727028702779
decision_type=2 2 2 2 2 2 2 2 2 2 2 2 2 2 2
left_child=1 2 12 -4 5 6 -2 -7 13 -10 11 -6 -1 -3 -12
right_child=4 8 3 -5 10 7 -8 -9 9 -11 14 -13 -14 -15 -16
leaf_value=-0.11372065113128699 -0.18347668945723658 0.040020405088764283 -0.091695026078208952 0.038137911927495959 0.030017624350610742 0.022278521621317333 -0.0057989096181991807 -0.00075479547625097317 0.00046600421164806296 -0.18239340737187426 0.04215178369689742 -0.028003082151683609 0.037222730598958524 0.018974722358995694 0.0099362350843234526
leaf_weight=3.2405312191694966 26.732541207224131 355.86757526360452 1833.2325953273103 149.82893194165081 771.08212899323553 2898.517019382678 106.74512023665011 1291.471667102538 171.61914558894932 9.3139366097748262 1445.6197916651145 48.153141266666353 258.72281390987337 261.20345907192677 54.154421966522932
leaf_count=180 1117 25518 44126 7458 55681 197531 6754 82707 10472 383 111418 3311 17347 17600 4147
internal_value=0.000596006 -0.044544 -0.0682057 -0.0818816 0.0212765 0.0134251 -0.0415319 0.015178 0.0220173 -0.00901503 0.035911 0.0265982 0.0352938 0.0311245 0.0409926
internal_weight=9685.5 3043.03 2245.02 1983.06 6642.48 4323.47 133.478 4189.99 798.004 180.933 2319.01 819.235 261.963 617.071 1499.77
internal_count=585750 123084 69111 51584 462666 288109 7871 280238 53973 10855 174557 58992 17527 43118 115565
is_linear=0
shrinkage=0.05


Tree=7
num_leaves=16
num_cat=0
split_feature=3 20 22 22 3 4 20 6 11 17 13 0 11 1 16
split_gain=3188.98 1589.7 1033.49 746.58 295.504 153.998 258.508 145.605 85.0136 89.3358 43.75 56.875 26.9306 26.2709 21.85
threshold=-0.82211037829222477 1.0000000180025095e-35 -1.0000000180025095e-35 1.0000000180025095e-35 0.74533013246060797 536870911.37500006 1.1763980368442796e-06 0.7958900000000001 0.10559885108744409 0.00017930408968780401 5.0239584261693078e-06 0.95341341091857179 0.10471752448059213 -0.99995391658532617 0.00013117541058527141
decision_type=2 2 2 2 2 2 2 2 2 2 2 2 2 2 2
left_child=1 2 13 -4 5 7 -7 -2 12 -10 11 -6 -3 -1 -12
right_child=4 8 3 -5 10 6 -8 -9 9 -11 14 -13 -14 -15 -16
leaf_value=-0.097028784656377279 -0.19475319727001195 0.015375514826996931 -0.080060007277836132 0.037609068543794637 0.029383703056433411 -0.22272636185672742 0.023011630489365623 0.014314062993055385 0.00044292230228021963 -0.14550072541542891 0.042226745485114757 -0.025875629469100388 0.037970195536859805 0.036695864602148978 0.017510890169038004
leaf_weight=3.6145352851599446 8.2417990202084166 198.23812768701464 1990.244164576754 144.47685173433274 748.90280210133642 18.352376965805888 25.365514306351542 4216.1183956796303 171.54200430307537 11.063765054568647 1344.3254511924461 49.479105347767472 400.49316417332739 249.55096813756973 96.764845833182335
leaf_count=180 476 14346 44126 7458 55681 1033 1505 285095 10472 383 107922 3311 28772 17347 7643
internal_value=0.000621409 -0.0405077 -0.0607641 -0.0720925 0.0206527 0.0129324 -0.0803057 0.0139004 0.0213924 -0.00844698 0.0353628 0.02595 0.0305013 0.0347293 0.040572
internal_weight=9676.77 3169.22 2387.89 2134.72 6507.55 4268.08 43.7179 4224.36 781.337 182.606 2239.47 798.382 598.731 253.166 1441.09
internal_count=585750 123084 69111 51584 462666 288109 2538 285571 53973 10855 174557 58992 43118 17527 115565
is_linear=0
shrinkage=0.05


Tree=8
num_leaves=16
num_cat=0
split_feature=8 20 24 24 3 6 0 12 11 17 25 1 0 12 11
split_gain=2835.42 1278.9 952.912 684.674 261.746 142.127 489.385 152.071 95.9622 111.49 72.013 50.0062 43.7993 50.9648 18.4847
threshold=0.10557506880709097 1.0000000180025095e-35 -1.0000000180025095e-35 1.0000000180025095e-35 0.74533013246060797 2.1267650000000002 0.42842087661402145 95490.479800634042 0.10567361647112651 0.0001049684177427679 -3.8842584138503686e-06 -0.99995391658532617 0.97038303484677535 95477.351292181396 1.362890640171238
decision_type=2 2 2 2 2 2 2 2 2 2 2 2 2 2 2
left_child=1 2 11 -4 5 6 -2 -7 10 -10 -3 -1 13 -6 -14
right_child=4 8 3 -5 12 7 -8 -9 9 -11 -12 -13 14 -15 -16
leaf_value=-0.13704467838105838 -0.021438230296816962 0.029233333078153928 -0.070770072611826537 0.035626863022399417 0.036654696682137694 0.022952025770953052 -0.60032742686168739 0.0028672666913321428 8.3296843605450534e-05 -0.12843258472716107 -0.20336143201748827 0.035571838353025735 0.041472498733698293 0.012777687328292342 -0.024517876647628889
leaf_weight=4.1509549971669903 124.99811498261988 633.50142344273627 2173.7846761252731 162.38431073445827 525.3406672263518 2370.7430405840278 3.6623353315517297 1565.3206174038351 157.54461176972836 18.789857428520918 3.2415557857602826 283.73129463661462 1237.277737529017 390.57781734410673 10.547154199331997
leaf_count=189 7609 46481 45752 8973 40812 168199 221 103247 9666 700 192 19964 103516 29363 866
internal_value=0.000637616 -0.0358162 -0.0527936 -0.0633712 0.0207554 0.0132745 -0.0384087 0.0149661 0.0189685 -0.0136478 0.0280096 0.0330188 0.0348052 0.0264807 0.0409088
internal_weight=9665.6 3437.13 2624.05 2336.17 6228.47 4064.72 128.66 3936.06 813.077 176.334 636.743 287.882 2163.74 915.918 1247.82
internal_count=585750 131917 74878 54725 453833 279276 7830 271446 57039 10366 46673 20153 174557 70175 104382
is_linear=0
shrinkage=0.05


Tree=9
num_leaves=15
num_cat=0
split_feature=8 24 17 24 3 3 4 11 17 14 0 12 1 11
split_gain=2523.46 1104.1 988.2 573.107 371.415 252.976 135.775 205.019 134.868 50.8372 43.7831 49.6261 24.3272 17.6935
threshold=0.10557506880709097 -1.0000000180025095e-35 -1.0000000180025095e-35 1.0000000180025095e-35 -0.99946543071214344 0.74533013246060797 536870911.37500006 1.5734155757573729 -1.0000000180025095e-35 -0.0002038970753011071 0.97038303484677535 95477.351292181396 -0.6597250432827626 1.362890640171238
decision_type=2 2 2 2 2 2 2 2 2 2 2 2 2 2
left_child=1 9 4 -4 -3 6 8 -8 -2 -1 11 -7 -11 -12
right_child=5 2 3 -5 -6 10 7 -9 -10 12 13 -13 -14 -15
leaf_value=-0.14661134895164241 0.028244139521999535 -0.06537825074347027 -0.079982757790606485 0.028898176372743042 0.00028884119865320908 0.036121676846479309 -0.039851035358237648 -0.41658729751058243 0.007904878944069469 0.032495921779335094 0.041069961992092827 0.012294808005658745 -0.038286132124126765 -0.022743799644462936
leaf_weight=3.9505100352689615 1147.018348718062 270.60128185804933 1507.109173765406 131.27262124419212 1051.9744944255799 506.90984643064439 42.831610450521111 3.8532852176576844 2819.8355584749952 570.58507677447051 1188.1828686119989 385.75150014646351 12.258321535773574 10.80231826007366
leaf_count=253 80202 7754 29437 7313 44648 40812 2334 168 196572 41636 103516 29363 876 866
internal_value=0.000650073 -0.0328848 -0.0453025 -0.0712546 -0.0131469 0.0201384 0.0127884 -0.071877 0.0137878 0.0297634 0.0342383 0.0258333 0.0309923 0.040489
internal_weight=9652.94 3547.75 2960.96 1638.38 1322.58 6105.19 4013.54 46.6849 3966.85 586.794 2091.65 892.661 582.843 1198.99
internal_count=585750 131917 89152 36750 52402 453833 279276 2502 276774 42765 174557 70175 42512 104382
is_linear=0
shrinkage=0.05


Tree=10
num_leaves=16
num_cat=0
split_feature=8 20 24 24 2 11 3 17 11 16 2 12 6 1 9
split_gain=2258.66 998.959 684.512 489.339 233.058 112.774 162.573 115.049 84.9816 225.603 77.7287 29.8974 81.9539 19.0842 14.7771
threshold=0.10557506880709097 1.0000000180025095e-35 -1.0000000180025095e-35 1.0000000180025095e-35 0.93570320131003448 0.73279246272617449 -0.45144831880368314 -1.0000000180025095e-35 0.10559885108744409 0.00019481425653200549 -0.71264010486190876 95523.000301629087 18.290230000000005 -0.99995391658532617 9.8992500000000003
decision_type=2 2 2 2 2 2 2 2 2 2 2 2 2 2 2
left_child=1 2 13 -4 5 7 -7 -2 10 -10 -3 14 -13 -1 -6
right_child=4 8 3 -5 11 6 -8 -9 9 -11 -12 12 -14 -15 -16
leaf_value=-0.069189763847462712 0.02887371739411226 0.030838954973210781 -0.057337632784927373 0.033977331406920996 -0.013761889496672973 -0.12262808751614118 0.0080428302436031367 0.010665835516855878 -0.0013238860432654173 -0.37725834569610428 -0.11809610673287872 -0.17188619040239059 0.028441332716869466 0.033676584137363734 0.042702423113433877
leaf_weight=4.4657167252153149 1179.2635050490499 592.45895905606449 2432.4358738623559 155.99477256275713 11.544258009642361 36.144359110854566 69.126868203282356 3289.1568238986656 194.85097278282046 3.9749260190874329 8.7824398661032301 5.0676470370963207 393.07391501963139 264.70375132095069 1004.6086195977405
leaf_count=184 85628 45181 45844 9074 914 1850 4626 236632 11313 103 589 399 34149 19873 89618
internal_value=0.000843793 -0.0301129 -0.0439393 -0.0518314 0.0197542 0.0142666 -0.0368487 0.0154727 0.0192641 -0.00905057 0.0286358 0.0374948 0.0258364 0.0319263 0.0420547
internal_weight=9645.65 3657.67 2857.6 2588.43 5987.99 4573.69 105.271 4468.42 800.067 198.826 601.241 1414.29 398.142 269.169 1016.15
internal_count=585977 132161 74975 54918 453816 328736 6476 322260 57186 11416 45770 125080 34548 20057 90532
is_linear=0
shrinkage=0.05


Tree=11
num_leaves=16
num_cat=0
split_feature=8 20 24 24 3 12 10 6 12 8 25 11 11 2 1
split_gain=2020.65 859.172 584.368 413.754 226.639 116.73 210.086 147.236 80.3445 236.025 51.4596 20.7308 80.5764 20.7678 17.8945
threshold=0.10557506880709097 1.0000000180025095e-35 -1.0000000180025095e-35 1.0000000180025095e-35 0.87703667037855826 95490.479800634042 27.500000000000004 3.0207800000000007 94656.000189891813 0.087984557298818253 -3.8842584138503686e-06 0.10468682935286773 0.10462877710171677 0.91631858929125765 -0.99993333255099992
decision_type=2 2 2 2 2 2 2 2 2 2 2 2 2 2 2
left_child=1 2 14 -4 5 7 -7 -2 9 -3 -10 12 -6 -13 -1
right_child=4 8 3 -5 11 6 -8 -9 10 -11 -12 13 -14 -15 -16
leaf_value=-0.041808140807501122 -0.019549000798731987 -0.008015791677738705 -0.051764422632110313 0.033378417307503822 0.04217306581865992 0.0046710421652277571 -0.28626158056834922 0.023655876898020428 0.024503028478801449 -0.37808162594897538 -0.14261510313481113 0.01809694482535408 -0.0080761100688810736 0.042308026823917828 0.033652288546400115
leaf_weight=7.9678341615945092 214.19226473942399 59.033546674996614 2556.2144432626665 150.9841008996591 250.90923720505089 1770.9652742426842 6.1265393914654842 2457.3695736620575 717.34387530945241 4.5512754432857028 4.5296377316117278 98.640379558317363 116.68526521977037 959.70507623255253 252.97509581316262
leaf_count=400 13570 3058 45844 9074 22321 122330 346 187018 53776 150 202 8337 10385 89509 19657
internal_value=0.000836026 -0.0278185 -0.0401244 -0.047013 0.019146 0.0135835 0.00364918 0.0201895 0.0186768 -0.035135 0.0234279 0.0364941 0.026211 0.0400581 0.0313138
internal_weight=9628.19 3753.6 2968.14 2707.2 5874.59 4448.65 1777.09 2671.56 785.458 63.5848 721.874 1425.94 367.595 1058.35 260.943
internal_count=585977 132161 74975 54918 453816 323264 122676 200588 57186 3208 53978 130552 32706 97846 20057
is_linear=0
shrinkage=0.05


Tree=12
num_leaves=16
num_cat=0
split_feature=8 20 22 22 2 12 10 6 11 16 2 12 6 1 9
split_gain=1811.15 742.98 503.198 346.768 219.571 104.506 144.732 135.59 77.2841 131.773 66.3704 30.0349 65.9651 17.7312 14.6552
threshold=0.10557506880709097 1.0000000180025095e-35 -1.0000000180025095e-35 1.0000000180025095e-35 0.93570320131003448 95490.479800634042 27.500000000000004 3.0207800000000007 0.10559885108744409 0.00019481425653200549 -0.71264010486190876 95523.000301629087 18.290230000000005 -0.99996226389285592 9.8992500000000003
decision_type=2 2 2 2 2 2 2 2 2 2 2 2 2 2 2
left_child=1 2 13 -4 5 7 -7 -2 10 -10 -3 14 -13 -1 -6
right_child=4 8 3 -5 11 6 -8 -9 9 -11 -12 12 -14 -15 -16
leaf_value=-0.094766243507290807 -0.018216423514722462 0.029719714063572392 -0.046889354010912779 0.031890344498363817 -0.014642333150784012 0.0048553229957533335 -0.20631317631389898 0.022897223484779374 -0.0014985785362975198 -0.24024687949160031 -0.10091929335166455 -0.1389654987772122 0.027226517132777118 0.032893072034356124 0.041990376630902819
leaf_weight=2.6369593366980544 218.2662652656436 561.78680789005011 2676.4724025130272 147.2328201783821 11.388634683564304 1781.5943239172921 8.0505013745278102 2442.1961440155283 194.1131780995056 5.8584642037749282 9.7813976872712356 5.9609652459621421 373.11603927705437 245.40624747332186 926.20073597785085
leaf_count=99 13570 45181 46035 9013 914 124164 346 190656 11313 103 589 399 34149 19828 89618
internal_value=0.000825779 -0.0257621 -0.0367802 -0.0427789 0.0185464 0.0132372 0.00389114 0.0195218 0.018097 -0.00863464 0.027458 0.0364845 0.024564 0.0314781 0.0412957
internal_weight=9610.06 3843.29 3071.75 2823.71 5766.77 4450.11 1789.64 2660.46 771.54 199.972 571.568 1316.67 379.077 248.043 937.589
internal_count=585977 132161 74975 55048 453816 328736 124510 204226 57186 11416 45770 125080 34548 19927 90532
is_linear=0
shrinkage=0.05


Tree=13
num_leaves=16
num_cat=0
split_feature=8 17 24 11 3 3 20 12 12 12 25 22 21 19 0
split_gain=1626.01 651.12 427.558 315.952 263.527 213.029 198.145 163.338 102.541 140.494 137.928 21.1546 28.1786 20.3887 12.5827
threshold=0.10557506880709097 -1.0000000180025095e-35 -1.0000000180025095e-35 0.20977223979641665 -0.99946543071214344 0.87703667037855826 1.0000000180025095e-35 94656.000189891813 95490.479800634042 95196.033287648854 -2.5269136991843313e-05 -0.0009845546836688699 4.4403239081770701e-06 2.6931674519819468e-05 0.99991428030633611
decision_type=2 2 2 2 2 2 2 2 2 2 2 2 2 2 2
left_child=1 4 13 -4 6 8 -1 -6 9 -2 -10 12 -7 -3 -13
right_child=5 2 3 -5 7 11 -8 -9 10 -11 -12 14 -14 -15 -16
leaf_value=-0.060963214266425016 0.0019070038459094664 0.023959169335991112 -0.043267803368076056 -0.11188900916271216 -0.049181979214808685 -0.0079862908538303381 0.029491588655429529 0.013798386531949423 -0.12631011349546117 0.026974934471584579 0.0048019562313727174 0.034420920442519064 0.033655901962218855 -0.036487402775345561 0.045829856371975231
leaf_weight=264.14610271155834 822.60818489734083 230.01758082583547 1766.2348348945379 185.43774566426873 111.8560853106901 61.378318666480482 78.386890666559339 1276.2962855221704 20.190483790822327 1746.6997822728008 1743.6067523993552 795.22321572061628 118.88503745477647 14.700478245504199 355.41992371529341
leaf_count=3645 62000 17745 34303 2539 3777 5540 6409 62887 1126 138588 121550 77506 11157 856 36349
internal_value=0.00081184 -0.0239117 -0.0419836 -0.0497958 -0.000972738 0.0179546 -0.0402459 0.00871671 0.0125782 0.0189513 0.00329118 0.0354527 0.0194528 0.0202942 0.037953
internal_weight=9591.09 3927.08 2196.39 1951.67 1730.69 5664.01 342.533 1388.15 4333.11 2569.31 1763.8 1330.91 180.263 244.718 1150.64
internal_count=585977 132161 55443 36842 76718 453816 10054 66664 323264 200588 122676 130552 16697 18601 113855
is_linear=0
shrinkage=0.05


Tree=14
num_leaves=15
num_cat=0
split_feature=5 24 17 24 3 2 6 0 12 12 12 14 12 9
split_gain=1465.89 680.785 554.527 358.628 222.255 186.889 98.1054 208.358 95.2116 30.8206 65.1151 22.922 19.8833 14.4462
threshold=-0.72588122983836234 -1.0000000180025095e-35 -1.0000000180025095e-35 0.0016350000000020517 -0.99946543071214344 0.93570320131003448 2.1267650000000002 0.42842087661402145 95490.479800634042 95523.000301629087 95524.980282843535 -0.0002038970753011071 95366.429742137712 9.8992500000000003
decision_type=2 2 2 2 2 2 2 2 2 2 2 2 2 2
left_child=1 11 4 -4 -3 6 7 -2 -8 13 -11 -1 -13 -7
right_child=5 2 3 -5 -6 9 8 -9 -10 10 -12 12 -14 -15
leaf_value=-0.078712231766667418 -0.016872052265202532 -0.042632608010034934 -0.051388803942034517 0.028007903623912728 0.0038536505695345811 -0.015214804328786156 0.020785820364265645 -0.30572788265811268 0.0051265903924423003 -0.21676616464367104 0.024966608160068449 0.039327973302131863 0.020923667639425519 0.041278913437351968
leaf_weight=4.909838809631764 70.727530963718891 327.56024156417698 1977.4924613432959 153.10190755594522 1193.743535829708 11.289555339142678 2335.264589346014 6.75508287269622 1663.0431187078357 2.7046732744202009 356.14913456048816 250.61920851189643 360.15394698642194 858.58930949121714
leaf_count=286 4312 7767 32803 9567 49518 914 189967 229 117195 212 34336 19688 29565 89618
internal_value=0.000797825 -0.0210161 -0.0292165 -0.0456801 -0.00615442 0.0183485 0.0131929 -0.0424811 0.0142741 0.0354433 0.0230709 0.0276133 0.0284889 0.0405383
internal_weight=9572.1 4267.58 3651.9 2130.59 1521.3 5304.52 4075.79 77.4826 3998.31 1228.73 358.854 615.683 610.773 869.879
internal_count=585977 149194 99655 42370 57285 436783 311703 4541 307162 125080 34548 49539 49253 90532
is_linear=0
shrinkage=0.05


Tree=15
num_leaves=16
num_cat=0
split_feature=8 24 17 24 3 7 4 12 17 0 17 12 12 18 7
split_gain=1323.88 654.011 516.401 342.446 191.087 177.71 89.3318 136.951 90.4991 25.3182 24.8931 33.0315 24.7663 21.6501 6.10788
threshold=0.14628159851888214 -1.0000000180025095e-35 -1.0000000180025095e-35 1.0000000180025095e-35 -0.99946543071214344 2.4865850000000003 536870911.37500006 95630.000052594245 -1.046369881319009e-05 0.99993602811648152 0.0001370895891179558 94689.047395012094 95513.753631743792 6.3270020788231863e-05 1.0601200000000002
decision_type=2 2 2 2 2 2 2 2 2 2 2 2 2 2 2
left_child=1 10 4 -4 -3 9 8 -8 -7 12 13 -12 -2 -1 -11
right_child=5 2 3 -5 -6 6 7 -9 -10 14 11 -13 -14 -15 -16
leaf_value=0.032129492015967168 0.034317097563605424 -0.038257841225764019 -0.048165540567507908 0.026985535920153708 0.0044015937550056341 0.026709985414189497 -0.012123814737442444 -0.22620527658255463 0.0085151213416985155 0.047914170485369965 -0.10481512323873717 0.010929049243882159 0.018296077793351139 -0.040587421116716746 0.023792934527013091
leaf_weight=567.94097788445652 788.15266709215939 335.96415785327554 2061.6874629873782 163.46607687976211 1198.7013740688562 910.36864872369915 34.76194288674742 9.4405018184334022 2747.5739121837541 278.94189162179828 7.2120137466117731 38.961167094297707 350.58076351694763 10.281978433951734 30.263709903694689
leaf_count=47843 80917 7720 32925 10536 50404 71708 1950 410 210181 31002 206 2686 33243 666 3283
internal_value=0.000810232 -0.0193824 -0.0272529 -0.0426415 -0.0049359 0.0180011 0.0121898 -0.0583663 0.0130453 0.0328542 0.0279985 -0.00722899 0.0293912 0.030821 0.0455779
internal_weight=9534.3 4384.22 3759.82 2225.15 1534.67 5150.08 3702.15 44.2024 3657.94 1447.94 624.396 46.1732 1138.73 578.223 309.206
internal_count=585680 152986 101585 43461 58124 432694 284249 2360 281889 148445 51401 2892 114160 48509 34285
is_linear=0
shrinkage=0.05


Tree=16
num_leaves=16
num_cat=0
split_feature=8 24 24 17 7 17 25 12 3 23 9 17 12 12 14
split_gain=1195.3 581.844 445.491 379.873 170.912 81.8851 166.081 123.897 25.7104 29.7082 27.4209 23.6101 27.1678 22.3474 21.278
threshold=0.14628159851888214 -1.0000000180025095e-35 1.0000000180025095e-35 -4.2323116461240311e-05 2.4865850000000003 -1.0000000180025095e-35 -2.4547506908122618e-05 95780.1839661665 0.99127588743378026 -0.52745681100862718 138.35355000000004 0.0001370895891179558 94689.047395012094 95494.502427881831 -0.0002038970753011071
decision_type=2 2 2 2 2 2 2 2 2 2 2 2 2 2 2
left_child=1 11 3 -3 8 7 -7 -6 10 -10 -2 13 -13 -1 -4
right_child=4 2 14 -5 5 6 -8 -9 9 -11 -12 12 -14 -15 -16
leaf_value=0.037860504705098712 0.028665855489870187 -0.0027449199683348786 -0.075460579583721848 -0.040733846473914363 0.025877371153866714 -0.097904466944197133 0.0088060576188338877 -0.227233672299608 -0.14742891456743518 0.044446860451844691 -0.095485957632012397 -0.090544929362200266 0.010496843066994357 0.017126934123368243 0.026708030369820637
leaf_weight=353.38614393956959 1019.0711436299607 884.93700725864619 5.0457887006923547 2570.0993315679953 924.10721082799137 36.856621315702796 2692.9928699731827 4.7572918264195314 1.9214390888810147 376.77508443035185 4.3537592105567446 7.9265893828123799 38.551907940767705 207.72296863980591 384.99817709997296
leaf_count=30701 104453 28357 344 44170 73922 2396 207587 344 208 43309 475 206 2686 17808 28714
internal_value=0.000792823 -0.0181011 -0.0252866 -0.0310056 0.0174173 0.0117264 0.00735996 0.0245513 0.0322617 0.0434215 0.0281235 0.0273603 -0.00678519 0.0301983 0.0253545
internal_weight=9513.5 4452.67 3845.08 3455.04 5060.84 3658.71 2729.85 928.865 1402.12 378.697 1023.42 607.588 46.4785 561.109 390.044
internal_count=585680 152986 101585 72527 432694 284249 209983 74266 148445 43517 104928 51401 2892 48509 29058
is_linear=0
shrinkage=0.05


Tree=17
num_leaves=16
num_cat=0
split_feature=8 16 22 22 7 12 4 6 11 7 11 24 0 12 7
split_gain=1080.02 520.065 386.021 280.498 164.098 81.0581 115.916 74.2055 43.0808 59.8671 57.9127 30.2696 26.017 25.2305 6.36403
threshold=0.14628159851888214 -1.0000000180025095e-35 -1.0000000180025095e-35 1.0000000180025095e-35 2.4865850000000003 95683.303096814649 536870911.37500006 3.0207800000000007 0.10567361647112651 18.368530000000003 0.10468463753231062 -58.306679999999993 0.99993602811648152 94821.968584772956 1.0601200000000002
decision_type=2 2 2 2 2 2 2 2 2 2 2 2 2 2 2
left_child=1 8 11 -4 12 7 -7 -6 10 -10 -1 -3 13 -2 -14
right_child=4 2 3 -5 5 6 -8 -9 9 -11 -12 -13 14 -15 -16
leaf_value=0.0020839918235359945 0.048849510536047441 -0.057165960615717763 -0.033002816534965319 0.02872736995199451 -0.023254313124300256 -0.0084042226942215859 -0.22992916356933826 0.015157762634561721 -0.059883119971880554 0.014030494807222058 0.038165659453039819 0.028561068919933642 0.047650422366217006 0.025228339548483792 0.02238041677613024
leaf_weight=153.57033437117934 129.15057451464236 10.495502453297375 3238.4328622333705 194.94958225917071 130.75136463250965 319.49939634557813 5.9193898458033791 3161.3675740426406 33.671423297375441 145.00306129548699 406.04749468993396 335.14589000213891 256.19319866877049 944.40259202476591 28.761240769177675
leaf_count=12855 14060 634 51882 13680 8647 22645 176 252781 1794 8800 34736 28605 31002 100100 3283
internal_value=0.000774203 -0.0169253 -0.0244245 -0.0294955 0.016843 0.0112761 -0.0125185 0.01363 0.0214516 4.77113e-05 0.0282752 0.0259277 0.0316614 0.028079 0.0451261
internal_weight=9493.36 4517.32 3779.02 3433.38 4976.05 3617.54 325.419 3292.12 738.292 178.674 559.618 345.641 1358.51 1073.55 284.954
internal_count=585680 152986 94801 65562 432694 284249 22821 261428 58185 10594 47591 29239 148445 114160 34285
is_linear=0
shrinkage=0.05


Tree=18
num_leaves=16
num_cat=0
split_feature=8 16 22 4 2 12 17 25 11 11 12 12 12 24 25
split_gain=977.519 470.836 362.002 308.17 150.849 85.7833 111.223 78.5542 44.9011 50.2632 37.2553 30.4706 77.6635 24.7265 19.1233
threshold=0.16583558527127432 -1.0000000180025095e-35 -1.0000000180025095e-35 238609293.38888893 0.93570320131003448 95490.479800634042 0.00020039129103821554 -2.5269136991843313e-05 0.41929819964987364 0.10468463753231062 95349.999994254016 95523.000301629087 95578.864045280352 -58.306679999999993 8.3661523528501472e-05
decision_type=2 2 2 2 2 2 2 2 2 2 2 2 2 2 2
left_child=1 8 13 -4 5 6 -2 -7 9 -1 -10 14 -13 -3 -6
right_child=4 2 3 -5 11 7 -8 -9 10 -11 -12 12 -14 -15 -16
leaf_value=0.00045742629823508282 0.020812541309824586 -0.046766779354863917 -0.024418582921469742 -0.10575027845266788 0.039385054736165818 -0.10887012061448352 -0.035431065186375198 0.0040508409868791175 -0.042403794157803973 0.03260705286825117 0.027188127505522647 -0.013459651914143883 0.037986462809676588 0.026941155478772256 -0.044267811022262155
leaf_weight=159.54673280473799 2043.275548341684 11.612073505297301 3466.4150639679283 120.47402263712138 752.27521103061736 15.456257957033811 91.699626733548939 1525.1060168361291 48.014686557464302 515.03245632909238 31.864887562580407 111.6604612544179 212.87902841810137 360.92620517686009 6.7599874567240468
leaf_count=13326 177567 666 67326 2568 89828 721 7742 112205 2634 42676 1883 11389 23217 31220 712
internal_value=0.000754681 -0.0153831 -0.0222815 -0.0271546 0.0167401 0.0119041 0.0183929 0.00290768 0.0208119 0.0250119 -0.014581 0.033137 0.0202719 0.0246183 0.0386277
internal_weight=9473 4713.89 3959.43 3586.89 4759.11 3675.54 2134.98 1540.56 754.459 674.579 79.8796 1083.57 324.539 372.538 759.035
internal_count=585680 162299 101780 69894 423381 298235 185309 112926 60519 56002 4517 125146 34606 31886 90540
is_linear=0
shrinkage=0.05


Tree=19
num_leaves=16
num_cat=0
split_feature=6 24 24 17 12 9 1 4 16 1 7 11 12 15 17
split_gain=894.563 523.173 470.019 346.051 157.969 100.964 111.456 93.563 74.5244 329.735 62.6568 33.112 28.8768 44.8503 41.6255
threshold=6.281785000000002 -1.0000000180025095e-35 1.0000000180025095e-35 -1.0000000180025095e-35 95490.479800634042 -21.036194999999996 -0.70409046191984415 0.75171232876712335 0.00014148199796348851 -0.73242587476549303 0.67035000000000022 0.10471752448059213 95490.479800634042 -0.00019852050052815426 0.00018880392768760859
decision_type=2 2 2 2 2 2 2 2 2 2 2 2 2 2 2
left_child=1 12 3 -3 8 6 -6 -7 10 -10 -2 -4 14 -14 -1
right_child=4 2 11 -5 5 7 -8 -9 9 -11 -12 -13 13 -15 -16
leaf_value=0.035354742388001972 0.045203324886463725 -0.0069506231113736286 0.0061358771063739076 -0.038277632523230201 0.038466109466417125 -0.0045284281538473274 -0.071496596852489644 0.019202528255106006 -0.56571077836130568 -0.0024167674958357685 0.02348785212127456 0.032207755382929026 -0.16816922550959718 0.013773683274891466 -0.024448794474067809
leaf_weight=459.87381500285119 396.64882681239396 1407.3173538027331 186.27507681492716 2361.6521529480815 32.213132495060563 724.30161946965382 79.98923119995743 972.65287564555183 2.5770598463714114 88.667009054217488 2068.6330823483877 354.81092911027372 3.3246983187273136 285.03388327732682 30.892847370356321
leaf_count=41746 51095 42364 14091 38910 1906 54629 5313 85266 205 8853 186193 28874 230 24107 1898
internal_value=0.000735269 -0.0135087 -0.0203253 -0.0265821 0.0173408 0.00603052 -0.0398758 0.00907096 0.0253422 -0.0189829 0.0269855 0.0232442 0.0241919 0.011601 0.0315758
internal_weight=9454.86 5089.18 4310.06 3768.97 4365.68 1809.16 112.202 1696.95 2556.53 91.2441 2465.28 541.086 779.125 288.359 490.767
internal_count=585680 192220 124239 81274 393460 147114 7219 139895 246346 9058 237288 42965 67981 24337 43644
is_linear=0
shrinkage=0.05


Tree=20
num_leaves=16
num_cat=0
split_feature=8 16 11 9 17 2 12 7 12 13 16 12 23 20 11
split_gain=774.906 351.443 278.628 367.511 158.167 146.836 87.9089 90.3288 73.7243 62.3375 88.2678 52.7853 16.0421 20.8159 14.7053
threshold=0.16583558527127432 -1.0000000180025095e-35 0.10537407797974281 -64.331824999999995 0.00020039129103821554 0.97802771617609119 95490.479800634042 0.34462000000000009 95384.456329749533 -1.5757096622573232e-05 -0.00017978383704075893 95524.980282843535 -0.52745681100862718 2.4253363195559429e-05 1.362890640171238
decision_type=2 2 2 2 2 2 2 2 2 2 2 2 2 2 2
left_child=1 9 3 -3 -4 6 8 -8 -2 10 -1 -11 13 -7 -14
right_child=5 2 4 -5 -6 12 7 -9 -10 11 -12 -13 14 -15 -16
leaf_value=-0.12305238101997616 0.011668669876859356 -0.053716276498814046 -0.036153741649882609 -0.0035605119947204784 -0.13246793053621175 0.045741859281281758 -0.27433662255791497 0.0037869817112651063 0.030569485533123483 0.032611908442475933 0.0045405786200997025 0.00052266224824997886 0.038737687329107963 -0.17961456569049591 -0.028179311385101064
leaf_weight=17.099231532774866 1446.1761572211981 426.092837898992 1075.7826045090333 2555.6534258816391 44.349969131872058 2.0319900312460955 2.8240575883537522 1676.6525756986812 803.41639068489894 476.99666280671954 63.628327002748847 175.66140606533736 656.91510145226493 1.8558773132972417 8.1599783748388273
leaf_count=813 133552 8637 16947 75497 817 231 268 127805 74766 41429 3798 14485 84995 197 810
internal_value=0.000953183 -0.0130207 -0.0187211 -0.010731 -0.0399831 0.0156491 0.0119597 0.00330003 0.0184222 0.0188536 -0.0225423 0.0239842 0.0373055 -0.0623849 0.037905
internal_weight=9433.3 4835.26 4101.88 2981.75 1120.13 4598.03 3929.07 1679.48 2249.59 733.386 80.7276 652.658 668.963 3.88787 665.075
internal_count=585047 162423 101898 84134 17764 422624 336391 128073 208318 60525 4611 55914 86233 428 85805
is_linear=0
shrinkage=0.05


Tree=21
num_leaves=16
num_cat=0
split_feature=6 24 24 17 12 9 21 6 15 4 11 12 17 15 23
split_gain=710.593 418.083 387.393 268.644 142.71 97.6413 71.5572 68.7591 64.564 49.2494 37.5326 24.3335 36.3598 35.9823 22.6823
threshold=6.281785000000002 -1.0000000180025095e-35 0.0016350000000020517 -1.0482564874791931e-05 95490.479800634042 38.457290000000008 1.8276418211367483e-05 18.502930000000003 0.00013722344233979558 110127366.20512822 0.10471752448059213 95490.479800634042 0.0001370895891179558 -0.00019852050052815426 -0.20927507122799321
decision_type=2 2 2 2 2 2 2 2 2 2 2 2 2 2 2
left_child=1 11 3 -3 7 6 -6 8 -2 -9 -4 12 -1 -13 -7
right_child=4 2 10 -5 5 14 -8 9 -10 -11 -12 13 -14 -15 -16
leaf_value=0.034709633092386304 0.01625335458950878 -0.0042205849683839497 0.0048003628282178856 -0.032016969691143253 -0.0035380172063747455 -0.078574686723784648 0.027003569838804559 0.033801789853659517 -0.075819460230548474 -0.0080875793871263112 0.033052158689550498 -0.13819086096793132 -0.0096873863044507746 0.013416894531645147 0.037600053732312511
leaf_weight=420.00612600520253 1065.4432112369686 1305.330220094882 180.87907408736646 2604.6135067548603 1330.2523608929478 4.1619905340485266 223.97491884464398 1281.3890255023725 19.271203509997576 73.993858882691711 338.30926598701626 3.8644648976624003 51.568784189410508 280.99976986646652 230.16051256703213
leaf_count=40188 93344 39631 13799 42074 102660 453 17300 144316 1591 6396 28810 225 3373 24076 26811
internal_value=0.00092235 -0.0114818 -0.0173497 -0.0227388 0.0161346 0.0054018 0.000861474 0.023999 0.0146061 0.0315108 0.023222 0.0228671 0.029843 0.0112949 0.0354826
internal_weight=9414.22 5185.57 4429.13 3909.94 4228.65 1788.55 1554.23 2440.1 1084.71 1355.38 519.188 756.439 471.575 284.864 234.323
internal_count=585047 192176 124314 81705 392871 147224 119960 245647 94935 150712 42609 67862 43561 24301 27264
is_linear=0
shrinkage=0.05


Tree=22
num_leaves=16
num_cat=0
split_feature=6 20 7 11 12 12 9 6 21 12 15 17 4 10 20
split_gain=645.443 377.882 310.086 351.844 213.89 134.812 92.3085 66.6131 66.5799 60.1755 56.4742 51.941 47.0912 32.4591 25.5242
threshold=6.281785000000002 2.3420210082378021e-06 75.598320000000015 0.10537407797974281 94489.995852479944 95490.479800634042 39.734050000000003 18.502930000000003 1.8276418211367483e-05 94629.999999650085 0.00018295778513266472 -0.00021972732975594764 110127366.20512822 21.500000000000004 2.1072546778630145e-05
decision_type=2 2 2 2 2 2 2 2 2 2 2 2 2 2 2
left_child=1 2 3 -1 -4 7 8 10 -7 11 -2 -3 -9 -11 -8
right_child=5 9 4 -5 -6 6 14 12 -10 13 -12 -13 -14 -15 -16
leaf_value=-0.0037029262865805272 0.015402686641784936 0.050700183483416386 0.047981923153708417 -0.037934796740547831 -0.069826168180355197 -0.0031726298544382664 0.042589325034009196 0.033223851664730443 0.026509800247753647 0.024729312294182418 -0.086016132988404645 -0.044841497147502948 -0.0076218729537373704 -0.083195017668408422 -0.010865513848890632
leaf_weight=2947.4863734943792 1055.6839409307577 18.519457019865513 42.819646693766117 1007.2211280120537 374.79973863996565 1348.5568230259232 186.00301863159984 1239.5664635472931 219.58353702956811 771.96299470309168 13.795025158673523 59.841148294508457 74.579831561539322 6.9144667657092205 25.172318066004664
leaf_count=97817 93895 983 465 19049 5157 104225 22644 144316 17462 65736 1040 2747 6396 222 2893
internal_value=0.000892713 -0.010801 -0.0167529 -0.0124234 -0.0577264 0.0155837 0.00516539 0.023358 0.000981978 0.0195491 0.0140819 -0.022162 0.0309016 0.0237542 0.0361917
internal_weight=9392.51 5229.56 4372.33 3954.71 417.619 4162.94 1779.32 2383.63 1568.14 857.238 1069.48 78.3606 1314.15 778.877 211.175
internal_count=585047 192176 122488 116866 5622 392871 147224 245647 121687 69688 94935 3730 150712 65958 25537
is_linear=0
shrinkage=0.05


Tree=23
num_leaves=16
num_cat=0
split_feature=6 24 24 0 12 9 7 21 12 11 20 12 17 11 23
split_gain=586.132 357.186 324.862 251.08 127.17 87.0153 66.455 61.6052 54.1803 36.2009 24.6781 23.5515 34.8231 34.758 13.9057
threshold=6.281785000000002 -1.0000000180025095e-35 0.0016350000000020517 -0.77762571298161409 95490.479800634042 39.734050000000003 0.67035000000000022 1.8276418211367483e-05 95384.456329749533 0.10471752448059213 2.1072546778630145e-05 95490.479800634042 0.0001370895891179558 0.10466162895645921 -0.84223160760018012
decision_type=2 2 2 2 2 2 2 2 2 2 2 2 2 2 2
left_child=1 11 3 -3 6 7 14 -6 -8 -4 -7 12 -1 -13 -2
right_child=4 2 9 -5 5 10 8 -9 -10 -11 -12 13 -14 -15 -16
leaf_value=0.034082515525999703 -0.10296378774260749 -0.01623668996120024 0.0043119774714270856 -0.060053258503011256 -0.0030044815448189402 0.042235951948038968 0.012859720400593364 0.025860405337785577 0.030203638075129866 0.032340856645211032 -0.010212447433213832 0.023425062509865202 -0.0093656195694879468 -0.013595060863605197 0.042923351066874699
leaf_weight=404.48325434653088 1.529199931770562 3672.623413477093 178.99636647105217 358.94636228401214 1352.7242423640564 178.37571116304025 1261.3583977743983 213.9892190429382 701.96517224330455 325.54504219163209 25.442165717948228 184.20392157882452 51.811222731135786 96.394307438284159 365.02424495667219
leaf_count=40188 156 67396 13799 14309 104225 22644 120424 17462 71184 28810 2893 16030 3373 8271 53883
internal_value=0.000864491 -0.0101605 -0.0154062 -0.0201405 0.0150434 0.00493843 0.0227198 0.00093623 0.0190646 0.0224098 0.0356626 0.0221217 0.0291371 0.0106894 0.0422732
internal_weight=9373.41 5273 4536.11 4031.57 4100.41 1770.53 2329.88 1566.71 1963.32 504.541 203.818 736.893 456.294 280.598 366.553
internal_count=585047 192176 124314 81705 392871 147224 245647 121687 191608 42609 25537 67862 43561 24301 54039
is_linear=0
shrinkage=0.05


Tree=24
num_leaves=16
num_cat=0
split_feature=6 24 24 17 2 12 7 17 11 12 17 11 23 11 25
split_gain=532.29 321.984 290.282 229.411 120.511 104.898 64.1866 47.9896 34.6642 22.6177 33.1785 32.0295 16.0076 33.1199 15.3914
threshold=6.281785000000002 -1.0000000180025095e-35 0.0016350000000020517 -5.2261348615800778e-05 0.97802771617609119 95490.479800634042 0.34462000000000009 -1.0000000180025095e-35 0.10471752448059213 95490.479800634042 0.0001370895891179558 0.10466162895645921 -0.20927507122799321 0.10463753557962631 8.3661523528501472e-05
decision_type=2 2 2 2 2 2 2 2 2 2 2 2 2 2 2
left_child=1 9 3 -3 5 7 -7 -2 -4 10 -1 -11 13 -6 -14
right_child=4 2 8 -5 12 6 -8 -9 -10 11 -12 -13 14 -15 -16
leaf_value=0.03350602408563233 0.032882566107095022 0.0021514830182334283 0.0041141488252983997 -0.025474884522839605 -0.21615109866276519 -0.20705102441181752 0.001850724243204413 0.014331369033407346 0.031734351692585164 0.022782533064339743 -0.0088175055539613505 -0.012741840712159395 0.037515668929912149 0.015076777669617845 -0.033075538489388066
leaf_weight=391.21156254038215 462.07891837740317 990.44031285494566 178.24769418314099 3109.8967141397297 1.7753304177895177 3.5854440890252581 1558.0644198087975 1429.4982889578678 315.43919894099236 180.03929772321135 52.274253312498331 97.679115230217576 569.52181767811999 8.6736251441761834 7.6800505192950359
leaf_count=40188 46561 30730 13799 50975 192 268 119957 139916 28810 16030 3373 8271 84013 1129 835
internal_value=0.000835794 -0.00956213 -0.0144388 -0.0188006 0.014514 0.0109493 0.00135467 0.0188672 0.0217749 0.0214925 0.0285052 0.0102698 0.0354476 -0.0254126 0.0365622
internal_weight=9356.11 5315.23 4594.02 4100.34 4040.88 3453.23 1561.65 1891.58 493.687 721.204 443.486 277.718 587.651 10.449 577.202
internal_count=585047 192176 124314 81705 392871 306702 120225 186477 42609 67862 43561 24301 86169 1321 84848
is_linear=0
shrinkage=0.05


Tree=25
num_leaves=15
num_cat=0
split_feature=6 24 17 4 4 7 10 0 1 3 6 12 14 17
split_gain=520.632 315.562 268.114 340.327 179.461 108.227 159.856 101.367 100.654 31.4926 31.4517 24.8533 42.2926 27.4815
threshold=6.281785000000002 -1.0000000180025095e-35 -4.2323116461240311e-05 52377649.036585368 536870911.37500006 3.9598550000000006 42.500000000000007 -0.72596908026205242 -0.73242587476549303 0.99127588743378026 136.03413000000003 95490.479800634042 -0.0002038970753011071 0.00020039129103821554
decision_type=2 2 2 2 2 2 2 2 2 2 2 2 2 2
left_child=1 11 4 -4 -3 6 9 10 -9 -2 -7 13 -13 -1
right_child=5 2 3 -5 -6 7 -8 8 -10 -11 -12 12 -14 -15
leaf_value=0.032098068148919211 0.021635880050611286 0.0097675556856344162 -0.062379051707849721 -0.015699582361889734 -0.083701454704231903 0.032026355312379413 -0.44362230585743295 -0.075191275254124404 0.0045876826691765354 0.040431437344722709 -0.083412282582039532 -0.18608917050911783 0.011380190995939945 -0.017879460594518257
leaf_weight=401.96060825232416 1221.0500001418404 1153.5744460476562 448.78156878054142 3007.6204488966614 53.639973823912442 400.98918425384909 1.7205082532018412 40.210353566333652 2046.1561230509542 273.84676537802443 5.8721623104065648 2.6365703837946048 271.64415809512138 29.331849030219018
leaf_count=41877 140625 48192 9297 65400 1685 32097 134 2385 174370 43355 545 112 24117 1628
internal_value=0.000202482 -0.00996275 -0.0146783 -0.0217636 0.00560373 0.0138831 0.024513 0.00749956 0.00304418 0.0250848 0.0303279 0.0211959 0.00939663 0.0286842
internal_weight=9359.03 5369.19 4663.62 3456.4 1207.21 3989.85 1496.62 2493.23 2086.37 1494.9 406.861 705.573 274.281 431.292
internal_count=585819 192308 124574 74697 49877 393511 184114 209397 176755 183980 32642 67734 24229 43505
is_linear=0
shrinkage=0.05


Tree=26
num_leaves=16
num_cat=0
split_feature=8 7 21 4 17 7 11 1 2 1 1 21 10 3 16
split_gain=474.598 239.05 202.924 199.02 205.383 165.375 161.912 133.426 127.657 109.695 104.835 92.9774 74.6327 25.3984 20.3975
threshold=0.0027008909293317509 32.116390000000003 2.1865716759945952e-06 536870911.37500006 -1.0000000180025095e-35 102.44367000000001 0.10505746643703831 -0.99996226389285592 0.97802771617609119 -0.99989493437005594 -0.99996226389285592 1.0759080538695116e-05 6.5000000000000009 -0.9995714372064568 0.00013117541058527141
decision_type=2 2 2 2 2 2 2 2 2 2 2 2 2 2 2
left_child=2 8 5 4 -3 12 7 -4 10 -8 -2 -5 -1 -7 -10
right_child=1 3 6 11 -6 13 9 -9 14 -11 -12 -13 -14 -15 -16
leaf_value=-0.029502276092045965 -0.17872558974682096 0.01433318667443925 -0.044768208101382337 -0.30433699319430652 -0.022001063548143948 -0.087919096576433209 0.0088616083252169298 0.024706953233739164 0.036261307611682135 -0.046007806225257908 0.0085823431849076735 -0.073020031492776319 -0.093455407529336051 -0.15441716736896427 -0.0013008890223142775
leaf_weight=850.40524535626173 7.3787648715078822 609.78555525140837 82.346517051104456 7.849360988475385 1072.9671118715778 32.510364705231041 133.45459476532415 426.09145055152476 512.47559883398935 285.70619220612571 5201.0610082452185 9.9310033330693823 48.224143296480179 27.488380588591099 38.601037053856999
leaf_count=10189 241 38444 2731 154 37411 243 3667 12964 80759 7009 385632 418 314 251 5392
internal_value=0.000205638 0.00587174 -0.0222003 -0.0105983 -0.00883144 -0.0383322 -0.00552108 0.0134383 0.0107356 -0.0285283 0.0083126 -0.176548 -0.0329498 -0.118675 0.0336214
internal_weight=9346.28 7460.05 1886.23 1700.53 1682.75 958.628 927.599 508.438 5759.52 419.161 5208.44 17.7804 898.629 59.9987 551.077
internal_count=585819 548451 37368 76427 75855 10997 26371 15695 472024 10676 385873 572 10503 494 86151
is_linear=0
shrinkage=0.05


Tree=27
num_leaves=16
num_cat=0
split_feature=6 20 4 4 7 12 7 16 9 6 17 13 21 20 23
split_gain=438.814 282.513 281.495 286.012 167.689 106.933 73.4619 78.1422 57.4883 55.2843 42.3864 50.3944 39.8442 35.0953 10.6362
threshold=6.281785000000002 2.3420210082378021e-06 52377649.036585368 238609293.38888893 118.98721500000002 95490.479800634042 0.67035000000000022 0.00014148199796348851 39.734050000000003 42.456160000000004 0.00016223401512593941 -1.5757096622573232e-05 5.2628828409384986e-05 2.1072546778630145e-05 -0.94502468962772557
decision_type=2 2 2 2 2 2 2 2 2 2 2 2 2 2 2
left_child=1 2 4 -4 -1 6 14 -8 9 -7 11 -3 -12 -10 -2
right_child=5 10 3 -5 -6 8 7 -9 13 -11 12 -13 -14 -15 -16
leaf_value=-0.039482988023527066 -0.096292174079946516 -0.014677717184113322 -0.0060157622575397534 -0.071499767229096928 -0.16867438838583781 0.0013179197178073269 0.018464565734564415 -0.038110683151023665 0.038888481529534162 -0.11270922312268566 -0.033306032914277472 0.026545661744112627 0.046098424992079917 -0.025544122288444989 0.043068833985422175
leaf_weight=602.46353991236538 1.2623288044705976 83.384327184408903 3806.3967239926569 174.3087288569659 26.152582335285842 1524.447529157158 1797.5698628099635 63.032968499697745 157.48014024412259 10.604043445549904 67.64209517929703 654.10763862449676 20.469587518833578 24.239392632152885 319.2470713253133
leaf_count=12004 120 4760 106335 3966 272 121097 186278 5916 22495 744 3343 60444 1184 2857 54004
internal_value=0.000207727 -0.00897333 -0.0137985 -0.00888618 -0.0448917 0.0130103 0.0203579 0.0165433 0.00367186 0.00051968 0.017958 0.0218766 -0.0147712 0.0302571 0.0424745
internal_weight=9332.81 5434.93 4609.32 3980.71 628.616 3897.88 2181.11 1860.6 1716.77 1535.05 825.604 737.492 88.1117 181.72 320.509
internal_count=585819 192308 122577 110301 12276 393511 246318 192194 147193 121841 69731 65204 4527 25352 54124
is_linear=0
shrinkage=0.05


Tree=28
num_leaves=16
num_cat=0
split_feature=6 24 24 0 2 12 7 14 11 12 15 17 11 7 23
split_gain=397.939 261.505 232.862 195.062 93.0486 70.911 91.895 60.0212 33.295 30.7711 32.3962 25.5278 21.067 58.4809 15.3512
threshold=6.7075250000000022 -1.0000000180025095e-35 1.0000000180025095e-35 -0.83691738050006514 0.97802771617609119 95490.479800634042 0.32216500000000009 0.00020512402573835689 0.10474055764160155 95490.479800634042 -0.00019852050052815426 0.0001370895891179558 0.20977223979641665 0.67035000000000022 -0.20927507122799321
decision_type=2 2 2 2 2 2 2 2 2 2 2 2 2 2 2
left_child=1 9 3 -3 5 7 -7 -2 -4 11 -11 -1 14 -14 -6
right_child=4 2 8 -5 12 6 -8 -9 -10 10 -12 -13 13 -15 -16
leaf_value=0.032871670958394127 0.017113946443471219 -0.01218157983717133 0.0042942233080957657 -0.043895630146181516 -0.025494508304971353 -0.28171449542245874 0.0021504908252318942 -0.1099296881238907 0.030054857693321332 -0.11926345230844547 0.0093261022075795934 -0.0033022668389987111 0.030466103163759368 -0.093636065026268311 0.037327381623716599
leaf_weight=377.84315195400268 1746.4028905080631 3765.0149944955483 216.65807142388076 556.66417044587433 9.7774874935857934 2.7563475780189028 1487.9164271103218 9.2380605451762658 299.55976566066965 4.8803538167849174 282.37246460467577 55.693014437332749 43.256776936817914 12.050513949245213 451.3518836046569
leaf_count=41550 182384 63994 17096 19096 1266 170 117390 717 28266 232 25242 3591 7440 1633 75752
internal_value=0.000209026 -0.00829007 -0.0124768 -0.0162687 0.0127659 0.00962703 0.00160339 0.0164364 0.0192557 0.0198016 0.00708325 0.0282135 0.0324815 0.00321593 0.0359793
internal_weight=9321.44 5558.69 4837.9 4321.68 3762.75 3246.31 1490.67 1755.64 516.218 720.789 287.253 433.536 516.437 55.3073 461.129
internal_count=585819 199067 128452 83090 386752 300661 117560 183101 45362 70615 25474 45141 86091 9073 77018
is_linear=0
shrinkage=0.05


Tree=29
num_leaves=16
num_cat=0
split_feature=8 7 21 17 2 11 7 4 1 2 17 1 11 11 3
split_gain=374.113 197.491 170.298 157.349 176.732 139.973 122.83 117.035 116.412 106.671 96.0829 90.7715 69.057 20.3455 15.8898
threshold=0.0027008909293317509 32.116390000000003 2.1865716759945952e-06 -1.0000000180025095e-35 -0.99984045760100304 0.10505746643703831 102.44367000000001 238609293.38888893 -0.99996226389285592 0.97802771617609119 -1.0000000180025095e-35 -0.99989493437005594 0.10486247286971787 0.20977223979641665 -0.9995714372064568
decision_type=2 2 2 2 2 2 2 2 2 2 2 2 2 2 2
left_child=2 9 6 7 -5 8 12 -3 -4 10 -2 -7 -1 -11 -8
right_child=1 3 5 4 -6 11 14 -9 -10 13 -12 -13 -14 -15 -16
leaf_value=-0.015151830548831622 0.019500371220150164 0.016111822194125325 -0.038908307272959464 0.050818258531014029 -0.026225522945404384 0.0093019410545501138 -0.075404683454225047 -0.079518925897755444 0.024550329796536229 0.035470778747546255 0.0037649294375027629 -0.040071637880932459 -0.042367649586156048 0.0032075171916643298 -0.12546845100541743
leaf_weight=460.29629684705287 1298.921259236522 581.58282450353727 87.011873946059495 80.094605465885252 1031.1042071310803 134.30245727440342 35.126019684132189 33.743610984180123 423.06048940820619 445.63075572764501 3836.8241394963115 301.93561002565548 474.04317084979266 55.291434452868998 31.428160522133112
leaf_count=5957 105090 37118 2731 1030 36501 3667 243 1778 12964 77071 280783 7009 4546 9080 251
internal_value=0.000208667 0.00536343 -0.0192803 -0.00943039 -0.0206637 -0.00406642 -0.0336577 0.0108474 0.0137098 0.00989578 0.00774598 -0.0248611 -0.0289684 0.0319209 -0.0992735
internal_weight=9310.4 7363.19 1947.2 1726.53 1111.2 946.31 1000.89 615.326 510.072 5636.67 5135.75 436.238 934.339 500.922 66.5542
internal_count=585819 548451 37368 76427 37531 26371 10997 38896 15695 472024 385873 10676 10503 86151 494
is_linear=0
shrinkage=0.05


Tree=30
num_leaves=15
num_cat=0
split_feature=7 3 16 4 10 25 0 7 11 16 12 13 12 12
split_gain=339.342 228.938 211.025 237.029 170.014 124.937 118.47 107.498 117.625 47.6591 147.472 48.5104 33.4765 9.07216
threshold=33.358375000000002 -0.99763727959972182 -1.0000000180025095e-35 536870911.37500006 6.5000000000000009 -6.1240926078849312e-06 0.72506087832455268 2.8016600000000005 0.10532746308564543 -0.00017978383704075893 94656.000189891813 -3.6945629418334706e-06 94821.968584772956 95580.999947117874
decision_type=2 2 2 2 2 2 2 2 2 2 2 2 2 2
left_child=1 4 9 6 5 -1 -4 12 -9 10 -2 -11 -3 -5
right_child=2 7 3 13 -6 -7 -8 8 -10 11 -12 -13 -14 -15
leaf_value=-0.011529270440118044 -0.27589035270535844 0.048985898051581489 -0.016593424321664652 -0.17852385630340592 -0.19481857564868255 -0.092014236318569642 -0.1721389382808689 0.01026957355170823 -0.0096281517718442861 0.02951793465006838 0.01110857137004978 -0.030698876562971614 0.020711807384765784 -0.12210403828222086
leaf_weight=432.06766077037901 5.3896136293187764 117.52083364315331 2474.9964878549799 17.100234213285148 14.317953544668852 54.220912219956517 12.210813803598283 3808.4053240180947 922.3384228697978 352.84273217897862 24.055013621691614 36.785700660664588 983.40725098177791 16.023999327793717
leaf_count=7656 216 18345 58360 216 219 641 917 277202 43974 32905 1954 3252 139233 196
internal_value=0.000361656 0.00687934 -0.0136773 -0.0191411 -0.0255634 -0.0205307 -0.017366 0.00966556 0.006389 0.0191677 -0.0420111 0.0238135 0.0237387 -0.151831
internal_weight=9271.68 6332.28 2939.4 2520.33 500.607 486.289 2487.21 5831.67 4730.74 419.073 29.4446 389.628 1100.93 33.1242
internal_count=585286 487270 98016 59689 8516 8297 59277 478754 321176 38327 2170 36157 157578 412
is_linear=0
shrinkage=0.05


Tree=31
num_leaves=15
num_cat=0
split_feature=6 22 22 0 12 11 7 2 4 20 23 14 11 13
split_gain=304.949 227.241 270.104 206.813 139.067 84.5404 77.6243 178.936 77.6189 76.6508 59.282 49.4491 46.5582 36.7592
threshold=14.679225000000002 -1.0000000180025095e-35 1.0000000180025095e-35 -0.83691738050006514 95730.969823855921 0.10472739459474893 3.7719600000000004 0.60374595704723233 0.75171232876712335 1.4072466249158614e-05 -1.363731912648471 0.000179454564414705 0.10474055764160155 -3.283556268673727e-06
decision_type=2 2 2 2 2 2 2 2 2 2 2 2 2 2
left_child=1 10 3 -3 5 8 9 -8 -2 -6 -1 -7 -4 -12
right_child=4 2 12 -5 6 11 7 -9 -10 -11 13 -13 -14 -15
leaf_value=-0.2002505022202814 -0.0079403967979318063 -0.0092837137110368308 0.0030901789928113265 -0.037017549785003483 0.036286532877699479 0.027029803539887744 0.02479522737090481 -0.16380072166712301 0.020745968624829317 -0.13726931785900356 0.023798037410729299 -0.08121516592839742 0.024878331396412656 0.0057280953280691863
leaf_weight=3.0784202762879422 462.44173222361133 3918.8008913244121 460.29078342393041 811.57735101180151 35.915063914377242 1344.3822006261908 21.508193966932595 29.970743592828512 480.63434682413936 7.6240395959466687 643.88011790765449 10.517426471691577 526.05987418955192 501.61658008815721
leaf_count=229 37464 68756 36606 38376 4542 177062 1563 2239 53426 916 64541 955 53722 44889
internal_value=0.000354636 -0.00500229 -0.00908031 -0.0140437 0.0157249 0.018178 -0.0435064 -0.085012 0.00667482 0.00553605 0.0152897 0.0261799 0.0147171 0.0158907
internal_weight=9258.3 6865.3 5716.73 4730.38 2392.99 2297.98 95.018 51.4789 943.076 43.5391 1148.58 1354.9 986.351 1145.5
internal_count=585286 307119 197460 107132 278167 268907 9260 3802 90890 5458 109659 178017 90328 109430
is_linear=0
shrinkage=0.05


Tree=32
num_leaves=15
num_cat=0
split_feature=7 3 16 4 10 25 2 1 17 16 17 13 16 17
split_gain=289.616 197.839 180.842 181.46 127.749 102.434 94.9614 93.5475 90.765 42.7622 144.494 45.0364 18.9483 15.122
threshold=33.358375000000002 -0.99763727959972182 -1.0000000180025095e-35 536870911.37500006 6.5000000000000009 -6.1240926078849312e-06 0.97802771617609119 0.70129249669625804 -1.0000000180025095e-35 -0.00017978383704075893 -0.00018840276384413099 -3.6945629418334706e-06 0.00013117541058527141 -6.2801578435411884e-05
decision_type=2 2 2 2 2 2 2 2 2 2 2 2 2 2
left_child=1 4 9 7 5 -1 8 -4 -3 10 -2 -11 -8 -5
right_child=2 6 3 13 -6 -7 12 -9 -10 11 -12 -13 -14 -15
leaf_value=-0.010425292819572284 -0.0012858065373736543 0.018366361000699858 -0.015100358252807792 -0.16004836629824581 -0.15978229720005027 -0.081063878008816967 0.033700023216188014 -0.15590555609545662 0.0033569223051039213 0.028752666015628082 -0.35776737139757536 -0.028733433221320673 -0.0040600453299956532 -0.094278828945320969
leaf_weight=438.12592433160171 27.52919499529526 1354.5747660878114 2525.4095395500772 18.084873970597982 16.501627029851079 58.086470091715455 428.8345950464718 11.760638687759636 3932.3034183783457 340.7737234570086 3.0737542673014095 37.687856099568307 35.737260071095079 19.3598837768659
leaf_count=7656 2021 108731 58298 206 219 641 80787 979 283734 32905 149 3252 5502 206
internal_value=0.000348903 0.0064561 -0.0124711 -0.0173788 -0.0232991 -0.018719 0.00910986 -0.0157611 0.00720378 0.0184016 -0.0383022 0.0230088 0.0307843 -0.126519
internal_weight=9247.84 6264.16 2983.68 2574.61 512.714 496.212 5751.45 2537.17 5286.88 409.065 30.6029 378.462 464.572 37.4448
internal_count=585286 487270 98016 59689 8516 8297 478754 59277 392465 38327 2170 36157 86289 412
is_linear=0
shrinkage=0.05


Tree=33
num_leaves=15
num_cat=0
split_feature=6 22 22 0 11 4 11 14 7 23 11 12 13 4
split_gain=264.8 197.333 230.213 180.418 124.532 102.724 130.036 61.4508 71.526 45.6709 43.852 36.9922 34.7729 33.3902
threshold=14.679225000000002 -1.0000000180025095e-35 1.0000000180025095e-35 -0.83691738050006514 0.10472739459474893 0.75171232876712335 0.10443100765764014 0.000179454564414705 5.7249350000000012 -1.363731912648471 0.10474055764160155 95594.14066404257 -3.9945086239997505e-06 104755299.21951221
decision_type=2 2 2 2 2 2 2 2 2 2 2 2 2 2
left_child=1 9 3 -3 5 6 -2 13 -9 -1 -4 -7 -11 -6
right_child=4 2 10 -5 7 11 -8 8 -10 12 -12 -13 -14 -15
leaf_value=-0.15811216214366167 -0.15376177281298609 -0.0083377217426479425 0.0026787492318972941 -0.033846053443980249 0.028441296219669534 0.004598869427207739 -0.009496457105358274 0.01389501272049809 -0.23433974965582371 0.024453118059794225 0.024031448327261628 0.031502988300209582 0.0068054606914881681 -0.0012986354239838268
leaf_weight=3.7121069277636698 16.037630368955433 3966.5368699231185 456.38205530308187 840.21698599262163 1200.0296250451356 264.84405754040927 494.47111133439466 6.9888147325254959 4.8081244584172964 530.20338934892789 509.53350178152323 247.73281776485965 591.73068238701671 102.07843936793506
leaf_count=229 1163 68756 36606 38376 167621 30741 39675 687 291 55386 53722 28114 54044 9875
internal_value=0.000340558 -0.00458679 -0.00832167 -0.0127982 0.0148868 0.00180113 -0.0140676 0.0250714 -0.087978 0.0145615 0.0139491 0.0176152 0.0151513 0.0261061
internal_weight=9235.31 6898.32 5772.67 4806.75 2336.99 1023.09 510.509 1313.91 11.7969 1125.65 965.916 512.577 1121.93 1302.11
internal_count=585286 307119 197460 107132 278167 99693 40838 178474 978 109659 90328 58855 109430 177496
is_linear=0
shrinkage=0.05


Tree=34
num_leaves=16
num_cat=0
split_feature=3 7 0 6 21 11 1 25 2 11 4 1 20 4 23
split_gain=248.232 146.61 166.7 153.541 121.825 108.198 93.235 86.2917 83.8847 82.0209 81.9446 72.0941 67.151 26.0975 19.0738
threshold=-0.99451991295571462 32.116390000000003 -0.9454744256305444 12.476655000000003 2.1865716759945952e-06 0.10505746643703831 -0.99996226389285592 -4.0798862945034811e-05 0.97802771617609119 0.10564793881166183 966367641.25000012 -0.99904577774578918 1.0000000180025095e-35 81037117.886792466 -0.10490207181098755
decision_type=2 2 2 2 2 2 2 2 2 2 2 2 2 2 2
left_child=4 8 10 -4 7 6 -6 13 9 -2 -3 -9 -7 -1 -10
right_child=1 2 3 -5 5 12 -8 11 14 -11 -12 -13 -14 -15 -16
leaf_value=-0.048870271121514132 0.0090992131329915519 0.0084392659395820281 -0.033853766837310069 0.019011747888485017 -0.032331313107474745 -0.029571547398484135 0.02306491795726235 -0.030515687427623613 -0.031946943915731434 -0.012009241083241152 -0.16638986002354678 0.0019651830368817599 0.017964963178675155 -0.10998568177065003 0.031448336116536649
leaf_weight=34.989199995994568 4465.2674800958484 907.40479324804619 697.37292329734191 170.82620157627389 92.263933966401964 370.65598605480045 426.27266623685136 750.55884314188734 12.047959433868526 512.80475250771269 6.6501072105020276 220.79120333306491 92.697040222585201 36.247681438922882 428.24364683357999
leaf_count=197 359905 30783 29379 16034 2732 3752 13179 7817 1878 25127 116 2755 7010 211 84411
internal_value=0.000333687 0.0046832 -0.00775489 -0.0234452 -0.0151336 -0.00248855 0.0131942 -0.0270362 0.00877543 0.00692357 0.00714378 -0.0231281 -0.0200489 -0.0801485 0.0296954
internal_weight=9225.09 7200.62 1782.25 868.199 2024.48 981.89 518.537 1042.59 5418.36 4978.07 914.055 971.35 463.353 71.2369 440.292
internal_count=585286 547633 76312 45413 37653 26673 15911 10980 471321 385032 30899 10572 10762 408 86289
is_linear=0
shrinkage=0.05


Tree=35
num_leaves=16
num_cat=0
split_feature=7 16 4 6 12 25 2 17 7 16 20 17 17 12 11
split_gain=237.896 148.263 152.977 139.212 156.982 208.232 109.362 87.3931 82.0987 74.6136 44.7466 156.884 44.1817 41.2247 2.49722
threshold=33.358375000000002 -1.0000000180025095e-35 536870911.37500006 0.24634000000000003 95310.259678708579 -3.2035749209352632e-05 -0.99993569148665762 -4.2323116461240311e-05 0.67035000000000022 -0.00010577869099126501 4.4609523825467051e-05 -0.00023020257944317277 -0.00044992027725321288 95524.980282843535 0.10507402465326639
decision_type=2 2 2 2 2 2 2 2 2 2 2 2 2 2 2
left_child=3 10 7 4 5 -1 -6 -3 13 -10 12 -12 -2 -5 -4
right_child=1 2 14 8 6 -7 -8 -9 9 -11 11 -13 -14 -15 -16
leaf_value=-0.14950639277932418 -0.13229520179843254 0.0044686635277934811 -0.095728221541573622 0.041314385201322613 -0.14860171876067513 -0.02063620047699161 0.012036103514547543 -0.01868201807745198 0.037173541441323114 0.0059608111544617115 0.014456845712337338 -0.32674951232860738 0.022722280072621205 0.0043199613567180255 -0.1241337400201999
leaf_weight=33.09349981835112 4.5465284558013073 504.11781814740971 21.39396969974041 280.83392156055197 10.698816887103019 570.039274294395 553.05448595248163 2122.2501179240644 200.14985921652988 4407.7324674353004 16.568856652360413 4.1188717670738688 374.34578475868329 103.34640294639394 20.802816180512309
leaf_count=578 446 10800 146 58984 170 9776 10822 48674 19142 370469 1237 167 36511 17612 265
internal_value=-0.000129098 -0.0115043 -0.0157584 0.00553685 -0.0100087 -0.0277391 0.00895286 -0.0142365 0.00917173 0.00731844 0.016891 -0.054481 0.0208145 0.0313794 -0.110111
internal_weight=9227.09 3068.14 2668.56 6158.95 1166.89 603.133 563.753 2626.37 4992.06 4607.88 399.58 20.6877 378.892 384.18 42.1968
internal_count=585799 98246 59885 487553 21346 10354 10992 59474 466207 389611 38361 1404 36957 76596 411
is_linear=0
shrinkage=0.05


Tree=36
num_leaves=16
num_cat=0
split_feature=7 16 4 6 12 25 6 17 4 10 7 12 16 12 17
split_gain=213.751 133.117 130.461 126.089 138.538 161.829 106.357 98.6439 79.9844 106.618 70.9177 69.5726 41.438 90.9042 40.1374
threshold=33.358375000000002 -1.0000000180025095e-35 238609293.38888893 0.24634000000000003 95310.259678708579 -3.2035749209352632e-05 0.20920000000000002 -4.2323116461240311e-05 0.75171232876712335 13.500000000000002 38.322420000000015 94938.999996455954 -0.00016857721011209745 94629.999999650085 -0.00044992027725321288
decision_type=2 2 2 2 2 2 2 2 2 2 2 2 2 2 2
left_child=3 12 7 4 5 -1 -6 -3 9 -5 -4 -10 13 -2 -14
right_child=1 2 10 8 6 -7 -8 -9 11 -11 -12 -13 14 -15 -16
leaf_value=-0.12728989952484357 -0.19622737192543349 0.0077834802666914664 -0.18121136267790838 0.00069645845123955923 0.012992146713019763 -0.019299820188608596 -0.099086087836973813 -0.017352086665681946 -0.0033816475697407769 -0.12099401271089637 -0.055485615260407933 0.016111407174256007 -0.11888585705802655 0.0042178183384891195 0.02349894731575285
leaf_weight=36.834801124408841 6.9189085513353339 477.30014454666525 13.187734309583901 1499.1053740424104 537.77036029845476 578.80797493550926 21.927662557922304 2134.7992962221615 543.44654734805226 18.117598431184888 75.361322569660842 2887.5379769285209 4.911425652448087 28.886816029902548 352.45128576550633
leaf_count=578 215 10343 259 145735 10421 9776 571 48186 44922 1003 1097 274547 427 2247 35472
internal_value=-0.000113732 -0.0108262 -0.0147844 0.00529781 -0.00942097 -0.0257888 0.00857534 -0.0127571 0.00879508 -0.000761266 -0.0744498 0.0130224 0.016347 -0.0348145 0.0214954
internal_weight=9217.37 3093.82 2700.65 6123.55 1175.34 615.643 559.698 2612.1 4948.21 1517.22 88.5491 3430.98 393.168 35.8057 357.363
internal_count=585799 98246 59885 487553 21346 10354 10992 58529 466207 146738 1356 319469 38361 2462 35899
is_linear=0
shrinkage=0.05


Tree=37
num_leaves=15
num_cat=0
split_feature=6 22 22 25 12 12 21 20 11 12 11 4 23 0
split_gain=192.539 158.713 184.902 145.24 138.904 90.5046 161.074 134.815 65.8985 70.2844 47.4384 41.0664 38.747 27.5885
threshold=15.299955000000002 -1.0000000180025095e-35 1.0000000180025095e-35 -6.2832083459351823e-06 95730.969823855921 95738.999869113031 5.214798523367821e-06 2.0904482479591068e-05 0.10472739459474893 95591.248497671055 0.10474055764160155 104755299.21951221 -1.0496043091969025 -0.6264417787348876
decision_type=2 2 2 2 2 2 2 2 2 2 2 2 2 2
left_child=1 12 3 -3 8 6 -6 -7 9 -2 -4 -10 -1 -14
right_child=4 2 10 -5 5 7 -8 -9 11 -11 -12 -13 13 -15
leaf_value=-0.11260286135429508 -0.0073687523202057128 -0.0080761043171687936 0.0010831186042587167 -0.034133591952913565 -0.210872737919965 0.016980094172202559 0.044237084456703546 -0.17360120926832528 0.025966798840787304 0.021295784547340414 0.023216653648051214 -0.0080355632847526667 0.021026503605374728 0.0052442067766913583
leaf_weight=5.9879676704294971 489.32179047772661 4340.9915344482288 466.99117375491187 610.03466615732759 17.870493981987241 55.18979750527069 9.3467462849803251 11.045735745690761 1104.2520564007573 379.515057599172 503.69236985454336 96.281062940135598 606.01629730174318 511.85003988165408
leaf_count=389 50019 80465 38226 28174 1553 5582 915 921 164474 38320 55332 9337 64838 47254
internal_value=-9.9587e-05 -0.00410595 -0.00737577 -0.0112884 0.0129487 -0.0466333 -0.123241 -0.0149405 0.015644 0.00514741 0.0125747 0.0232353 0.0131178 0.0138057
internal_weight=9208.39 7045.56 5921.71 4951.03 2162.82 93.4528 27.2172 66.2355 2069.37 868.837 970.684 1200.53 1123.85 1117.87
internal_count=585799 314678 202197 108639 271121 8971 2468 6503 262150 88339 93558 173811 112481 112092
is_linear=0
shrinkage=0.05


Tree=38
num_leaves=15
num_cat=0
split_feature=7 17 1 11 25 6 10 0 4 4 6 3 12 25
split_gain=183.735 116.874 111.83 108.225 125.771 117.631 92.4181 101.454 81.6586 74.5601 64.7454 63.607 54.5245 59.554
threshold=33.358375000000002 -1.0000000180025095e-35 -0.99996226389285592 0.10532746308564543 -3.2035749209352632e-05 5.7457050000000001 11.500000000000002 0.72506087832455268 238609293.38888893 55778795.090909101 3.0207800000000007 -0.99946543071214344 95481.999697980631 -1.0889803320478428e-05
decision_type=2 2 2 2 2 2 2 2 2 2 2 2 2 2
left_child=2 8 12 4 -4 -5 7 -3 11 -8 -10 -2 13 -1
right_child=1 6 3 5 -6 -7 9 -9 10 -11 -12 -13 -14 -15
leaf_value=-0.11972378804870357 -0.012437643198634357 -0.014794875429784386 -0.17869084238802729 -0.016718738600138575 0.0094714304218384126 0.015091092083356709 -0.033106244012846037 -0.16019905497831757 -0.070083427980164606 -0.14563796024537595 0.037412962956852418 0.0129682128140928 -0.15326495824357353 0.05542653807564512
leaf_weight=9.0892697991803271 352.74360384372994 1803.827251969371 8.7954208352603001 941.69802181515843 4668.8062886153348 420.11021303315647 37.295086104422808 11.985543336719273 63.580334400758147 24.473468912765384 17.822207594756037 815.42749985540286 15.637393491808323 10.156229536980392
leaf_count=150 8229 40870 480 27912 400310 58158 431 857 1511 222 961 45165 248 295
internal_value=-8.51036e-05 -0.00993262 0.00498383 0.00550085 0.00911274 -0.00690153 -0.0178182 -0.0157662 0.00191248 -0.0779369 -0.0464699 0.00529191 -0.0841468 -0.0272263
internal_weight=9201.45 3127.15 6074.29 6039.41 4677.6 1361.81 1877.58 1815.81 1249.57 61.7686 81.4025 1168.17 34.8829 19.2455
internal_count=585799 98246 487553 486860 400790 86070 42380 41727 55866 653 2472 53394 693 445
is_linear=0
shrinkage=0.05


Tree=39
num_leaves=16
num_cat=0
split_feature=3 10 17 0 21 6 20 12 17 12 0 16 11 1 6
split_gain=169.421 140.988 126.438 157.016 102.713 89.6129 86.0521 63.6889 124.374 54.0501 51.5337 37.6273 20.1725 54.3545 26.2805
threshold=-0.99933849901288241 3.5000000000000004 -1.0000000180025095e-35 0.96819913839757266 3.1078883991628911e-06 1.8461700000000001 1.1702934420738009e-06 95575.127430400797 -2.0936269994997755e-05 94656.000189891813 -0.99999168039932218 -3.1436161018305591e-05 0.10459047599411658 -0.99996226389285592 0.015835000000000005
decision_type=2 2 2 2 2 2 2 2 2 2 2 2 2 2 2
left_child=6 2 11 -4 5 -3 7 10 -9 -6 -1 -2 13 -8 -14
right_child=1 4 3 -5 9 -7 12 8 -10 -11 -12 -13 14 -15 -16
leaf_value=0.015378693028058724 0.026332442083490643 -0.025338192643986193 -0.0024416784384780638 0.026938811519552127 -0.051609564766155407 -0.090664917369989467 -0.1890053775741331 -0.0026991104962995863 -0.093497806895757263 0.0052979334116557367 -0.023827453549516611 0.010727346708264189 0.039308553219098256 0.032888237374786203 -0.070897844815876118
leaf_weight=96.549144132994115 519.2040610879194 160.67675229534507 5119.1362167913467 498.97206752304919 49.196785878855735 78.202455234248191 3.8622762607410541 66.850236333906651 86.798213006928563 271.12246340233833 625.55211138259619 1518.5907898449805 83.391656836960465 8.9446588661521655 5.6637661266140631
leaf_count=738 58400 1179 296415 94425 2301 3792 289 701 699 14392 5372 98538 7113 857 588
internal_value=-7.39042e-05 0.00226721 0.00403813 0.000167292 -0.0219656 -0.0467743 -0.0197502 -0.0248123 -0.0540526 -0.00344008 -0.018577 0.0147069 0.0237035 -0.0345883 0.0321719
internal_weight=9192.71 8215.1 7655.9 5618.11 559.198 238.879 977.612 875.75 153.648 320.319 722.101 2037.79 101.862 12.8069 89.0554
internal_count=585799 569442 547778 390840 21664 4971 16357 7510 1400 16693 6110 156938 8847 1146 7701
is_linear=0
shrinkage=0.05


Tree=40
num_leaves=16
num_cat=0
split_feature=6 17 4 11 9 4 12 13 2 16 2 0 7 21 16
split_gain=172.903 147.614 129.707 154.34 137.75 116.238 86.5626 82.9096 63.7075 60.0623 173.375 58.7635 66.0702 51.3091 6.83769
threshold=6.4327950000000014 -4.1918615016456322e-05 52377649.036585368 0.10537407797974281 -93.783079999999998 238609293.38888893 95492.114717369914 -1.5757096622573232e-05 -0.99978778273891289 0.00014148199796348851 -0.59685537718959547 -0.81208561604624696 18.148455000000002 1.9516065870973197e-05 2.1130592684492914e-05
decision_type=2 2 2 2 2 2 2 2 2 2 2 2 2 2 2
left_child=1 5 4 -4 -3 8 9 -7 -1 13 -11 14 -13 -2 -8
right_child=6 2 3 -5 -6 7 11 -9 -10 10 -12 12 -14 -15 -16
leaf_value=-0.007966855262487544 0.015765468409507821 -0.090547868754851241 0.00037373149362062325 -0.022870442817833733 -0.021165221109621636 -0.09250257025038619 0.049741548367228959 -0.0092946622561531547 0.019493170409504237 -0.34488545598711018 -0.0084894221134263342 0.0030522718035084564 -0.027533424203674512 0.042632403672166634 -0.011439140701977189
leaf_weight=264.19182357192039 1609.3014669227414 83.691503125242889 2709.1514522619545 969.50049111852422 493.04348577884957 41.610900091938674 65.794917673803866 106.75316568510607 1047.7404134985991 3.9383661430329076 75.298108692746609 1295.8882887251675 204.3009922914207 200.05104117258452 4.7305555678904048
leaf_count=9342 208795 1080 89451 16039 12758 870 5424 4213 60669 203 8803 125152 13541 28156 379
internal_value=0.000837013 -0.00450221 -0.00920983 -0.00575131 -0.0312561 0.00921231 0.00966014 -0.0327118 0.0139594 0.0168731 -0.0256863 0.000983762 -0.00111122 0.018741 0.0455566
internal_weight=9174.99 5715.68 4255.39 3678.65 576.735 1460.3 3459.3 148.364 1311.93 1888.59 79.2365 1570.71 1500.19 1809.35 70.5255
internal_count=584875 194422 119328 105490 13838 75094 390453 5083 70011 245957 9006 144496 138693 236951 5803
is_linear=0
shrinkage=0.05


Tree=41
num_leaves=16
num_cat=0
split_feature=6 24 24 17 11 7 12 12 11 25 11 9 12 12 11
split_gain=160.083 128.347 158.642 134.79 85.2356 63.0216 67.3378 52.023 39.681 62.7869 40.3821 37.2979 36.2669 34.8114 25.2534
threshold=18.502930000000003 -1.0000000180025095e-35 0.074820000000004341 -1.0000000180025095e-35 0.10472739459474893 3.9598550000000006 95730.969823855921 95578.864045280352 0.10482729703102593 -2.5269136991843313e-05 0.1049295922464928 14.896984999999999 95539.334792171852 95490.479800634042 0.1047910466558508
decision_type=2 2 2 2 2 2 2 2 2 2 2 2 2 2 2
left_child=1 11 3 -3 5 7 -7 -2 9 -6 -10 13 -13 -1 -4
right_child=4 2 14 -5 8 6 -8 -9 10 -11 -12 12 -14 -15 -16
leaf_value=0.020673438430750479 -0.003888636203336765 0.0025006798716600141 0.0062367643045349447 -0.014606939444178794 -0.16299409003620868 -0.0065256212248067519 -0.078378204683906147 0.030691741153153929 -0.0014964861473788739 0.043030227009466827 0.025358404041889743 -0.029401379336729146 -0.26774920368390237 0.0038923979368288815 0.022420429774769608
leaf_weight=668.06195541424677 205.10067234025337 1729.920122331474 588.14199798321351 3439.8145449163858 3.6427267864346495 291.14251164533198 36.659251980017871 230.85394318401814 193.61759650846943 274.38385616801679 501.94048574380577 6.1677499180659634 2.0976572348736227 576.69644481036812 409.90343696367927
leaf_count=76815 26397 52939 52278 68123 251 23542 2332 30481 28512 42810 82002 877 176 50073 47267
internal_value=0.000804989 -0.00239305 -0.00535747 -0.00888141 0.0144672 0.00195556 -0.0145979 0.0144143 0.0242759 0.0402553 0.0178767 0.012194 -0.0929664 0.0129037 0.0128901
internal_weight=9158.14 7420.8 6167.78 5169.73 1737.34 763.756 327.802 435.955 973.585 278.027 695.558 1253.02 8.26541 1244.76 998.045
internal_count=584875 348548 220607 121062 236327 82752 25874 56878 153575 43061 110514 127941 1053 126888 99545
is_linear=0
shrinkage=0.05


Tree=42
num_leaves=15
num_cat=0
split_feature=6 11 16 9 11 12 12 21 4 7 12 16 20 9
split_gain=146.58 121.609 107.4 106.723 80.9459 304.502 66.6374 53.8883 75.1317 68.5117 50.1797 46.5318 281.573 51.0075
threshold=18.502930000000003 0.20977223979641665 -1.0471149366253483e-05 -64.331824999999995 0.10469778983252585 95513.753631743792 95515.888394879439 1.4815034491785082e-06 143165576.30000004 18.368530000000003 95530.217343876764 2.0966118753129596e-05 3.2272265611762886e-06 138.35355000000004
decision_type=2 2 2 2 2 2 2 2 2 2 2 2 2 2
left_child=1 2 10 -4 5 -2 -7 8 -3 -9 -1 13 -13 -6
right_child=4 7 3 -5 11 6 -8 9 -10 -11 -12 12 -14 -15
leaf_value=0.027262069446810949 -0.5517914156619782 -0.049039841475405202 -0.019803520465824811 0.0003503826519148422 0.029950340215510768 -0.13999600250159758 0.0040029315043156417 -0.041357411779253353 0.0024078700214010913 0.0033579869010964929 -0.0037559765088519981 -0.67532344727374349 0.0080759577026241255 -0.076206648695880244
leaf_weight=488.28584629110992 2.3900276254862538 261.98404334113002 751.22786958422512 5221.4758644450922 790.32336298655719 8.0351498564705235 640.35852175322361 117.78094797069207 97.049378223717213 312.78037817729637 177.48076697485521 1.4159655149560411 259.24068604456261 11.361338258488102
leaf_count=57527 193 3698 10677 244198 118094 845 68687 4818 1018 9791 16821 264 46169 2075
internal_value=0.000773011 -0.00226707 -5.97971e-05 -0.00218396 0.013957 6.27566e-05 0.00218942 -0.0208159 -0.0351224 -0.00886916 0.0189864 0.0224631 0.00408679 0.0284303
internal_weight=9141.19 7428.07 6638.47 5972.7 1713.13 650.784 648.394 789.595 359.033 430.561 665.767 1062.34 260.657 801.685
internal_count=584875 348548 329223 254875 236327 69725 69532 19325 4716 14609 74348 166602 46433 120169
is_linear=0
shrinkage=0.05


Tree=43
num_leaves=15
num_cat=0
split_feature=6 24 24 0 12 7 6 24 11 12 12 7 12 11
split_gain=134.387 112.64 137.32 130.774 77.2569 57.7434 166.083 71.9151 49.4379 86.6206 42.3671 35.5826 30.7875 23.3221
threshold=18.502930000000003 -1.0000000180025095e-35 0.074820000000004341 -0.83691738050006514 95730.969823855921 4.5566450000000005 25.305300000000006 -32.24631999999999 0.10472739459474893 95596.000147581231 95396.394402818332 0.32216500000000009 95490.479800634042 0.1047910466558508
decision_type=2 2 2 2 2 2 2 2 2 2 2 2 2 2
left_child=1 11 3 -3 8 7 -7 -6 9 -2 -10 -1 -13 -4
right_child=4 2 13 -5 5 6 -8 -9 10 -11 -12 12 -14 -15
leaf_value=-0.19892986051614389 -0.0088644201224713139 -0.0042150342882091426 0.0058780188365262229 -0.024161437198034652 -0.28191487684833172 0.029795725459256607 -0.18695974828223957 0.017406168875551804 0.015920549946304024 0.027447157018894875 0.038751133133996363 0.019386061884561157 0.0035410029536488614 0.021589417608191636
leaf_weight=1.9006630303338159 410.69110964122228 4197.5296637881547 583.48027705727145 1021.9980435802136 2.0054918832611284 16.99284668173641 18.18441189173609 42.515066529624164 624.57113830139861 273.42778282333165 302.29470666567795 656.74176130769774 576.66633313661441 398.27552974922583
leaf_count=189 44726 71849 52278 49213 218 1051 1039 5469 103816 30683 49325 77493 50259 47267
internal_value=0.000744882 -0.00214741 -0.00489448 -0.00812194 0.0134692 -0.0345368 -0.0823237 0.00320918 0.0158492 0.00564313 0.0233755 0.0116382 0.0119828 0.0122584
internal_weight=9127.27 7436.59 6201.28 5219.53 1690.68 79.6978 35.1773 44.5206 1610.98 684.119 926.866 1235.31 1233.41 981.756
internal_count=584875 348548 220607 121062 236327 7777 2090 5687 228550 75409 153141 127941 127752 99545
is_linear=0
shrinkage=0.05


Tree=44
num_leaves=14
num_cat=0
split_feature=7 17 11 2 9 3 2 12 12 12 13 23 18
split_gain=125.118 120.225 120.85 190.454 151.071 92.0487 109.943 76.3391 37.664 36.9548 113.736 35.1039 7.56783
threshold=2.8016600000000005 -1.0000000180025095e-35 0.10519450464198785 -0.99978778273891289 -64.331824999999995 -0.99946543071214344 -0.99919221130401203 94656.000189891813 94821.968584772956 94930.09851775461 1.8859549152813921e-05 -0.20927507122799321 9.8310310237520866e-05
decision_type=2 2 2 2 2 2 2 2 2 2 2 2 2
left_child=8 5 4 -4 -3 6 -2 -7 12 10 -10 -11 -1
right_child=1 2 3 -5 -6 7 -8 -9 9 11 -12 -13 -14
leaf_value=0.05018231626265527 -0.0082355428947453301 -0.033812387164070763 0.021718762411571352 -0.025042524686843867 0.0020258308375109145 -0.019013265691661341 -0.14879639717900867 0.014872236044784395 -0.0070676001657873763 -0.067504053753871279 -0.31916639201740843 0.01908723232656917 -0.076132611199425146
leaf_weight=91.867843390442431 445.64448255114257 319.07438567280769 261.54872482456267 1295.419926176779 3735.3120858953334 181.36283015925437 14.267439915798603 1964.4631689479575 47.836524054873735 11.771524179959668 3.0122704124078146 743.16815636120737 1.085197809152304
leaf_count=18159 9862 5647 2522 38747 222198 7401 195 140987 9145 1675 511 127691 135
internal_value=0.000715965 -0.00122081 -0.00534267 -0.0171832 -0.000794117 0.00765338 -0.0126383 0.0120052 0.0184274 0.0149381 -0.0262446 0.0177217 0.0485737
internal_weight=9115.83 8217.09 5611.36 1556.97 4054.39 2605.74 459.912 2145.83 898.742 805.788 50.8488 754.94 92.953
internal_count=584875 427559 269114 41269 227845 158445 10057 148388 157316 139022 9656 129366 18294
is_linear=0
shrinkage=0.05


Tree=45
num_leaves=16
num_cat=0
split_feature=11 13 16 4 7 21 21 4 2 12 12 4 0 7 6
split_gain=111.042 96.0473 93.3938 96.7213 70.2495 84.2915 66.7329 81.2793 61.8532 51.8468 44.0305 77.8304 39.9525 30.6643 12.1999
threshold=0.21141984281525322 5.0535230966807205e-06 -1.0471149366253483e-05 238609293.38888893 9.1701300000000021 2.9645130984907536e-06 1.4815034491785082e-06 143165576.30000004 -0.99975586474983968 95490.479800634042 94656.000189891813 75350302.666666672 0.99837366933576688 39.357865000000004 7.7916300000000005
decision_type=2 2 2 2 2 2 2 2 2 2 2 2 2 2 2
left_child=1 2 9 -4 14 -6 7 8 -2 -1 11 -8 -12 -9 -3
right_child=6 4 3 -5 5 -7 10 13 -10 -11 12 -13 -14 -15 -16
leaf_value=0.027691064636000969 -0.12748466421513086 -0.09425809592940404 0.00023066887031395345 -0.035427475113585745 -0.20110194411966076 0.014464877270558894 0.016152263184098067 -0.014690951750519116 -0.040741504529190974 -0.00042452621096155909 0.0071079596621545079 -0.08321254660857727 -0.060221165438494387 0.0437707730148712 0.027059730818362826
leaf_weight=478.27029598853551 22.596580510027707 1.9674133318476368 6868.6233802507631 195.4799291389063 7.45016174996272 11.227531261742113 35.906963241985068 68.879512309096754 228.52891057124361 248.95527689950541 349.96448357054032 43.317461642902344 23.406142287421972 33.111713506281376 506.49558316427283
leaf_count=60472 138 175 358494 6246 765 1128 2329 1013 4158 24302 14453 1029 4711 291 106147
internal_value=0.000681028 0.00239829 0.00099999 -0.000755853 0.023052 -0.0718672 -0.0170405 -0.0333303 -0.0486143 0.0180605 -0.0043155 -0.0381507 0.0028588 0.0042641 0.026562
internal_weight=9124.18 8318.47 7791.33 7064.1 527.141 18.6777 805.712 353.117 251.125 727.226 452.595 79.2244 373.371 101.991 508.463
internal_count=585851 557729 449514 364740 108215 1893 28122 5600 4296 84774 22522 3358 19164 1304 106322
is_linear=0
shrinkage=0.05


Tree=46
num_leaves=15
num_cat=0
split_feature=3 17 7 11 10 20 4 0 12 9 11 11 1 6
split_gain=107.726 91.4401 114.401 122.264 67.2083 60.6425 67.2312 94.1082 53.936 52.3551 43.8074 27.7887 63.1286 21.4191
threshold=-0.99933849901288241 -1.0000000180025095e-35 5.2810750000000004 0.10535298517975834 28.500000000000004 1.1702934420738009e-06 29020048.317567572 -0.99999168039932218 95526.328200484117 -69.787564999999987 0.10461345329295534 0.10459047599411658 -0.99996226389285592 0.015835000000000005
decision_type=2 2 2 2 2 2 2 2 2 2 2 2 2 2
left_child=5 4 10 -4 9 6 -1 -8 -6 -2 -3 12 -7 -13
right_child=1 2 3 -5 8 11 7 -9 -10 -11 -12 13 -14 -15
leaf_value=-0.076114430469937502 -0.01175654328310044 0.03068881110943163 1.7094014351100446e-05 -0.019549063266030803 0.0088756044895705842 -0.1822250881628158 0.032426530382551298 -0.021161740460595237 -0.16409056452543241 0.014717897424186567 0.0078346322466229645 0.039975066059746316 0.038072331142573357 -0.057825377327896138
leaf_weight=48.274839177727699 206.30714039690793 262.93819031724706 3601.171559849754 1025.5695099406876 8.2363525112159568 5.0457246880978337 91.427864774130285 776.81830809777603 9.6914528775960189 1943.4389395797625 1040.0916316995863 79.410449455492198 8.6991058229468745 5.8955927039496592
leaf_count=344 9763 32277 192287 21719 333 307 691 6496 201 156272 156580 7142 853 586
internal_value=0.000653128 0.00257893 -0.000632808 -0.00431921 0.0113667 -0.0146957 -0.0187155 -0.01551 -0.084741 0.0121744 0.0124522 0.0224311 -0.0431697 0.0330976
internal_weight=9113.02 8097.44 5929.77 4626.74 2167.67 1015.57 916.521 868.246 17.9278 2149.75 1303.03 99.0509 13.7448 85.306
internal_count=585851 569432 402863 214006 166569 16419 7531 7187 534 166035 188857 8888 1160 7728
is_linear=0
shrinkage=0.05


Tree=47
num_leaves=14
num_cat=0
split_feature=3 21 21 17 17 11 1 1 11 17 21 25 24
split_gain=98.6682 94.4243 101.391 208.49 94.7676 81.0266 144.285 115.251 109.319 86.9989 84.7601 73.9747 1.74369
threshold=-0.99451991295571462 8.4428155216130163e-05 6.6694513422855143e-05 -0.00026154868412664451 0.00020039129103821554 0.10505746643703831 -0.99989493437005594 -0.99996226389285592 0.10510605200937738 -8.3672818448121675e-05 2.9605567737874809e-06 -6.1240926078849312e-06 -52.271114999999988
decision_type=2 2 2 2 2 2 2 2 2 2 2 2 2
left_child=5 2 4 -4 -2 7 11 9 -8 -1 -9 -7 -3
right_child=1 12 3 -5 -6 6 8 10 -10 -11 -12 -13 -14
leaf_value=0.029947150454457602 0.0042078412288071741 0.003842032773325565 -0.30400130812289822 0.049606584824884101 -0.028256953540681369 0.01416469730197943 -0.16200454644253848 -0.0052953785140839134 -0.029917528971165439 -0.056346926967820322 0.023942677137781643 -0.10039001903491358 0.051046225658853819
leaf_weight=37.000815384089947 6586.1171846711077 2.2447581074666223 7.9217233119998136 8.5866377027705312 232.60131809394807 289.47924009943381 15.996779524255542 635.57918383227661 620.48902952391654 136.48404361540452 406.03352430136874 14.707131769973783 104.79494318854995
leaf_count=1172 515010 209 711 702 21362 4658 388 7482 8924 2340 12634 141 10118
internal_value=0.000626824 0.00352893 0.00279806 -0.120584 0.00309927 -0.00871629 -0.0197326 -0.000182905 -0.0332701 -0.0379067 0.00609838 0.00857848 0.0501075
internal_weight=9098.04 6942.27 6835.23 16.5084 6818.72 2155.77 940.672 1215.1 636.486 173.485 1041.61 304.186 107.04
internal_count=585851 548112 537785 1413 536372 37739 14111 23628 9312 3512 20116 4799 10327
is_linear=0
shrinkage=0.05


Tree=48
num_leaves=9
num_cat=0
split_feature=7 3 12 21 4 9 11 21
split_gain=94.9302 83.5874 77.8253 76.6623 75.7554 85.9636 74.129 28.2548
threshold=33.358375000000002 -0.99985511178535225 94455.654724617125 8.4428155216130163e-05 536870911.37500006 79.780750000000026 0.10532746308564543 1.4803093758250896e-06
decision_type=2 2 2 2 2 2 2 2
left_child=1 -1 -2 6 5 -4 -3 -6
right_child=2 3 4 -5 7 -7 -8 -9
leaf_value=-0.12933093510158408 0.049926724628499002 0.0071308583968134696 -0.0059085907490721975 0.0511545948887571 -0.12074678720512087 -0.18802211760557044 -0.0061247778368020917 -0.042299267580454734
leaf_weight=11.5621006693691 60.248984938487411 4388.6269002673216 3084.435442309361 87.215029561892152 15.530865170061587 6.395596280694007 1387.8663710507099 45.534166940487921
leaf_count=175 1060 393360 95974 8865 85 560 85059 713
internal_value=0.000603188 0.00438231 -0.00630749 0.00464902 -0.00738556 -0.00629311 0.00394513 -0.0624976
internal_weight=9087.42 5875.27 3212.15 5863.71 3151.9 3090.83 5776.49 61.065
internal_count=585851 487459 98392 487284 97332 96534 478419 798
is_linear=0
shrinkage=0.05


Tree=49
num_leaves=16
num_cat=0
split_feature=6 16 4 4 21 11 9 12 4 0 1 11 21 13 4
split_gain=90.5064 88.329 96.4565 124.958 89.8126 74.4699 54.009 72.3942 46.6446 92.9298 57.4055 28.7627 206.372 34.219 21.795
threshold=18.502930000000003 -1.0471149366253483e-05 76695843.696428582 238609293.38888893 7.2758048817495963e-06 0.10472739459474893 39.734050000000003 95591.248497671055 110127366.20512822 -0.80340920602578003 0.59715315125259361 0.10468463753231062 2.3411081641500598e-06 -1.5757096622573232e-05 0.96380016380016398
decision_type=2 2 2 2 2 2 2 2 2 2 2 2 2 2 2
left_child=1 11 4 -4 -3 6 7 -2 10 -10 -7 12 -1 -13 -8
right_child=5 2 3 -5 -6 8 14 -9 9 -11 -12 13 -14 -15 -16
leaf_value=-0.34627745617325112 -0.023085314114368132 -0.015764842905749681 0.0042005328445959278 -0.030179623914011907 0.0043015403509811681 0.048037615851711485 0.041616981082307672 0.011403397094229007 -0.15416713368857723 0.0068126822545107506 0.016886888962442528 -0.0073418838519640458 0.0051134286739537797 0.024967296220654873 -0.008564057299780067
leaf_weight=4.1843407531268886 318.25509923929349 2123.6066055265255 3529.3116931584664 285.57280333992094 755.63875020714477 193.53598490171134 92.921683511929587 291.1664127712138 10.645327221136538 53.786887714639306 631.5980639308691 97.965783177409321 168.40355744538829 493.07581532397307 27.95563289267011
leaf_count=426 30554 77993 143311 7094 37609 24957 16670 29529 1064 5413 122360 5467 16450 60791 6163
internal_value=0.000576583 -0.00174967 -0.00358819 0.00162489 -0.0104969 0.0112891 -0.000536542 -0.0066001 0.021002 -0.0199042 0.0242043 0.0143589 -0.00357257 0.0196032 0.0299727
internal_weight=9077.62 7457.76 6694.13 3814.88 2879.25 1619.87 730.299 609.422 889.566 64.4322 825.134 763.629 172.588 591.042 120.877
internal_count=585851 349141 266007 150405 115602 236710 82916 60083 153794 6477 147317 83134 16876 66258 22833
is_linear=0
shrinkage=0.05


Tree=50
num_leaves=14
num_cat=0
split_feature=7 17 21 17 3 12 2 12 21 12 17 14 15
split_gain=104.456 95.6971 100.11 156.283 81.2024 78.44 61.2219 37.0235 34.6099 48.6237 15.272 7.99799 7.75882
threshold=2.8016600000000005 -1.0000000180025095e-35 5.2628828409384986e-05 0.00020039129103821554 -0.99946543071214344 94656.000189891813 -0.99919221130401203 94821.968584772956 2.2295876096072634e-05 94833.064186191943 0.00038864325850873632 0.00022054540379912171 0.00022718587562398088
decision_type=2 2 2 2 2 2 2 2 2 2 2 2 2
left_child=7 4 3 -3 6 -6 -2 11 9 -9 -4 -1 -10
right_child=1 2 10 -5 5 -7 -8 8 12 -11 -12 -13 -14
leaf_value=0.05015593433777165 -0.0084767845594784733 -0.004010453938141716 -0.046431960617582813 -0.052149847865845173 -0.019766856411330982 0.014238316837492793 -0.10917377100312338 -0.15706456289950618 0.044992866397587143 0.010768623550368089 0.052287018576589211 -0.083527731590141041 -0.0061985538915206462
leaf_weight=85.227511694189161 451.04355085035786 5389.6852829805575 3.9777755346149197 173.9683804041706 185.98807475110516 1901.2609637379646 15.530833640601484 4.2408383830916128 93.889104256872088 658.43360123550519 85.394211262464523 1.0193488500080992 7.8259624014608553
leaf_count=18199 9763 255805 210 8319 7339 141274 188 869 16136 121636 5268 111 881
internal_value=0.00068467 -0.00104352 -0.00467303 -0.00551752 0.00698849 0.011205 -0.0118621 0.0173621 0.0138451 0.00966348 0.0477904 0.0484231 0.0410029
internal_weight=9057.49 8206.85 5653.03 5563.65 2553.82 2087.25 466.574 850.636 764.39 662.674 89.372 86.2469 101.715
internal_count=585998 428166 269602 264124 158564 148613 9951 157832 139522 122505 5478 18310 17017
is_linear=0
shrinkage=0.05


Tree=51
num_leaves=14
num_cat=0
split_feature=7 17 21 17 13 6 6 12 0 21 17 7 15
split_gain=95.9867 86.5435 93.7388 133.541 78.4832 104.653 90.6234 36.2372 33.8671 37.7053 14.5307 11.3454 8.55104
threshold=2.8016600000000005 -1.0000000180025095e-35 5.2628828409384986e-05 0.00020039129103821554 -5.2515232330417286e-06 0.24634000000000003 0.0053250000000000007 94821.968584772956 0.99993602811648152 2.2295876096072634e-05 0.00038864325850873632 1.0601200000000002 0.00024821111346273744
decision_type=2 2 2 2 2 2 2 2 2 2 2 2 2
left_child=7 4 3 -3 5 -2 -6 12 9 -9 -4 -10 -1
right_child=1 2 10 -5 6 -7 -8 8 11 -11 -12 -13 -14
leaf_value=0.050137912464463988 -0.02043097562047334 -0.0037969851719128929 -0.042289012807066734 -0.047357299433912647 -0.038387886288960088 0.019633028978464685 0.014783857110271801 0.0040170526092091633 0.043814594793691417 0.040123480671231976 0.052174367182110652 -0.0021875225273149247 -0.092870806391410876
leaf_weight=81.26117404224351 489.51515710912645 5407.594669858925 4.1540846386924377 181.7913589249365 83.911741634365171 244.15112349716946 1718.4047958578449 552.50496825389564 103.29833448911086 83.187528936658055 81.40066580590792 15.152579521993173 0.94635889981873234
leaf_count=18196 11872 255805 210 8319 1745 12781 132166 95341 27714 13362 5268 3105 114
internal_value=0.000655927 -0.000987247 -0.00441926 -0.00521547 0.0066907 -0.00709071 0.0123035 0.016792 0.0133427 0.00875542 0.0474853 0.0378908 0.04832
internal_weight=9047.27 8210.92 5674.94 5589.39 2535.98 733.666 1802.32 836.351 754.143 635.692 85.5548 118.451 82.2075
internal_count=585998 428166 269602 264124 158564 24653 133911 157832 139522 108703 5478 30819 18310
is_linear=0
shrinkage=0.05


Tree=52
num_leaves=14
num_cat=0
split_feature=7 17 21 17 13 6 6 12 0 11 17 7 15
split_gain=88.1667 78.3028 87.8056 114.683 71.6185 93.9717 81.153 35.4242 32.5054 37.1008 13.8737 11.1054 7.85646
threshold=2.8016600000000005 -1.0000000180025095e-35 5.2628828409384986e-05 0.00020039129103821554 -5.2515232330417286e-06 0.24634000000000003 0.0053250000000000007 94821.968584772956 0.99993602811648152 0.10462877710171677 0.00038864325850873632 1.0601200000000002 0.00024821111346273744
decision_type=2 2 2 2 2 2 2 2 2 2 2 2 2
left_child=7 4 3 -3 5 -2 -6 12 9 -9 -4 -10 -1
right_child=1 2 10 -5 6 -7 -8 8 11 -11 -12 -13 -14
leaf_value=0.05011892163390691 -0.019095510787958566 -0.0035955367795439414 -0.038666297555691155 -0.043194242080004754 -0.035394842545139325 0.018997466014371529 0.014243080431823964 0.031061229751471811 0.043522768163065717 0.0018918426664138112 0.052065796298782691 -0.0020742802376958586 -0.081469343680861089
leaf_weight=77.326611657161266 497.35998424282297 5424.5964020490646 4.3209579819813362 189.15570587292314 86.398330391850322 239.81885463511571 1695.0766048424412 140.26727323466912 98.90348974452354 490.03246259340085 77.588309905258939 15.185412676073609 1.0363285425119091
leaf_count=18196 11872 255805 210 8319 1745 12781 132166 21528 27714 87175 5268 3105 114
internal_value=0.000628897 -0.000933597 -0.00418039 -0.00493145 0.00640656 -0.00669543 0.0118311 0.0162331 0.0128537 0.00839504 0.0471771 0.0374134 0.0482134
internal_weight=9037.07 8214.32 5695.66 5613.75 2518.65 737.179 1781.47 822.752 744.389 630.3 81.9093 114.089 78.3629
internal_count=585998 428166 269602 264124 158564 24653 133911 157832 139522 108703 5478 30819 18310
is_linear=0
shrinkage=0.05


Tree=53
num_leaves=16
num_cat=0
split_feature=11 2 17 4 21 16 4 2 12 4 2 13 23 11 11
split_gain=81.7107 75.1538 79.3441 93.1915 63.2731 53.7546 52.8491 48.2852 37.0605 57.0745 37.0544 34.0414 14.3694 22.194 14.02
threshold=0.21141984281525322 0.97802771617609119 -0.00012636633617901791 390451572.18181819 1.4815034491785082e-06 7.3386416224785491e-05 143165576.30000004 -0.99975586474983968 94656.000189891813 715827882.16666687 -0.99993569148665762 -1.5757096622573232e-05 -0.20927507122799321 0.10463753557962631 0.20977223979641665
decision_type=2 2 2 2 2 2 2 2 2 2 2 2 2 2 2
left_child=1 2 5 -4 6 -1 7 -2 9 -6 -10 -8 13 -3 -14
right_child=4 12 3 -5 8 -7 11 -9 10 -11 -12 -13 14 -15 -16
